FANN_FLO_2.1
num_layers=6
learning_rate=0.700000
connection_rate=1.000000
network_type=0
learning_momentum=0.000000
training_algorithm=2
train_error_function=1
train_stop_function=0
cascade_output_change_fraction=0.010000
quickprop_decay=-0.000100
quickprop_mu=1.750000
rprop_increase_factor=1.200000
rprop_decrease_factor=0.500000
rprop_delta_min=0.000000
rprop_delta_max=50.000000
rprop_delta_zero=0.100000
cascade_output_stagnation_epochs=12
cascade_candidate_change_fraction=0.010000
cascade_candidate_stagnation_epochs=12
cascade_max_out_epochs=150
cascade_min_out_epochs=50
cascade_max_cand_epochs=150
cascade_min_cand_epochs=50
cascade_num_candidate_groups=2
bit_fail_limit=3.49999994039535520000e-001
cascade_candidate_limit=1.00000000000000000000e+003
cascade_weight_multiplier=4.00000005960464480000e-001
cascade_activation_functions_count=10
cascade_activation_functions=3 5 7 8 10 11 14 15 16 17 
cascade_activation_steepnesses_count=4
cascade_activation_steepnesses=2.50000000000000000000e-001 5.00000000000000000000e-001 7.50000000000000000000e-001 1.00000000000000000000e+000 
layer_sizes=101 81 61 41 11 4 
scale_included=0
neurons (num_inputs, activation_function, activation_steepness)=(0, 0, 0.00000000000000000000e+000) (0, 0, 0.00000000000000000000e+000) (0, 0, 0.00000000000000000000e+000) (0, 0, 0.00000000000000000000e+000) (0, 0, 0.00000000000000000000e+000) (0, 0, 0.00000000000000000000e+000) (0, 0, 0.00000000000000000000e+000) (0, 0, 0.00000000000000000000e+000) (0, 0, 0.00000000000000000000e+000) (0, 0, 0.00000000000000000000e+000) (0, 0, 0.00000000000000000000e+000) (0, 0, 0.00000000000000000000e+000) (0, 0, 0.00000000000000000000e+000) (0, 0, 0.00000000000000000000e+000) (0, 0, 0.00000000000000000000e+000) (0, 0, 0.00000000000000000000e+000) (0, 0, 0.00000000000000000000e+000) (0, 0, 0.00000000000000000000e+000) (0, 0, 0.00000000000000000000e+000) (0, 0, 0.00000000000000000000e+000) (0, 0, 0.00000000000000000000e+000) (0, 0, 0.00000000000000000000e+000) (0, 0, 0.00000000000000000000e+000) (0, 0, 0.00000000000000000000e+000) (0, 0, 0.00000000000000000000e+000) (0, 0, 0.00000000000000000000e+000) (0, 0, 0.00000000000000000000e+000) (0, 0, 0.00000000000000000000e+000) (0, 0, 0.00000000000000000000e+000) (0, 0, 0.00000000000000000000e+000) (0, 0, 0.00000000000000000000e+000) (0, 0, 0.00000000000000000000e+000) (0, 0, 0.00000000000000000000e+000) (0, 0, 0.00000000000000000000e+000) (0, 0, 0.00000000000000000000e+000) (0, 0, 0.00000000000000000000e+000) (0, 0, 0.00000000000000000000e+000) (0, 0, 0.00000000000000000000e+000) (0, 0, 0.00000000000000000000e+000) (0, 0, 0.00000000000000000000e+000) (0, 0, 0.00000000000000000000e+000) (0, 0, 0.00000000000000000000e+000) (0, 0, 0.00000000000000000000e+000) (0, 0, 0.00000000000000000000e+000) (0, 0, 0.00000000000000000000e+000) (0, 0, 0.00000000000000000000e+000) (0, 0, 0.00000000000000000000e+000) (0, 0, 0.00000000000000000000e+000) (0, 0, 0.00000000000000000000e+000) (0, 0, 0.00000000000000000000e+000) (0, 0, 0.00000000000000000000e+000) (0, 0, 0.00000000000000000000e+000) (0, 0, 0.00000000000000000000e+000) (0, 0, 0.00000000000000000000e+000) (0, 0, 0.00000000000000000000e+000) (0, 0, 0.00000000000000000000e+000) (0, 0, 0.00000000000000000000e+000) (0, 0, 0.00000000000000000000e+000) (0, 0, 0.00000000000000000000e+000) (0, 0, 0.00000000000000000000e+000) (0, 0, 0.00000000000000000000e+000) (0, 0, 0.00000000000000000000e+000) (0, 0, 0.00000000000000000000e+000) (0, 0, 0.00000000000000000000e+000) (0, 0, 0.00000000000000000000e+000) (0, 0, 0.00000000000000000000e+000) (0, 0, 0.00000000000000000000e+000) (0, 0, 0.00000000000000000000e+000) (0, 0, 0.00000000000000000000e+000) (0, 0, 0.00000000000000000000e+000) (0, 0, 0.00000000000000000000e+000) (0, 0, 0.00000000000000000000e+000) (0, 0, 0.00000000000000000000e+000) (0, 0, 0.00000000000000000000e+000) (0, 0, 0.00000000000000000000e+000) (0, 0, 0.00000000000000000000e+000) (0, 0, 0.00000000000000000000e+000) (0, 0, 0.00000000000000000000e+000) (0, 0, 0.00000000000000000000e+000) (0, 0, 0.00000000000000000000e+000) (0, 0, 0.00000000000000000000e+000) (0, 0, 0.00000000000000000000e+000) (0, 0, 0.00000000000000000000e+000) (0, 0, 0.00000000000000000000e+000) (0, 0, 0.00000000000000000000e+000) (0, 0, 0.00000000000000000000e+000) (0, 0, 0.00000000000000000000e+000) (0, 0, 0.00000000000000000000e+000) (0, 0, 0.00000000000000000000e+000) (0, 0, 0.00000000000000000000e+000) (0, 0, 0.00000000000000000000e+000) (0, 0, 0.00000000000000000000e+000) (0, 0, 0.00000000000000000000e+000) (0, 0, 0.00000000000000000000e+000) (0, 0, 0.00000000000000000000e+000) (0, 0, 0.00000000000000000000e+000) (0, 0, 0.00000000000000000000e+000) (0, 0, 0.00000000000000000000e+000) (0, 0, 0.00000000000000000000e+000) (0, 0, 0.00000000000000000000e+000) (0, 0, 0.00000000000000000000e+000) (101, 6, 1.00000000000000000000e+000) (101, 6, 1.00000000000000000000e+000) (101, 6, 1.00000000000000000000e+000) (101, 6, 1.00000000000000000000e+000) (101, 6, 1.00000000000000000000e+000) (101, 6, 1.00000000000000000000e+000) (101, 6, 1.00000000000000000000e+000) (101, 6, 1.00000000000000000000e+000) (101, 6, 1.00000000000000000000e+000) (101, 6, 1.00000000000000000000e+000) (101, 6, 1.00000000000000000000e+000) (101, 6, 1.00000000000000000000e+000) (101, 6, 1.00000000000000000000e+000) (101, 6, 1.00000000000000000000e+000) (101, 6, 1.00000000000000000000e+000) (101, 6, 1.00000000000000000000e+000) (101, 6, 1.00000000000000000000e+000) (101, 6, 1.00000000000000000000e+000) (101, 6, 1.00000000000000000000e+000) (101, 6, 1.00000000000000000000e+000) (101, 6, 1.00000000000000000000e+000) (101, 6, 1.00000000000000000000e+000) (101, 6, 1.00000000000000000000e+000) (101, 6, 1.00000000000000000000e+000) (101, 6, 1.00000000000000000000e+000) (101, 6, 1.00000000000000000000e+000) (101, 6, 1.00000000000000000000e+000) (101, 6, 1.00000000000000000000e+000) (101, 6, 1.00000000000000000000e+000) (101, 6, 1.00000000000000000000e+000) (101, 6, 1.00000000000000000000e+000) (101, 6, 1.00000000000000000000e+000) (101, 6, 1.00000000000000000000e+000) (101, 6, 1.00000000000000000000e+000) (101, 6, 1.00000000000000000000e+000) (101, 6, 1.00000000000000000000e+000) (101, 6, 1.00000000000000000000e+000) (101, 6, 1.00000000000000000000e+000) (101, 6, 1.00000000000000000000e+000) (101, 6, 1.00000000000000000000e+000) (101, 6, 1.00000000000000000000e+000) (101, 6, 1.00000000000000000000e+000) (101, 6, 1.00000000000000000000e+000) (101, 6, 1.00000000000000000000e+000) (101, 6, 1.00000000000000000000e+000) (101, 6, 1.00000000000000000000e+000) (101, 6, 1.00000000000000000000e+000) (101, 6, 1.00000000000000000000e+000) (101, 6, 1.00000000000000000000e+000) (101, 6, 1.00000000000000000000e+000) (101, 6, 1.00000000000000000000e+000) (101, 6, 1.00000000000000000000e+000) (101, 6, 1.00000000000000000000e+000) (101, 6, 1.00000000000000000000e+000) (101, 6, 1.00000000000000000000e+000) (101, 6, 1.00000000000000000000e+000) (101, 6, 1.00000000000000000000e+000) (101, 6, 1.00000000000000000000e+000) (101, 6, 1.00000000000000000000e+000) (101, 6, 1.00000000000000000000e+000) (101, 6, 1.00000000000000000000e+000) (101, 6, 1.00000000000000000000e+000) (101, 6, 1.00000000000000000000e+000) (101, 6, 1.00000000000000000000e+000) (101, 6, 1.00000000000000000000e+000) (101, 6, 1.00000000000000000000e+000) (101, 6, 1.00000000000000000000e+000) (101, 6, 1.00000000000000000000e+000) (101, 6, 1.00000000000000000000e+000) (101, 6, 1.00000000000000000000e+000) (101, 6, 1.00000000000000000000e+000) (101, 6, 1.00000000000000000000e+000) (101, 6, 1.00000000000000000000e+000) (101, 6, 1.00000000000000000000e+000) (101, 6, 1.00000000000000000000e+000) (101, 6, 1.00000000000000000000e+000) (101, 6, 1.00000000000000000000e+000) (101, 6, 1.00000000000000000000e+000) (101, 6, 1.00000000000000000000e+000) (101, 6, 1.00000000000000000000e+000) (0, 6, 1.00000000000000000000e+000) (81, 6, 1.00000000000000000000e+000) (81, 6, 1.00000000000000000000e+000) (81, 6, 1.00000000000000000000e+000) (81, 6, 1.00000000000000000000e+000) (81, 6, 1.00000000000000000000e+000) (81, 6, 1.00000000000000000000e+000) (81, 6, 1.00000000000000000000e+000) (81, 6, 1.00000000000000000000e+000) (81, 6, 1.00000000000000000000e+000) (81, 6, 1.00000000000000000000e+000) (81, 6, 1.00000000000000000000e+000) (81, 6, 1.00000000000000000000e+000) (81, 6, 1.00000000000000000000e+000) (81, 6, 1.00000000000000000000e+000) (81, 6, 1.00000000000000000000e+000) (81, 6, 1.00000000000000000000e+000) (81, 6, 1.00000000000000000000e+000) (81, 6, 1.00000000000000000000e+000) (81, 6, 1.00000000000000000000e+000) (81, 6, 1.00000000000000000000e+000) (81, 6, 1.00000000000000000000e+000) (81, 6, 1.00000000000000000000e+000) (81, 6, 1.00000000000000000000e+000) (81, 6, 1.00000000000000000000e+000) (81, 6, 1.00000000000000000000e+000) (81, 6, 1.00000000000000000000e+000) (81, 6, 1.00000000000000000000e+000) (81, 6, 1.00000000000000000000e+000) (81, 6, 1.00000000000000000000e+000) (81, 6, 1.00000000000000000000e+000) (81, 6, 1.00000000000000000000e+000) (81, 6, 1.00000000000000000000e+000) (81, 6, 1.00000000000000000000e+000) (81, 6, 1.00000000000000000000e+000) (81, 6, 1.00000000000000000000e+000) (81, 6, 1.00000000000000000000e+000) (81, 6, 1.00000000000000000000e+000) (81, 6, 1.00000000000000000000e+000) (81, 6, 1.00000000000000000000e+000) (81, 6, 1.00000000000000000000e+000) (81, 6, 1.00000000000000000000e+000) (81, 6, 1.00000000000000000000e+000) (81, 6, 1.00000000000000000000e+000) (81, 6, 1.00000000000000000000e+000) (81, 6, 1.00000000000000000000e+000) (81, 6, 1.00000000000000000000e+000) (81, 6, 1.00000000000000000000e+000) (81, 6, 1.00000000000000000000e+000) (81, 6, 1.00000000000000000000e+000) (81, 6, 1.00000000000000000000e+000) (81, 6, 1.00000000000000000000e+000) (81, 6, 1.00000000000000000000e+000) (81, 6, 1.00000000000000000000e+000) (81, 6, 1.00000000000000000000e+000) (81, 6, 1.00000000000000000000e+000) (81, 6, 1.00000000000000000000e+000) (81, 6, 1.00000000000000000000e+000) (81, 6, 1.00000000000000000000e+000) (81, 6, 1.00000000000000000000e+000) (81, 6, 1.00000000000000000000e+000) (0, 6, 1.00000000000000000000e+000) (61, 6, 1.00000000000000000000e+000) (61, 6, 1.00000000000000000000e+000) (61, 6, 1.00000000000000000000e+000) (61, 6, 1.00000000000000000000e+000) (61, 6, 1.00000000000000000000e+000) (61, 6, 1.00000000000000000000e+000) (61, 6, 1.00000000000000000000e+000) (61, 6, 1.00000000000000000000e+000) (61, 6, 1.00000000000000000000e+000) (61, 6, 1.00000000000000000000e+000) (61, 6, 1.00000000000000000000e+000) (61, 6, 1.00000000000000000000e+000) (61, 6, 1.00000000000000000000e+000) (61, 6, 1.00000000000000000000e+000) (61, 6, 1.00000000000000000000e+000) (61, 6, 1.00000000000000000000e+000) (61, 6, 1.00000000000000000000e+000) (61, 6, 1.00000000000000000000e+000) (61, 6, 1.00000000000000000000e+000) (61, 6, 1.00000000000000000000e+000) (61, 6, 1.00000000000000000000e+000) (61, 6, 1.00000000000000000000e+000) (61, 6, 1.00000000000000000000e+000) (61, 6, 1.00000000000000000000e+000) (61, 6, 1.00000000000000000000e+000) (61, 6, 1.00000000000000000000e+000) (61, 6, 1.00000000000000000000e+000) (61, 6, 1.00000000000000000000e+000) (61, 6, 1.00000000000000000000e+000) (61, 6, 1.00000000000000000000e+000) (61, 6, 1.00000000000000000000e+000) (61, 6, 1.00000000000000000000e+000) (61, 6, 1.00000000000000000000e+000) (61, 6, 1.00000000000000000000e+000) (61, 6, 1.00000000000000000000e+000) (61, 6, 1.00000000000000000000e+000) (61, 6, 1.00000000000000000000e+000) (61, 6, 1.00000000000000000000e+000) (61, 6, 1.00000000000000000000e+000) (61, 6, 1.00000000000000000000e+000) (0, 6, 1.00000000000000000000e+000) (41, 6, 1.00000000000000000000e+000) (41, 6, 1.00000000000000000000e+000) (41, 6, 1.00000000000000000000e+000) (41, 6, 1.00000000000000000000e+000) (41, 6, 1.00000000000000000000e+000) (41, 6, 1.00000000000000000000e+000) (41, 6, 1.00000000000000000000e+000) (41, 6, 1.00000000000000000000e+000) (41, 6, 1.00000000000000000000e+000) (41, 6, 1.00000000000000000000e+000) (0, 6, 1.00000000000000000000e+000) (11, 4, 1.00000000000000000000e+000) (11, 4, 1.00000000000000000000e+000) (11, 4, 1.00000000000000000000e+000) (0, 4, 1.00000000000000000000e+000) 
connections (connected_to_neuron, weight)=(0, -1.58804804086685180000e-001) (1, 3.55613201856613160000e-001) (2, -3.28729808330535890000e-001) (3, 3.40664595365524290000e-001) (4, -1.71727585792541500000e+000) (5, -8.36663782596588130000e-001) (6, -9.23191010951995850000e-001) (7, 8.72426107525825500000e-002) (8, -2.06597134470939640000e-001) (9, 1.59290313720703130000e+001) (10, -1.26644328236579900000e-001) (11, 3.84943008422851560000e-001) (12, -1.17229193449020390000e-001) (13, 2.14848208427429200000e+000) (14, 4.88937288522720340000e-001) (15, 1.00728332996368410000e+000) (16, 8.64016056060791020000e-001) (17, 1.54479408264160160000e+001) (18, 5.73877632617950440000e-001) (19, 1.63006172180175780000e+001) (20, -2.60697305202484130000e-001) (21, 1.55408134460449220000e+001) (22, -6.04630410671234130000e-001) (23, 7.50962078571319580000e-001) (24, -1.42408132553100590000e+000) (25, 2.33637988567352290000e-001) (26, -8.55122983455657960000e-001) (27, 1.53949661254882810000e+001) (28, 9.65042188763618470000e-002) (29, 1.60739479064941410000e+001) (30, 3.47236037254333500000e-001) (31, 1.54273986816406250000e+001) (32, -4.26993429660797120000e-001) (33, -4.57201212644577030000e-001) (34, -3.22777009010314940000e+000) (35, -5.47878623008728030000e-001) (36, -8.39451909065246580000e-001) (37, 6.67999923229217530000e-001) (38, -2.38326229155063630000e-002) (39, 1.62951049804687500000e+001) (40, 1.16689309477806090000e-001) (41, 1.11900962889194490000e-001) (42, -1.70081347227096560000e-001) (43, -7.81529426574707030000e-001) (44, 9.99070852994918820000e-002) (45, 2.74033278226852420000e-001) (46, -3.22188675403594970000e-001) (47, 1.60039901733398440000e+001) (48, -1.07347331941127780000e-001) (49, 1.54356670379638670000e+001) (50, 1.54275588989257810000e+001) (51, 1.56189441680908200000e+001) (52, 1.61490669250488280000e+001) (53, 7.10785031318664550000e-001) (54, -1.86523830890655520000e+000) (55, -2.37884774804115300000e-001) (56, -7.03613042831420900000e-001) (57, 1.63131160736083980000e+001) (58, 7.04708874225616460000e-001) (59, 1.62168464660644530000e+001) (60, 1.54407615661621090000e+001) (61, 1.60987854003906250000e+001) (62, 1.55846214294433590000e+001) (63, -5.51492452621459960000e-001) (64, -1.72868895530700680000e+000) (65, 3.05375128984451290000e-001) (66, 3.51133346557617190000e-001) (67, -2.34010927379131320000e-002) (68, 7.23969161510467530000e-001) (69, 1.58043365478515630000e+001) (70, 3.56196761131286620000e-001) (71, 7.05413818359375000000e-001) (72, 7.66912221908569340000e-001) (73, 9.71681356430053710000e-001) (74, 4.39392507076263430000e-001) (75, 1.31032073497772220000e+000) (76, -2.40885213017463680000e-001) (77, 1.57954273223876950000e+001) (78, 5.33223628997802730000e-001) (79, 1.59192256927490230000e+001) (80, 4.15991842746734620000e-001) (81, 3.33917319774627690000e-001) (82, -1.07513993978500370000e-001) (83, -1.93368166685104370000e-001) (84, -2.48275279998779300000e+000) (85, -3.88260900974273680000e-001) (86, -5.54631233215332030000e-001) (87, 1.57601432800292970000e+001) (88, 8.43215167522430420000e-001) (89, 1.63714084625244140000e+001) (90, 1.63151988983154300000e+001) (91, 1.55434722900390630000e+001) (92, 1.59023036956787110000e+001) (93, 1.55998115539550780000e+001) (94, 1.63444252014160160000e+001) (95, 1.59973239898681640000e+001) (96, 1.61097126007080080000e+001) (97, 1.53919219970703130000e+001) (98, 6.70609474182128910000e-001) (99, 1.59963951110839840000e+001) (100, -1.24007511138916020000e+000) (0, 1.41576409339904790000e-001) (1, 6.96876227855682370000e-001) (2, 4.34372335672378540000e-001) (3, -6.68370425701141360000e-002) (4, 3.21150779724121090000e-001) (5, -6.16805851459503170000e-001) (6, -4.32727396488189700000e-001) (7, -9.44315195083618160000e-002) (8, 8.50963145494461060000e-002) (9, 1.62166862487792970000e+001) (10, 4.60109442472457890000e-001) (11, -8.86314362287521360000e-002) (12, 7.72917807102203370000e-001) (13, 1.65629282593727110000e-001) (14, 2.84438908100128170000e-001) (15, 7.53446459770202640000e-001) (16, 1.46051123738288880000e-001) (17, 1.61467914581298830000e+001) (18, -6.04295469820499420000e-002) (19, 1.55659694671630860000e+001) (20, 9.74465250968933110000e-001) (21, 1.54908504486083980000e+001) (22, 6.29092931747436520000e-001) (23, 3.19204956293106080000e-001) (24, 2.90708780288696290000e-001) (25, 4.11666393280029300000e-001) (26, -4.89207506179809570000e-001) (27, 1.54068870544433590000e+001) (28, 5.24010509252548220000e-004) (29, 1.55145339965820310000e+001) (30, 8.66658866405487060000e-001) (31, 1.62034511566162110000e+001) (32, 6.14383280277252200000e-001) (33, -3.44172686338424680000e-001) (34, 4.41362708806991580000e-001) (35, 3.46578687429428100000e-001) (36, -3.27933430671691890000e-001) (37, -1.93809509277343750000e-001) (38, 3.73103529214859010000e-001) (39, 1.55788841247558590000e+001) (40, 1.10726833343505860000e+000) (41, 2.51531213521957400000e-001) (42, -5.43024018406867980000e-003) (43, -5.29549598693847660000e-001) (44, -1.38756111264228820000e-001) (45, 7.63060599565505980000e-002) (46, -2.14540287852287290000e-002) (47, 1.58529186248779300000e+001) (48, -2.34990015625953670000e-001) (49, 1.61312808990478520000e+001) (50, 1.54467868804931640000e+001) (51, 1.56662120819091800000e+001) (52, 1.58497142791748050000e+001) (53, 3.20883870124816890000e-001) (54, -3.19811552762985230000e-001) (55, 5.86715102195739750000e-001) (56, 4.67840939760208130000e-001) (57, 1.58374404907226560000e+001) (58, -5.22547900676727290000e-001) (59, 1.55602645874023440000e+001) (60, 1.56637458801269530000e+001) (61, 1.53904800415039060000e+001) (62, 1.63401317596435550000e+001) (63, 7.38150000572204590000e-001) (64, 5.10504189878702160000e-003) (65, 2.68223553895950320000e-001) (66, -5.12782812118530270000e-001) (67, -2.72933065891265870000e-001) (68, -7.49140679836273190000e-002) (69, 1.59644756317138670000e+001) (70, 1.64284184575080870000e-001) (71, -1.23626932501792910000e-001) (72, 1.27205669879913330000e-001) (73, 6.24088287353515630000e-001) (74, -1.80692583322525020000e-001) (75, 3.22925776243209840000e-001) (76, 4.59059983491897580000e-001) (77, 1.55225143432617190000e+001) (78, 4.41180229187011720000e-001) (79, 1.57945613861083980000e+001) (80, 3.28406468033790590000e-002) (81, 4.08997088670730590000e-001) (82, -2.90942400693893430000e-001) (83, -6.91723346710205080000e-001) (84, -3.30494761466979980000e-001) (85, -1.75049901008605960000e-001) (86, -5.42424261569976810000e-001) (87, 1.59352474212646480000e+001) (88, -4.57548558712005620000e-001) (89, 1.62304344177246090000e+001) (90, 1.62414913177490230000e+001) (91, 1.60481185913085940000e+001) (92, 1.55824089050292970000e+001) (93, 1.57703971862792970000e+001) (94, 1.55967025756835940000e+001) (95, 1.57317810058593750000e+001) (96, 1.57046699523925780000e+001) (97, 1.54163093566894530000e+001) (98, -3.14650475978851320000e-001) (99, 1.54624900817871090000e+001) (100, -1.32938170433044430000e+000) (0, 6.12641096115112300000e-001) (1, 9.83254611492156980000e-001) (2, -1.95376873016357420000e-001) (3, 1.09333097934722900000e+000) (4, 2.68159866333007810000e-001) (5, -5.85528850555419920000e-001) (6, -9.33656275272369380000e-001) (7, 2.73108363151550290000e-001) (8, 4.08347129821777340000e-001) (9, 1.56436519622802730000e+001) (10, 4.32408213615417480000e-001) (11, 6.80291473865509030000e-001) (12, 1.74089089035987850000e-001) (13, 2.47934103012084960000e-001) (14, -6.54792338609695430000e-002) (15, -3.74306768178939820000e-001) (16, 5.42858123779296880000e-001) (17, 1.63778514862060550000e+001) (18, 1.30338639020919800000e-001) (19, 1.61241016387939450000e+001) (20, 1.04149532318115230000e+000) (21, 1.58689746856689450000e+001) (22, 3.47655899822711940000e-002) (23, 2.23595008254051210000e-001) (24, -4.79835748672485350000e-001) (25, -2.27160289883613590000e-001) (26, -3.00565734505653380000e-002) (27, 1.56345176696777340000e+001) (28, 9.68814715743064880000e-002) (29, 1.57468757629394530000e+001) (30, 2.06123679876327510000e-001) (31, 1.55727310180664060000e+001) (32, -2.63048022985458370000e-001) (33, -4.81410205364227290000e-001) (34, 2.07462131977081300000e-001) (35, -4.67031076550483700000e-002) (36, -5.12396544218063350000e-002) (37, 2.90670156478881840000e-001) (38, -4.24913465976715090000e-002) (39, 1.64054107666015630000e+001) (40, 1.07511258125305180000e+000) (41, 2.16005697846412660000e-001) (42, 2.93079197406768800000e-001) (43, 3.58647704124450680000e-001) (44, 9.81737673282623290000e-001) (45, 7.00373053550720210000e-001) (46, 1.04068689048290250000e-001) (47, 1.63817291259765630000e+001) (48, -3.46778452396392820000e-001) (49, 1.59765567779541020000e+001) (50, 1.56928119659423830000e+001) (51, 1.60599441528320310000e+001) (52, 1.56166362762451170000e+001) (53, -1.18036496639251710000e+000) (54, -8.78606736660003660000e-001) (55, -3.33877086639404300000e-001) (56, 4.50049161911010740000e-001) (57, 1.58001060485839840000e+001) (58, 8.88269603252410890000e-001) (59, 1.57018165588378910000e+001) (60, 1.60580844879150390000e+001) (61, 1.60301723480224610000e+001) (62, 1.55403633117675780000e+001) (63, 5.60436308383941650000e-001) (64, 1.94178760051727290000e-001) (65, -4.08450663089752200000e-001) (66, 8.17217290401458740000e-001) (67, 1.96597352623939510000e-001) (68, 8.48531246185302730000e-001) (69, 1.60059127807617190000e+001) (70, 1.83689698576927190000e-001) (71, 6.62569463253021240000e-001) (72, -4.83312644064426420000e-002) (73, 4.39319312572479250000e-001) (74, 5.58349549770355220000e-001) (75, 1.63763865828514100000e-001) (76, 5.10393917560577390000e-001) (77, 1.56083030700683590000e+001) (78, 5.88824331760406490000e-001) (79, 1.56488761901855470000e+001) (80, 9.06096220016479490000e-001) (81, 1.05064964294433590000e+000) (82, 1.02705776691436770000e+000) (83, 1.09509360790252690000e+000) (84, -6.88381910324096680000e-001) (85, -5.96777260303497310000e-001) (86, -3.40627074241638180000e-001) (87, 1.62855873107910160000e+001) (88, -1.91618591547012330000e-001) (89, 1.55496253967285160000e+001) (90, 1.56330127716064450000e+001) (91, 1.63765697479248050000e+001) (92, 1.54078178405761720000e+001) (93, 1.59757881164550780000e+001) (94, 1.64191265106201170000e+001) (95, 1.53740711212158200000e+001) (96, 1.58511238098144530000e+001) (97, 1.57281608581542970000e+001) (98, 2.27333143353462220000e-001) (99, 1.58632698059082030000e+001) (100, -1.29650521278381350000e+000) (0, -8.06419909000396730000e-001) (1, -1.09460508823394780000e+000) (2, -1.44163131713867190000e+000) (3, 2.54459679126739500000e-001) (4, -2.55841147154569630000e-002) (5, 2.19507530331611630000e-001) (6, -3.42278063297271730000e-001) (7, -1.25261211395263670000e+000) (8, -8.29109549522399900000e-001) (9, 1.58518943786621090000e+001) (10, -5.53973495960235600000e-001) (11, -1.49517104029655460000e-001) (12, -7.25045800209045410000e-001) (13, -8.22062883526086810000e-003) (14, 3.48810553550720210000e-001) (15, 5.79402267932891850000e-001) (16, 1.00444972515106200000e+000) (17, 1.54712066650390630000e+001) (18, -8.13983321189880370000e-001) (19, 1.56771736145019530000e+001) (20, 2.27879464626312260000e-001) (21, 1.58906059265136720000e+001) (22, 3.22596192359924320000e-001) (23, -1.47023725509643550000e+000) (24, -3.45685482025146480000e-001) (25, 1.38056412339210510000e-001) (26, 9.26260501146316530000e-002) (27, 1.59650192260742190000e+001) (28, -1.29305553436279300000e+000) (29, 1.63682689666748050000e+001) (30, -9.01879221200942990000e-002) (31, 1.61783256530761720000e+001) (32, 2.61931002140045170000e-001) (33, -8.39659750461578370000e-001) (34, -6.79402351379394530000e-001) (35, -3.60923588275909420000e-001) (36, 9.37467627227306370000e-003) (37, -1.46508431434631350000e+000) (38, -7.14380919933319090000e-001) (39, 1.63116741180419920000e+001) (40, 4.71659414470195770000e-002) (41, -4.30509269237518310000e-001) (42, -4.72165644168853760000e-001) (43, -1.59639105200767520000e-001) (44, 6.69050663709640500000e-002) (45, 7.70673274993896480000e-001) (46, 2.51019746065139770000e-001) (47, 1.56541633605957030000e+001) (48, -7.74533331394195560000e-001) (49, 1.54171104431152340000e+001) (50, 1.56880683898925780000e+001) (51, 1.59748897552490230000e+001) (52, 1.63884258270263670000e+001) (53, 3.87661874294281010000e-001) (54, -5.13856232166290280000e-001) (55, 3.70479345321655270000e-001) (56, 3.69433701038360600000e-001) (57, 1.59105072021484370000e+001) (58, 8.76379191875457760000e-001) (59, 1.62286720275878910000e+001) (60, 1.64003162384033200000e+001) (61, 1.62410087585449220000e+001) (62, 1.59057006835937500000e+001) (63, -9.81377437710762020000e-003) (64, -1.97627976536750790000e-001) (65, -2.03187838196754460000e-001) (66, -1.31999731063842770000e-001) (67, 8.59394252300262450000e-001) (68, 8.42473387718200680000e-001) (69, 1.54537734985351560000e+001) (70, 2.98885822296142580000e-001) (71, 5.62985837459564210000e-001) (72, 1.67749136686325070000e-001) (73, 5.24594247341156010000e-001) (74, 1.83383449912071230000e-001) (75, -1.13080814480781560000e-003) (76, -1.34154245257377620000e-001) (77, 1.59043235778808590000e+001) (78, 7.07904100418090820000e-001) (79, 1.60454902648925780000e+001) (80, -1.84866607189178470000e-001) (81, -9.42381262779235840000e-001) (82, -5.60625910758972170000e-001) (83, -5.73060214519500730000e-001) (84, -5.51412820816040040000e-001) (85, 2.03252583742141720000e-001) (86, -2.40298762917518620000e-001) (87, 1.57243785858154300000e+001) (88, 9.07204985618591310000e-001) (89, 1.58259677886962890000e+001) (90, 1.56306400299072270000e+001) (91, 1.62207565307617190000e+001) (92, 1.62383499145507810000e+001) (93, 1.53970489501953120000e+001) (94, 1.54867820739746090000e+001) (95, 1.53922424316406250000e+001) (96, 1.60580215454101560000e+001) (97, 1.59716529846191410000e+001) (98, 1.33588165044784550000e-001) (99, 1.61634559631347660000e+001) (100, -1.40825524926185610000e-001) (0, 7.20615029335021970000e-001) (1, -1.85640051960945130000e-001) (2, 5.43708980083465580000e-001) (3, -7.80316531658172610000e-001) (4, -8.75931680202484130000e-001) (5, 6.68637394905090330000e-001) (6, 3.93160551786422730000e-001) (7, -7.48565793037414550000e-002) (8, 3.65214109420776370000e-001) (9, 1.62745304107666020000e+001) (10, 1.06738293170928960000e+000) (11, 4.17431563138961790000e-001) (12, -3.61332118511199950000e-001) (13, 8.10932338237762450000e-001) (14, 3.76105636358261110000e-001) (15, 3.72367799282073970000e-001) (16, 3.50111462175846100000e-002) (17, 1.61385231018066410000e+001) (18, 7.05650329589843750000e-001) (19, 1.63414459228515630000e+001) (20, 1.29084730148315430000e+000) (21, 1.62966117858886720000e+001) (22, -5.69624960422515870000e-001) (23, -2.29386508464813230000e-001) (24, -3.40400040149688720000e-001) (25, -6.97554528713226320000e-001) (26, -3.60582411289215090000e-001) (27, 1.64042568206787110000e+001) (28, 5.35320043563842770000e-001) (29, 1.56209621429443360000e+001) (30, 9.98866260051727290000e-001) (31, 1.56734886169433590000e+001) (32, -1.78522258996963500000e-001) (33, 4.46149185299873350000e-002) (34, -4.44874912500381470000e-001) (35, 8.00161302089691160000e-001) (36, 7.80289530754089360000e-001) (37, 3.39416146278381350000e-001) (38, -1.50039032101631160000e-001) (39, 1.60756778717041020000e+001) (40, 1.38388001918792720000e+000) (41, 7.21840560436248780000e-001) (42, 3.28904449939727780000e-001) (43, 8.31362783908843990000e-001) (44, -3.86388689279556270000e-001) (45, 9.11099612712860110000e-002) (46, -5.76074302196502690000e-001) (47, 1.57739238739013670000e+001) (48, 6.31076753139495850000e-001) (49, 1.58403568267822270000e+001) (50, 1.55569972991943360000e+001) (51, 1.57882156372070310000e+001) (52, 1.59557914733886720000e+001) (53, 1.07380199432373050000e+000) (54, -1.17576599121093750000e+000) (55, -7.24345862865448000000e-001) (56, -5.29477775096893310000e-001) (57, 1.55358142852783200000e+001) (58, 7.40965425968170170000e-001) (59, 1.62132244110107420000e+001) (60, 1.57878646850585940000e+001) (61, 1.55030288696289060000e+001) (62, 1.58732700347900390000e+001) (63, 7.39989936351776120000e-001) (64, -9.94609296321868900000e-001) (65, -6.27707988023757930000e-002) (66, -7.69998729228973390000e-002) (67, 7.89644896984100340000e-001) (68, 2.23276779055595400000e-001) (69, 1.61883888244628910000e+001) (70, 9.50663089752197270000e-001) (71, 8.16097438335418700000e-001) (72, 2.66649991273880000000e-001) (73, 9.11367952823638920000e-001) (74, 7.70381033420562740000e-001) (75, 9.23834264278411870000e-001) (76, 6.45150542259216310000e-002) (77, 1.58203601837158200000e+001) (78, -2.99435228109359740000e-001) (79, 1.62783451080322270000e+001) (80, 9.46643173694610600000e-001) (81, -2.93157935142517090000e-001) (82, -2.95315921306610110000e-001) (83, -5.41790127754211430000e-001) (84, -3.03474485874176030000e-001) (85, 1.62426188588142400000e-001) (86, 2.64439322054386140000e-002) (87, 1.58961830139160160000e+001) (88, -6.58119618892669680000e-002) (89, 1.59427795410156250000e+001) (90, 1.57847557067871090000e+001) (91, 1.54236164093017580000e+001) (92, 1.55728282928466800000e+001) (93, 1.61715641021728520000e+001) (94, 1.59797306060791020000e+001) (95, 1.58886508941650390000e+001) (96, 1.56977787017822270000e+001) (97, 1.61282043457031250000e+001) (98, 8.69244635105133060000e-002) (99, 1.59747295379638670000e+001) (100, -5.01919448375701900000e-001) (0, 4.61956411600112920000e-001) (1, -3.82381796836853030000e-001) (2, 6.67347073554992680000e-001) (3, -9.37311947345733640000e-002) (4, 1.45839780569076540000e-001) (5, 5.59796750545501710000e-001) (6, 9.76537168025970460000e-001) (7, 6.80267095565795900000e-001) (8, 1.14251422882080080000e+000) (9, 1.53929481506347660000e+001) (10, 3.06301191449165340000e-002) (11, -1.07915289700031280000e-001) (12, -5.05781233310699460000e-001) (13, 3.16198244690895080000e-002) (14, 6.37789666652679440000e-001) (15, 9.37632769346237180000e-002) (16, 8.52622389793396000000e-001) (17, 1.56491317749023440000e+001) (18, 1.28602111339569090000e+000) (19, 1.60291461944580080000e+001) (20, -5.73233187198638920000e-001) (21, 1.55784683227539060000e+001) (22, -1.00268566608428960000e+000) (23, -6.77280426025390630000e-001) (24, 1.19681251049041750000e+000) (25, 8.08084607124328610000e-001) (26, 8.28692913055419920000e-001) (27, 1.63466053009033200000e+001) (28, 1.18504083156585690000e+000) (29, 1.57776412963867190000e+001) (30, -7.63112246990203860000e-001) (31, 1.63038539886474610000e+001) (32, -8.63664984703063960000e-001) (33, -1.01349604129791260000e+000) (34, 1.02040931582450870000e-001) (35, 4.35985803604125980000e-001) (36, 9.06354069709777830000e-001) (37, 5.99187910556793210000e-001) (38, 5.81690192222595210000e-001) (39, 1.61227550506591800000e+001) (40, -7.58016765117645260000e-001) (41, 1.12388718128204350000e+000) (42, 7.66775190830230710000e-001) (43, -3.96588116884231570000e-001) (44, 2.34026983380317690000e-001) (45, -3.75196561217308040000e-002) (46, 3.67451906204223630000e-001) (47, 1.61846389770507810000e+001) (48, 5.86401164531707760000e-001) (49, 1.54145469665527340000e+001) (50, 1.62991428375244140000e+001) (51, 1.60039577484130860000e+001) (52, 1.54493179321289060000e+001) (53, -1.78458940982818600000e+000) (54, 1.53805363178253170000e+000) (55, 1.13153502345085140000e-001) (56, -1.54434993863105770000e-001) (57, 1.54183292388916020000e+001) (58, 1.47086250782012940000e+000) (59, 1.63495845794677730000e+001) (60, 1.62977962493896480000e+001) (61, 1.62981491088867190000e+001) (62, 1.59451828002929690000e+001) (63, -5.75925171375274660000e-001) (64, 7.31040000915527340000e-001) (65, 3.78461241722106930000e-001) (66, 2.77281463146209720000e-001) (67, 7.66275227069854740000e-001) (68, 1.13468849658966060000e+000) (69, 1.56673660278320310000e+001) (70, 5.63278913497924800000e-001) (71, 4.74829018115997310000e-001) (72, -9.51926186680793760000e-002) (73, -1.31852343678474430000e-001) (74, 2.86873847246170040000e-001) (75, 5.75559258460998540000e-001) (76, 3.59408080577850340000e-001) (77, 1.54037151336669920000e+001) (78, 5.71153879165649410000e-001) (79, 1.57320384979248050000e+001) (80, -6.87113553285598750000e-002) (81, 3.34639847278594970000e-001) (82, -3.15464973449707030000e-001) (83, -1.76861345767974850000e-001) (84, -4.69592601060867310000e-001) (85, 5.89537508785724640000e-002) (86, 6.55930191278457640000e-002) (87, 1.63456764221191410000e+001) (88, 5.40548920631408690000e-001) (89, 1.55980167388916020000e+001) (90, 1.53810253143310550000e+001) (91, 1.59930286407470700000e+001) (92, 1.54303150177001950000e+001) (93, 1.56054191589355470000e+001) (94, 1.63740367889404300000e+001) (95, 1.62465534210205080000e+001) (96, 1.55409412384033200000e+001) (97, 1.56072139739990230000e+001) (98, 3.50189208984375000000e-001) (99, 1.57371330261230470000e+001) (100, -1.48520320653915410000e-001) (0, 3.39787662029266360000e-001) (1, 8.75902831554412840000e-001) (2, -1.12934447824954990000e-001) (3, -1.56316816806793210000e-001) (4, 6.20923876762390140000e-001) (5, 9.52186048030853270000e-001) (6, 3.15051190555095670000e-002) (7, -5.60926944017410280000e-002) (8, 3.18601906299591060000e-001) (9, 1.63292675018310550000e+001) (10, 4.10033047199249270000e-001) (11, -1.10446110367774960000e-001) (12, -3.43090415000915530000e-001) (13, 1.26195347309112550000e+000) (14, 1.57358661293983460000e-001) (15, 4.14423525333404540000e-001) (16, 1.04048120975494380000e+000) (17, 1.57849159240722660000e+001) (18, 4.54000949859619140000e-001) (19, 1.56481056213378910000e+001) (20, 1.06837630271911620000e+000) (21, 1.63171863555908200000e+001) (22, -2.25998568534851070000e+000) (23, 6.27008199691772460000e-001) (24, -1.34938985109329220000e-001) (25, -8.29337537288665770000e-001) (26, 1.22022382915019990000e-001) (27, 1.57139625549316410000e+001) (28, 2.04674482345581050000e-001) (29, 1.53882369995117190000e+001) (30, 5.04027128219604490000e-001) (31, 1.62430934906005860000e+001) (32, -2.44117999076843260000e+000) (33, -8.86258184909820560000e-001) (34, -6.78134784102439880000e-002) (35, -7.91960954666137700000e-001) (36, 2.03950509428977970000e-001) (37, 5.33189296722412110000e-001) (38, 5.40531463921070100000e-002) (39, 1.59963302612304690000e+001) (40, 9.39899682998657230000e-001) (41, 4.33972239494323730000e-001) (42, 3.81723582744598390000e-001) (43, 1.20866164565086360000e-001) (44, 7.17148065567016600000e-001) (45, -4.82905745506286620000e-001) (46, 6.35017156600952150000e-001) (47, 1.53967285156250000000e+001) (48, 3.52315425872802730000e-001) (49, 1.55135726928710940000e+001) (50, 1.60904846191406250000e+001) (51, 1.56195526123046880000e+001) (52, 1.60929527282714840000e+001) (53, -3.43541689217090610000e-002) (54, -1.25573754310607910000e-001) (55, -7.31800675392150880000e-001) (56, 9.35747027397155760000e-001) (57, 1.59830627441406250000e+001) (58, 4.52696204185485840000e-001) (59, 1.55020999908447270000e+001) (60, 1.54756298065185550000e+001) (61, 1.55734367370605470000e+001) (62, 1.55668029785156250000e+001) (63, 1.03975832462310790000e+000) (64, -4.84572768211364750000e-001) (65, 2.77497619390487670000e-003) (66, 6.78342461585998540000e-001) (67, 4.32378292083740230000e-001) (68, 1.01940676569938660000e-001) (69, 1.56781978607177730000e+001) (70, 2.41719320416450500000e-001) (71, 3.60582053661346440000e-001) (72, -3.41740772128105160000e-002) (73, 8.38098764419555660000e-001) (74, 3.18587571382522580000e-001) (75, 5.68634152412414550000e-001) (76, 3.87934148311614990000e-001) (77, 1.58001060485839840000e+001) (78, -8.58947157859802250000e-001) (79, 1.61559238433837890000e+001) (80, 3.30942630767822270000e-001) (81, 5.09989142417907710000e-001) (82, -9.89362876862287520000e-003) (83, 4.40095327794551850000e-002) (84, 9.94304180145263670000e-001) (85, 2.84789592027664180000e-001) (86, 1.06431722640991210000e-001) (87, 1.58721485137939450000e+001) (88, -1.30100101232528690000e-001) (89, 1.60087966918945310000e+001) (90, 1.57575473785400390000e+001) (91, 1.59044837951660160000e+001) (92, 1.54478435516357420000e+001) (93, 1.55480880737304690000e+001) (94, 1.61824283599853520000e+001) (95, 1.64206981658935550000e+001) (96, 1.59697628021240230000e+001) (97, 1.58946132659912110000e+001) (98, -8.79873991012573240000e-001) (99, 1.60319976806640630000e+001) (100, 7.76619553565979000000e-001) (0, 5.84772300720214840000e+000) (1, -1.64425209164619450000e-001) (2, 5.33644378185272220000e-001) (3, 7.42445766925811770000e-001) (4, -1.82982698082923890000e-001) (5, -1.49791166186332700000e-001) (6, 5.18647015094757080000e-001) (7, -9.90198433399200440000e-001) (8, -1.37120640277862550000e+000) (9, 1.57080669403076170000e+001) (10, 3.63855814933776860000e+000) (11, 3.53782320022583010000e+000) (12, -7.74480551481246950000e-002) (13, 3.48684716224670410000e+000) (14, 9.66353893280029300000e-001) (15, 3.84508585929870610000e+000) (16, 1.46290326118469240000e+000) (17, 1.54851150512695310000e+001) (18, -1.01551568508148190000e+000) (19, 1.61187820434570310000e+001) (20, 3.50351166725158690000e+000) (21, 1.54347686767578120000e+001) (22, -7.48923420906066890000e-001) (23, 6.00799441337585450000e-001) (24, -9.59726333618164060000e-001) (25, 3.24357338249683380000e-002) (26, 3.74739944934844970000e-001) (27, 1.63233394622802730000e+001) (28, -1.54006230831146240000e+000) (29, 1.53780460357666020000e+001) (30, 3.80116510391235350000e+000) (31, 1.54144840240478520000e+001) (32, -1.54962643980979920000e-001) (33, -2.72371470928192140000e-001) (34, -2.50200939178466800000e+000) (35, 5.46226799488067630000e-001) (36, 1.78338900208473210000e-001) (37, -1.54909956455230710000e+000) (38, -6.45563900470733640000e-001) (39, 1.56038818359375000000e+001) (40, 3.22428536415100100000e+000) (41, 1.07747599482536320000e-001) (42, 2.99362629652023320000e-001) (43, 6.23441100120544430000e-001) (44, 8.10226857662200930000e-001) (45, 7.74272561073303220000e-001) (46, -2.56448864936828610000e-001) (47, 1.58027343750000000000e+001) (48, -1.38245475292205810000e+000) (49, 1.64124622344970700000e+001) (50, 1.54450874328613280000e+001) (51, 1.55650405883789060000e+001) (52, 1.55153350830078120000e+001) (53, 4.42021727561950680000e-001) (54, -4.28138113021850590000e+000) (55, -3.37128728628158570000e-001) (56, -3.20030272006988530000e-001) (57, 1.64158916473388670000e+001) (58, 2.49111697077751160000e-001) (59, 1.60949382781982420000e+001) (60, 1.59072074890136720000e+001) (61, 1.62869644165039060000e+001) (62, 1.56153869628906250000e+001) (63, 3.74665284156799320000e+000) (64, -1.19450342655181880000e+000) (65, 1.97426259517669680000e-001) (66, 3.44115853309631350000e-001) (67, 7.84778714179992680000e-001) (68, 8.70815888047218320000e-002) (69, 1.59662055969238280000e+001) (70, 3.91863894462585450000e+000) (71, 3.10730266571044920000e+000) (72, 3.06237244606018070000e+000) (73, 4.19008827209472660000e+000) (74, 1.74598410725593570000e-001) (75, 3.74932909011840820000e+000) (76, -5.32246172428131100000e-001) (77, 1.54328784942626950000e+001) (78, 8.54375302791595460000e-001) (79, 1.61347732543945310000e+001) (80, 5.52161169052124020000e+000) (81, -5.30210673809051510000e-001) (82, 1.68129771947860720000e-001) (83, 2.56387442350387570000e-001) (84, 6.71745240688323970000e-001) (85, 5.79873383045196530000e-001) (86, -8.47726017236709590000e-002) (87, 1.57450809478759770000e+001) (88, 4.16932292282581330000e-002) (89, 1.55399475097656250000e+001) (90, 1.57195072174072270000e+001) (91, 1.59667835235595700000e+001) (92, 1.54468193054199220000e+001) (93, 1.54278144836425780000e+001) (94, 1.61354789733886720000e+001) (95, 1.53927879333496090000e+001) (96, 1.55590152740478520000e+001) (97, 1.55332813262939450000e+001) (98, 6.53440058231353760000e-001) (99, 1.61106739044189450000e+001) (100, -1.01101553440093990000e+000) (0, -3.30479070544242860000e-003) (1, -2.61323630809783940000e-001) (2, -1.67775869369506840000e+000) (3, -6.58298969268798830000e-001) (4, -9.20650482177734380000e-001) (5, -1.37971913814544680000e+000) (6, -1.23259091377258300000e+000) (7, -1.31646558642387390000e-001) (8, -2.06027865409851070000e-001) (9, 1.53772754669189450000e+001) (10, 1.69582068920135500000e+000) (11, 1.61495757102966310000e+000) (12, -6.53614342212677000000e-001) (13, 5.33211708068847660000e+000) (14, 5.21455764770507810000e-001) (15, 7.18276441097259520000e-001) (16, 3.26701551675796510000e-001) (17, 1.63025074005126950000e+001) (18, -7.18146413564682010000e-002) (19, 1.54134578704833980000e+001) (20, 8.91054213047027590000e-001) (21, 1.56241989135742190000e+001) (22, -1.40967941284179690000e+000) (23, -1.74848690629005430000e-001) (24, -3.19379866123199460000e-001) (25, 1.93376827239990230000e+000) (26, -7.75534093379974370000e-001) (27, 1.57991447448730470000e+001) (28, -2.13494837284088130000e-001) (29, 1.54211807250976560000e+001) (30, 1.43579065799713130000e+000) (31, 1.53884925842285160000e+001) (32, -1.60324370861053470000e+000) (33, -7.80950188636779790000e-001) (34, -2.48634743690490720000e+000) (35, -1.66925936937332150000e-001) (36, -7.09229826927185060000e-001) (37, -6.15205109119415280000e-001) (38, 1.04502718895673750000e-002) (39, 1.55046958923339840000e+001) (40, 1.45950543880462650000e+000) (41, 6.68142214417457580000e-002) (42, -7.37019002437591550000e-001) (43, -4.43064332008361820000e-001) (44, -6.38775587081909180000e-001) (45, 8.15159320831298830000e-001) (46, -6.83537542819976810000e-001) (47, 1.58984584808349610000e+001) (48, -4.72275078296661380000e-001) (49, 1.58276348114013670000e+001) (50, 1.57071685791015630000e+001) (51, 1.60783710479736330000e+001) (52, 1.59336776733398440000e+001) (53, 1.60780504345893860000e-001) (54, -3.39161777496337890000e+000) (55, 1.95123982429504390000e+000) (56, -1.87704816460609440000e-001) (57, 1.58259353637695310000e+001) (58, 1.05543839931488040000e+000) (59, 1.59705314636230470000e+001) (60, 1.53932991027832030000e+001) (61, 1.61597709655761720000e+001) (62, 1.56169891357421880000e+001) (63, 1.24267482757568360000e+000) (64, -3.01786005496978760000e-001) (65, 6.19061112403869630000e-001) (66, 8.16905856132507320000e-001) (67, 6.69271111488342290000e-001) (68, 1.40850126743316650000e+000) (69, 1.59509506225585940000e+001) (70, 1.49571037292480470000e+000) (71, 1.75513160228729250000e+000) (72, 1.70629179477691650000e+000) (73, 1.94740128517150880000e+000) (74, 3.61444652080535890000e-001) (75, -1.00815162062644960000e-001) (76, -5.17918050289154050000e-001) (77, 1.58955745697021480000e+001) (78, 2.05374670028686520000e+000) (79, 1.54243221282958980000e+001) (80, -5.12725353240966800000e-001) (81, -8.18334102630615230000e-001) (82, -1.18217289447784420000e+000) (83, -9.47684288024902340000e-001) (84, -1.68761506676673890000e-001) (85, -7.81366646289825440000e-001) (86, -1.03536224365234370000e+000) (87, 1.60906772613525390000e+001) (88, 2.00410580635070800000e+000) (89, 1.57310771942138670000e+001) (90, 1.62978935241699220000e+001) (91, 1.61800880432128910000e+001) (92, 1.63774013519287110000e+001) (93, 1.56052589416503910000e+001) (94, 1.56825561523437500000e+001) (95, 1.63302612304687500000e+001) (96, 1.61350612640380860000e+001) (97, 1.56440372467041020000e+001) (98, 1.63457059860229490000e+000) (99, 1.62262039184570310000e+001) (100, -2.11451485753059390000e-001) (0, 1.72490727901458740000e+000) (1, 1.52852892875671390000e-001) (2, -5.69726563990116120000e-002) (3, 3.74761790037155150000e-001) (4, -6.31150960922241210000e-001) (5, 2.00749516487121580000e-001) (6, -6.10362410545349120000e-001) (7, 4.21055287122726440000e-001) (8, 4.97103035449981690000e-001) (9, 1.62993030548095700000e+001) (10, 2.28253221511840820000e+000) (11, 9.76731479167938230000e-001) (12, -1.47303676605224610000e+000) (13, 2.14410424232482910000e+000) (14, 1.16642403602600100000e+000) (15, 6.88938379287719730000e-001) (16, 1.45073562860488890000e-001) (17, 1.60230579376220700000e+001) (18, 9.19547736644744870000e-001) (19, 1.56092967987060550000e+001) (20, 1.89146149158477780000e+000) (21, 1.54141311645507810000e+001) (22, -1.78547704219818120000e+000) (23, -9.59697514772415160000e-002) (24, -1.67311131954193120000e+000) (25, -3.38498353958129880000e-001) (26, 1.74580708146095280000e-001) (27, 1.63379516601562500000e+001) (28, 7.97448337078094480000e-001) (29, 1.62531871795654300000e+001) (30, 1.39229595661163330000e+000) (31, 1.63191719055175780000e+001) (32, -1.23743951320648190000e+000) (33, -5.21999001502990720000e-001) (34, -3.03607392311096190000e+000) (35, 7.04278945922851560000e-002) (36, -6.55164241790771480000e-001) (37, 7.61106908321380620000e-001) (38, 9.06152069568634030000e-001) (39, 1.61982917785644530000e+001) (40, 1.86825942993164060000e+000) (41, 5.85411131381988530000e-001) (42, 6.96802377700805660000e-001) (43, 7.37124860286712650000e-001) (44, 6.62115991115570070000e-001) (45, 4.09294903278350830000e-001) (46, -2.68336772918701170000e-001) (47, 1.58385944366455080000e+001) (48, 4.35476511716842650000e-001) (49, 1.57016887664794920000e+001) (50, 1.63312854766845700000e+001) (51, 1.59359207153320310000e+001) (52, 1.58408699035644530000e+001) (53, 7.60830402374267580000e-001) (54, -3.07965564727783200000e+000) (55, -1.49402761459350590000e+000) (56, 3.30943882465362550000e-001) (57, 1.60838832855224610000e+001) (58, -1.22784838080406190000e-001) (59, 1.57388629913330080000e+001) (60, 1.59370422363281250000e+001) (61, 1.55930500030517580000e+001) (62, 1.59670066833496090000e+001) (63, 1.98965382575988770000e+000) (64, -7.13717579841613770000e-001) (65, 2.98891663551330570000e-001) (66, 1.79232850670814510000e-001) (67, -1.09773710370063780000e-001) (68, -3.11125576496124270000e-001) (69, 1.55893650054931640000e+001) (70, 3.32104146480560300000e-001) (71, 1.16196358203887940000e+000) (72, 8.65816473960876460000e-001) (73, 3.96902108192443850000e+000) (74, 4.32673871517181400000e-001) (75, 1.03043222427368160000e+000) (76, -5.23335337638854980000e-001) (77, 1.60265502929687500000e+001) (78, -3.07062059640884400000e-001) (79, 1.57981834411621090000e+001) (80, 1.19055390357971190000e+000) (81, -2.60980278253555300000e-002) (82, 1.54566138982772830000e-001) (83, 4.49784010648727420000e-001) (84, -4.67806935310363770000e-001) (85, 1.10903009772300720000e-001) (86, -1.95618164539337160000e+000) (87, 1.57263965606689450000e+001) (88, -4.30347263813018800000e-001) (89, 1.60612258911132810000e+001) (90, 1.64126548767089840000e+001) (91, 1.62854595184326170000e+001) (92, 1.54932556152343750000e+001) (93, 1.60435676574707030000e+001) (94, 1.54368839263916020000e+001) (95, 1.64022388458251950000e+001) (96, 1.60614814758300780000e+001) (97, 1.62698192596435550000e+001) (98, -6.88326358795166020000e-001) (99, 1.59148349761962890000e+001) (100, 8.78294646739959720000e-001) (0, 8.47449243068695070000e-001) (1, 2.71276116371154790000e-001) (2, 6.21477842330932620000e-001) (3, 2.02809885144233700000e-001) (4, 1.44275456666946410000e-001) (5, -1.48417487740516660000e-001) (6, 1.06004267930984500000e-001) (7, -1.45107054710388180000e+000) (8, -1.35457682609558110000e+000) (9, 1.60755176544189450000e+001) (10, 2.57404237985610960000e-001) (11, 6.50189459323883060000e-001) (12, 5.23544907569885250000e-001) (13, 3.44558656215667720000e-001) (14, 3.42924073338508610000e-002) (15, 1.66132628917694090000e+000) (16, -4.65674668550491330000e-001) (17, 1.60925674438476560000e+001) (18, -4.97349023818969730000e-001) (19, 1.59915542602539060000e+001) (20, 5.00609576702117920000e-001) (21, 1.59321403503417970000e+001) (22, -1.60055339336395260000e-001) (23, 1.85201680660247800000e+000) (24, -6.55313551425933840000e-001) (25, -1.21198281645774840000e-001) (26, -3.67587625980377200000e-001) (27, 1.57542152404785160000e+001) (28, -9.69402790069580080000e-001) (29, 1.62091541290283200000e+001) (30, 4.70485329627990720000e-001) (31, 1.57226161956787110000e+001) (32, -1.85180261731147770000e-001) (33, 1.60609692335128780000e-001) (34, 7.68839299678802490000e-001) (35, 6.69435560703277590000e-001) (36, -4.12357389926910400000e-001) (37, -1.11492848396301270000e+000) (38, -1.11928701400756840000e+000) (39, 1.57272300720214840000e+001) (40, 5.65024316310882570000e-001) (41, 3.49464237689971920000e-001) (42, -2.66638636589050290000e-001) (43, 2.60212332010269170000e-001) (44, -1.44038274884223940000e-001) (45, -1.80687934160232540000e-001) (46, 1.14216953516006470000e-001) (47, 1.59152507781982420000e+001) (48, -1.14370679855346680000e+000) (49, 1.57010803222656250000e+001) (50, 1.55307826995849610000e+001) (51, 1.60205898284912110000e+001) (52, 1.62320365905761720000e+001) (53, 1.90397655963897710000e+000) (54, 1.20820410549640660000e-001) (55, 8.80430161952972410000e-001) (56, 3.85495603084564210000e-001) (57, 1.55622844696044920000e+001) (58, 3.47324430942535400000e-001) (59, 1.63513164520263670000e+001) (60, 1.55916385650634770000e+001) (61, 1.63512840270996090000e+001) (62, 1.61094570159912110000e+001) (63, 2.82080501317977910000e-001) (64, -7.10402488708496090000e-001) (65, 1.12745568156242370000e-001) (66, 6.84105813503265380000e-001) (67, 5.00958144664764400000e-001) (68, 5.74730575084686280000e-001) (69, 1.60159435272216800000e+001) (70, 9.15347099304199220000e-001) (71, 9.93381798267364500000e-001) (72, 7.92927205562591550000e-001) (73, -4.66462433338165280000e-001) (74, 1.58346667885780330000e-001) (75, 1.67449760437011720000e+000) (76, 7.31956660747528080000e-001) (77, 1.54469470977783200000e+001) (78, 1.78549230098724370000e+000) (79, 1.58956699371337890000e+001) (80, 1.45448517799377440000e+000) (81, 1.32448092103004460000e-001) (82, 1.61629393696784970000e-001) (83, -2.43702143430709840000e-001) (84, 3.90301048755645750000e-001) (85, 7.23548829555511470000e-002) (86, 6.47792369127273560000e-002) (87, 1.60780506134033200000e+001) (88, 1.55645179748535160000e+000) (89, 1.60870227813720700000e+001) (90, 1.60305881500244140000e+001) (91, 1.57712631225585940000e+001) (92, 1.55641422271728520000e+001) (93, 1.59776153564453130000e+001) (94, 1.59242877960205080000e+001) (95, 1.55578613281250000000e+001) (96, 1.59572639465332030000e+001) (97, 1.58203601837158200000e+001) (98, 1.12109196186065670000e+000) (99, 1.59738979339599610000e+001) (100, -5.75443506240844730000e-001) (0, -6.06956183910369870000e-001) (1, -1.24139630794525150000e+000) (2, 5.83537876605987550000e-001) (3, -6.65922284126281740000e-001) (4, -1.99652850627899170000e-001) (5, -7.37960994243621830000e-001) (6, -7.52318084239959720000e-001) (7, 5.04254043102264400000e-001) (8, 1.10536134243011470000e+000) (9, 1.55674438476562500000e+001) (10, -4.53066051006317140000e-001) (11, -7.04555451869964600000e-001) (12, 4.41054701805114750000e-001) (13, -1.55666708946228030000e+000) (14, -1.48949682712554930000e+000) (15, -1.21839392185211180000e+000) (16, -3.27827453613281250000e-001) (17, 1.56879405975341800000e+001) (18, 8.00497353076934810000e-001) (19, 1.62938232421875000000e+001) (20, -6.47515505552291870000e-002) (21, 1.60141162872314450000e+001) (22, 1.09436953067779540000e+000) (23, -6.72113746404647830000e-002) (24, 4.00682359933853150000e-001) (25, 1.99372017383575440000e+000) (26, -5.17770349979400630000e-001) (27, 1.62364902496337890000e+001) (28, 1.13083875179290770000e+000) (29, 1.57378063201904300000e+001) (30, -9.39605116844177250000e-001) (31, 1.63294601440429690000e+001) (32, 1.18656897544860840000e+000) (33, 8.08582425117492680000e-001) (34, 9.91190433502197270000e-001) (35, 2.00990498065948490000e-001) (36, 1.87990050762891770000e-002) (37, 9.82524931430816650000e-001) (38, 7.49926984310150150000e-001) (39, 1.54865245819091800000e+001) (40, -9.41431641578674320000e-001) (41, -1.84580457210540770000e+000) (42, -9.43087577819824220000e-001) (43, 7.92795121669769290000e-001) (44, 4.83412891626358030000e-002) (45, -2.25678279995918270000e-001) (46, -3.20237129926681520000e-002) (47, 1.58007793426513670000e+001) (48, 8.85197877883911130000e-001) (49, 1.58354854583740230000e+001) (50, 1.61598339080810550000e+001) (51, 1.59789924621582030000e+001) (52, 1.54201869964599610000e+001) (53, 1.82241940498352050000e+000) (54, 2.24927043914794920000e+000) (55, 8.14573824405670170000e-001) (56, -1.54732018709182740000e-001) (57, 1.63018989562988280000e+001) (58, 1.07167792320251460000e+000) (59, 1.54528751373291020000e+001) (60, 1.56238784790039060000e+001) (61, 1.54813976287841800000e+001) (62, 1.63472137451171880000e+001) (63, -7.22966670989990230000e-001) (64, -3.68672192096710210000e-001) (65, 1.02040255069732670000e+000) (66, 3.81707072257995610000e-001) (67, 2.57970273494720460000e-001) (68, 6.76312923431396480000e-001) (69, 1.54268207550048830000e+001) (70, -5.97101628780364990000e-001) (71, -1.33065950870513920000e+000) (72, -8.57323944568634030000e-001) (73, -1.08339536190032960000e+000) (74, -2.22994470596313480000e+000) (75, -7.66690254211425780000e-001) (76, 4.00644183158874510000e-001) (77, 1.61566944122314450000e+001) (78, 4.07891809940338130000e-001) (79, 1.63911190032958980000e+001) (80, -7.48796701431274410000e-001) (81, -1.81885278224945070000e+000) (82, -2.46169507503509520000e-001) (83, -7.23478913307189940000e-001) (84, -5.20668506622314450000e-001) (85, 2.27037053555250170000e-002) (86, 1.14255309104919430000e+000) (87, 1.60214233398437500000e+001) (88, 5.93188107013702390000e-001) (89, 1.62806835174560550000e+001) (90, 1.63289470672607420000e+001) (91, 1.57201805114746090000e+001) (92, 1.58653545379638670000e+001) (93, 1.55154323577880860000e+001) (94, 1.59549884796142580000e+001) (95, 1.59516887664794920000e+001) (96, 1.61868171691894530000e+001) (97, 1.54185523986816410000e+001) (98, 4.96502041816711430000e-001) (99, 1.56462154388427730000e+001) (100, 4.05622646212577820000e-002) (0, 1.94978141784667970000e+000) (1, 1.50784075260162350000e-001) (2, -5.50595819950103760000e-001) (3, -1.00949203968048100000e+000) (4, -2.63147234916687010000e-001) (5, 3.26294034719467160000e-001) (6, 3.53502005338668820000e-001) (7, -1.82573705911636350000e-001) (8, -3.00859510898590090000e-001) (9, 1.59087123870849610000e+001) (10, 2.57035183906555180000e+000) (11, 1.24492812156677250000e+000) (12, 9.67220067977905270000e-001) (13, 2.43869471549987790000e+000) (14, 1.31077516078948970000e+000) (15, 2.40539789199829100000e+000) (16, 7.23238587379455570000e-001) (17, 1.61974906921386720000e+001) (18, -7.23316967487335210000e-002) (19, 1.60743656158447270000e+001) (20, 2.58512568473815920000e+000) (21, 1.55901966094970700000e+001) (22, -3.17065387964248660000e-001) (23, 5.41966736316680910000e-001) (24, -4.65045630931854250000e-001) (25, 3.39737206697463990000e-001) (26, -2.11135923862457280000e-001) (27, 1.60200443267822270000e+001) (28, -3.13678294420242310000e-001) (29, 1.63884582519531250000e+001) (30, 2.66437816619873050000e+000) (31, 1.60626354217529300000e+001) (32, -4.88100826740264890000e-001) (33, 5.12820072472095490000e-002) (34, -1.65211534500122070000e+000) (35, 7.41960346698760990000e-001) (36, 2.88734823465347290000e-001) (37, 2.90954142808914180000e-001) (38, -2.49340571463108060000e-002) (39, 1.60410041809082030000e+001) (40, 3.19744944572448730000e+000) (41, 9.46267485618591310000e-001) (42, -1.14891074597835540000e-001) (43, 1.97062879800796510000e-001) (44, 3.82827371358871460000e-001) (45, -1.44440203905105590000e-001) (46, 6.32995426654815670000e-001) (47, 1.60563220977783200000e+001) (48, 3.79083663225173950000e-001) (49, 1.57551765441894530000e+001) (50, 1.54434223175048830000e+001) (51, 1.64032955169677730000e+001) (52, 1.57855243682861330000e+001) (53, 1.04523980617523190000e+000) (54, -4.92220222949981690000e-001) (55, -1.76533505320549010000e-001) (56, 9.79680895805358890000e-001) (57, 1.58866653442382810000e+001) (58, 7.74864852428436280000e-001) (59, 1.59028816223144530000e+001) (60, 1.56261215209960940000e+001) (61, 1.61038169860839840000e+001) (62, 1.58612518310546870000e+001) (63, 3.18229126930236820000e+000) (64, -1.73737496137619020000e-001) (65, 4.59208935499191280000e-001) (66, 5.87612688541412350000e-001) (67, 8.85395109653472900000e-001) (68, 3.25724780559539790000e-001) (69, 1.58099441528320310000e+001) (70, 8.37449252605438230000e-001) (71, 8.46262276172637940000e-001) (72, 1.47813475131988530000e+000) (73, 1.49816858768463130000e+000) (74, 4.15635943412780760000e-001) (75, 2.20785951614379880000e+000) (76, 4.52986866235733030000e-001) (77, 1.61430416107177730000e+001) (78, 9.40953046083450320000e-002) (79, 1.60560016632080080000e+001) (80, 2.58354496955871580000e+000) (81, -1.06906682252883910000e-001) (82, -7.13056325912475590000e-001) (83, -9.24278736114501950000e-001) (84, -1.15947222709655760000e+000) (85, -2.95676112174987790000e-001) (86, 6.75666928291320800000e-001) (87, 1.59828701019287110000e+001) (88, 2.22136564552783970000e-002) (89, 1.57721614837646480000e+001) (90, 1.57108860015869140000e+001) (91, 1.61760826110839840000e+001) (92, 1.54022731781005860000e+001) (93, 1.61860485076904300000e+001) (94, 1.58894538879394530000e+001) (95, 1.56641616821289060000e+001) (96, 1.55641746520996090000e+001) (97, 1.63782348632812500000e+001) (98, 6.19186878204345700000e-001) (99, 1.53767948150634770000e+001) (100, -6.88099265098571780000e-001) (0, 3.37070256471633910000e-001) (1, -7.25325345993041990000e-001) (2, 1.92045718431472780000e-001) (3, -9.72729742527008060000e-001) (4, 1.81298956274986270000e-001) (5, 6.19181036949157710000e-001) (6, 1.30462840199470520000e-001) (7, 1.28795057535171510000e-001) (8, 3.65719199180603030000e-001) (9, 1.62324523925781250000e+001) (10, -1.28513783216476440000e-001) (11, 1.00226604938507080000e+000) (12, 8.47540080547332760000e-001) (13, 6.33503377437591550000e-001) (14, -4.34670776128768920000e-001) (15, 9.00265872478485110000e-001) (16, 1.52261510491371150000e-001) (17, 1.61176605224609380000e+001) (18, 2.77397453784942630000e-001) (19, 1.55868320465087890000e+001) (20, -1.10311061143875120000e-001) (21, 1.57554645538330080000e+001) (22, 5.89024163782596590000e-002) (23, 3.71967792510986330000e-001) (24, -7.96936631202697750000e-001) (25, 1.47910797595977780000e+000) (26, 6.34211376309394840000e-002) (27, 1.62562637329101560000e+001) (28, -1.06046035885810850000e-001) (29, 1.59232311248779300000e+001) (30, 3.22324663400650020000e-001) (31, 1.62819976806640630000e+001) (32, 8.08964669704437260000e-001) (33, 2.77396827936172490000e-001) (34, 2.71907955408096310000e-001) (35, 3.25578927993774410000e-001) (36, 1.55844181776046750000e-001) (37, -5.25702714920043950000e-001) (38, 1.21328070759773250000e-001) (39, 1.54664955139160160000e+001) (40, 5.82643270492553710000e-001) (41, -8.93018171191215520000e-002) (42, -6.41928613185882570000e-002) (43, -5.91012001037597660000e-001) (44, -1.33428931236267090000e-001) (45, 6.06460094451904300000e-001) (46, -1.50217652320861820000e-001) (47, 1.63731727600097660000e+001) (48, 9.95680838823318480000e-002) (49, 1.56412162780761720000e+001) (50, 1.61486492156982420000e+001) (51, 1.61179161071777340000e+001) (52, 1.55170021057128910000e+001) (53, 5.90177714824676510000e-001) (54, 3.38308006525039670000e-001) (55, 7.14683055877685550000e-001) (56, 4.60888355970382690000e-001) (57, 1.58962478637695310000e+001) (58, -5.43049633502960210000e-001) (59, 1.59661731719970700000e+001) (60, 1.58913116455078130000e+001) (61, 1.62520027160644530000e+001) (62, 1.56347427368164060000e+001) (63, 4.02153968811035160000e-001) (64, -2.29126170277595520000e-001) (65, -3.17958712577819820000e-001) (66, -1.71233475208282470000e-001) (67, -7.90068686008453370000e-001) (68, -7.69888907670974730000e-002) (69, 1.59332942962646480000e+001) (70, 6.00459814071655270000e-001) (71, 1.10488092899322510000e+000) (72, 3.75873804092407230000e-001) (73, -3.08406174182891850000e-001) (74, -2.16109618544578550000e-001) (75, 9.10232484340667720000e-001) (76, -2.66292124986648560000e-001) (77, 1.55752315521240230000e+001) (78, 1.80877804756164550000e-001) (79, 1.63924007415771480000e+001) (80, 7.11114034056663510000e-002) (81, -2.10456743836402890000e-001) (82, -7.11809247732162480000e-002) (83, -8.83126139640808110000e-001) (84, 6.53801262378692630000e-001) (85, 7.67847970128059390000e-002) (86, -4.51543718576431270000e-001) (87, 1.55604572296142580000e+001) (88, -9.67418402433395390000e-003) (89, 1.60168399810791020000e+001) (90, 1.63812484741210940000e+001) (91, 1.60057830810546870000e+001) (92, 1.58561553955078130000e+001) (93, 1.59260501861572270000e+001) (94, 1.63483028411865230000e+001) (95, 1.62761650085449220000e+001) (96, 1.57139949798583980000e+001) (97, 1.60458431243896480000e+001) (98, 4.67731356620788570000e-001) (99, 1.57378387451171880000e+001) (100, -5.54190874099731450000e-001) (0, 5.59485495090484620000e-001) (1, 5.50821661949157710000e-001) (2, 7.49991834163665770000e-001) (3, 5.71582436561584470000e-001) (4, 6.78699910640716550000e-001) (5, 3.76927495002746580000e-001) (6, -2.74493753910064700000e-001) (7, 9.43877458572387700000e-001) (8, 5.68605899810791020000e-001) (9, 1.61729412078857420000e+001) (10, 3.38254421949386600000e-001) (11, 8.16241741180419920000e-001) (12, 1.88765615224838260000e-001) (13, 4.22101855278015140000e-001) (14, 9.74326878786087040000e-002) (15, 3.46710324287414550000e-001) (16, 3.66787612438201900000e-001) (17, 1.56150341033935550000e+001) (18, 6.48403227329254150000e-001) (19, 1.63734931945800780000e+001) (20, 1.09629619121551510000e+000) (21, 1.53901920318603520000e+001) (22, 1.80803816765546800000e-002) (23, -3.04020911455154420000e-001) (24, 6.87946021556854250000e-001) (25, -7.57048606872558590000e-001) (26, -2.64736324548721310000e-001) (27, 1.61008033752441410000e+001) (28, 1.90706580877304080000e-001) (29, 1.55361652374267580000e+001) (30, 5.22717356681823730000e-001) (31, 1.56131439208984380000e+001) (32, 4.02068674564361570000e-001) (33, 1.59983690828084950000e-002) (34, 3.90121161937713620000e-001) (35, -3.14383432269096370000e-002) (36, 3.79939913749694820000e-001) (37, 1.45039498805999760000e-001) (38, 1.11141955852508540000e+000) (39, 1.62361392974853520000e+001) (40, 3.80556583404541020000e-001) (41, 3.52167099714279170000e-001) (42, 4.93749260902404790000e-001) (43, 5.19574761390686040000e-001) (44, 1.03076748549938200000e-001) (45, -1.34776949882507320000e-001) (46, 5.53017020225524900000e-001) (47, 1.61947975158691410000e+001) (48, 8.85840177536010740000e-001) (49, 1.58296852111816410000e+001) (50, 1.59968433380126950000e+001) (51, 1.54243850708007810000e+001) (52, 1.60435028076171880000e+001) (53, -2.91990011930465700000e-001) (54, -3.11079800128936770000e-001) (55, -8.31206917762756350000e-001) (56, 1.10672676563262940000e+000) (57, 1.59308586120605470000e+001) (58, 1.46282866597175600000e-001) (59, 1.63332729339599610000e+001) (60, 1.62708454132080080000e+001) (61, 1.59435157775878910000e+001) (62, 1.55791091918945310000e+001) (63, 9.87528502941131590000e-001) (64, 1.17027051746845250000e-001) (65, -3.76873970031738280000e-001) (66, 3.07188063859939580000e-001) (67, -6.92658498883247380000e-002) (68, -1.76687747240066530000e-001) (69, 1.54009265899658200000e+001) (70, 6.92059278488159180000e-001) (71, 1.45431965589523320000e-001) (72, 1.64660215377807620000e-001) (73, 5.34491002559661870000e-001) (74, -2.08681091666221620000e-001) (75, -5.36603569984436040000e-001) (76, 6.81686043739318850000e-001) (77, 1.62661342620849610000e+001) (78, -1.40356123447418210000e-001) (79, 1.54919738769531250000e+001) (80, -1.31610020995140080000e-001) (81, 1.15173429250717160000e-001) (82, 6.19054809212684630000e-002) (83, 6.41220867633819580000e-001) (84, 5.67464470863342290000e-001) (85, -2.21024081110954280000e-001) (86, 2.42161571979522710000e-001) (87, 1.59223976135253910000e+001) (88, -7.16690957546234130000e-001) (89, 1.59243526458740230000e+001) (90, 1.54438381195068360000e+001) (91, 1.60404911041259770000e+001) (92, 1.55233154296875000000e+001) (93, 1.54668483734130860000e+001) (94, 1.54038105010986330000e+001) (95, 1.62324523925781250000e+001) (96, 1.56772365570068360000e+001) (97, 1.62799148559570310000e+001) (98, -8.10044229030609130000e-001) (99, 1.61144886016845700000e+001) (100, 3.28033082187175750000e-002) (0, 8.13983380794525150000e-001) (1, 4.99510318040847780000e-001) (2, 1.51354968547821040000e-001) (3, 1.20405122637748720000e-001) (4, 2.79489338397979740000e-001) (5, 8.98573517799377440000e-001) (6, 2.95992046594619750000e-001) (7, 1.13539598882198330000e-001) (8, 6.26453161239624020000e-001) (9, 1.57761344909667970000e+001) (10, 6.63446545600891110000e-001) (11, 2.19190865755081180000e-001) (12, -5.10430932044982910000e-001) (13, 3.22529375553131100000e-001) (14, 3.97152781486511230000e-001) (15, 4.77079123258590700000e-001) (16, 5.97816593945026400000e-002) (17, 1.61314086914062500000e+001) (18, 5.25697171688079830000e-001) (19, 1.59103469848632810000e+001) (20, 5.52787899971008300000e-001) (21, 1.55311031341552730000e+001) (22, -9.24857079982757570000e-001) (23, -2.34178915619850160000e-001) (24, -1.12142473459243770000e-001) (25, -2.87224855273962020000e-002) (26, 6.37745618820190430000e-001) (27, 1.57664890289306640000e+001) (28, 4.35516774654388430000e-001) (29, 1.54173984527587890000e+001) (30, 4.75426286458969120000e-001) (31, 1.62201461791992190000e+001) (32, -1.28486827015876770000e-001) (33, -6.74429714679718020000e-001) (34, -3.67343127727508540000e-001) (35, 4.23526048660278320000e-001) (36, 7.00586557388305660000e-001) (37, 5.62679529190063480000e-001) (38, 7.74542748928070070000e-001) (39, 1.55452671051025390000e+001) (40, 2.67761111259460450000e-001) (41, 4.96310293674468990000e-001) (42, 1.39089334011077880000e+000) (43, 6.57434314489364620000e-002) (44, 6.02939605712890630000e-001) (45, 2.27810323238372800000e-001) (46, 6.81537389755249020000e-002) (47, 1.62351455688476560000e+001) (48, 8.02936494350433350000e-001) (49, 1.63312549591064450000e+001) (50, 1.56897354125976560000e+001) (51, 1.62430934906005860000e+001) (52, 1.55006904602050780000e+001) (53, -7.12104260921478270000e-001) (54, -8.62183570861816410000e-001) (55, -1.18714749813079830000e+000) (56, -4.45625275373458860000e-001) (57, 1.57518100738525390000e+001) (58, 2.59554803371429440000e-001) (59, 1.61460227966308590000e+001) (60, 1.62922210693359370000e+001) (61, 1.64088077545166020000e+001) (62, 1.63947715759277340000e+001) (63, 6.91359639167785640000e-001) (64, 8.39111387729644780000e-001) (65, 1.73430591821670530000e-001) (66, 5.53149461746215820000e-001) (67, 7.48785734176635740000e-001) (68, 5.84448218345642090000e-001) (69, 1.59197692871093750000e+001) (70, 6.80925488471984860000e-001) (71, 1.00687634944915770000e+000) (72, 6.19587302207946780000e-001) (73, 6.17352187633514400000e-001) (74, 1.15980947017669680000e+000) (75, 5.21015644073486330000e-001) (76, -4.52195018529891970000e-001) (77, 1.56443252563476560000e+001) (78, 3.81300717592239380000e-001) (79, 1.54224300384521480000e+001) (80, 8.45517694950103760000e-001) (81, 4.58842575550079350000e-001) (82, 3.93991172313690190000e-001) (83, 1.59342348575592040000e-001) (84, 4.04505074024200440000e-001) (85, 1.60243958234786990000e-001) (86, -1.04421103000640870000e+000) (87, 1.63373756408691410000e+001) (88, 4.92856621742248540000e-001) (89, 1.62571296691894530000e+001) (90, 1.55145015716552730000e+001) (91, 1.54388713836669920000e+001) (92, 1.58198795318603520000e+001) (93, 1.61070213317871090000e+001) (94, 1.63036613464355470000e+001) (95, 1.59210186004638670000e+001) (96, 1.62783775329589840000e+001) (97, 1.54587726593017580000e+001) (98, 2.61989384889602660000e-001) (99, 1.54475879669189450000e+001) (100, -4.26410377025604250000e-001) (0, 2.29579186439514160000e+000) (1, 5.92196345329284670000e-001) (2, -4.52352702617645260000e-001) (3, -3.24340164661407470000e-001) (4, -1.83251428604125980000e+000) (5, -2.36783003807067870000e+000) (6, -2.27684855461120610000e+000) (7, -3.10362315177917480000e+000) (8, -3.12301135063171390000e+000) (9, 1.58198146820068360000e+001) (10, 1.53556632995605470000e+000) (11, -1.85437902808189390000e-001) (12, -1.70576244592666630000e-001) (13, 6.14271998405456540000e-001) (14, 6.68037116527557370000e-001) (15, 7.78584063053131100000e-001) (16, 8.11296582221984860000e-001) (17, 1.58155517578125000000e+001) (18, -3.63099026679992680000e+000) (19, 1.64077835083007810000e+001) (20, 1.00118100643157960000e+000) (21, 1.59478435516357420000e+001) (22, -1.22429192066192630000e+000) (23, -3.83373573422431950000e-002) (24, -3.70831489562988280000e+000) (25, -3.40924322605133060000e-001) (26, -7.05829501152038570000e-001) (27, 1.59218845367431640000e+001) (28, -2.85061097145080570000e+000) (29, 1.61923294067382810000e+001) (30, 1.05152702331542970000e+000) (31, 1.59943752288818360000e+001) (32, -1.38539278507232670000e+000) (33, -5.19782781600952150000e-001) (34, -2.04931211471557620000e+000) (35, -9.04089689254760740000e-001) (36, -2.21624732017517090000e+000) (37, -2.75757861137390140000e+000) (38, -2.96460270881652830000e+000) (39, 1.60157833099365230000e+001) (40, 8.52802991867065430000e-001) (41, 7.21258103847503660000e-001) (42, 5.16267597675323490000e-001) (43, 2.38161608576774600000e-001) (44, 5.79802095890045170000e-001) (45, 4.88269090652465820000e-001) (46, -5.54453313350677490000e-001) (47, 1.57909717559814450000e+001) (48, -3.43457341194152830000e+000) (49, 1.56997661590576170000e+001) (50, 1.63963413238525390000e+001) (51, 1.62650775909423830000e+001) (52, 1.59002532958984380000e+001) (53, 2.97704935073852540000e-001) (54, -2.59759259223937990000e+000) (55, 9.36768293380737300000e-001) (56, -5.41987001895904540000e-001) (57, 1.57156295776367190000e+001) (58, -1.83419764041900630000e+000) (59, 1.60148849487304690000e+001) (60, 1.56465358734130860000e+001) (61, 1.56070213317871090000e+001) (62, 1.57068805694580080000e+001) (63, 1.13209342956542970000e+000) (64, -4.17107486724853520000e+000) (65, -1.09153330326080320000e+000) (66, -3.82877945899963380000e-001) (67, -9.76713359355926510000e-001) (68, -1.34743416309356690000e+000) (69, 1.58286914825439450000e+001) (70, 6.43363952636718750000e-001) (71, 3.30648452043533330000e-001) (72, 3.46383541822433470000e-001) (73, 1.03831911087036130000e+000) (74, 1.90375193953514100000e-001) (75, 4.00428444147109990000e-001) (76, -2.39109963178634640000e-001) (77, 1.62641792297363280000e+001) (78, 1.53285264968872070000e-001) (79, 1.57910366058349610000e+001) (80, 1.74836361408233640000e+000) (81, 3.72994124889373780000e-001) (82, -6.98541253805160520000e-002) (83, -1.07861980795860290000e-001) (84, -1.55296766757965090000e+000) (85, -7.92773246765136720000e-001) (86, -4.38813090324401860000e-001) (87, 1.59539318084716800000e+001) (88, -8.48840922117233280000e-003) (89, 1.58385944366455080000e+001) (90, 1.62548542022705080000e+001) (91, 1.61473999023437500000e+001) (92, 1.59803390502929690000e+001) (93, 1.59722309112548830000e+001) (94, 1.55816726684570310000e+001) (95, 1.59505348205566410000e+001) (96, 1.55188922882080080000e+001) (97, 1.63143005371093750000e+001) (98, 3.49994972348213200000e-002) (99, 1.60764789581298830000e+001) (100, -1.57885998487472530000e-001) (0, 2.87237405776977540000e-001) (1, 3.74375194311141970000e-001) (2, -1.59230321645736690000e-001) (3, -3.24726194143295290000e-001) (4, -1.58264052867889400000e+000) (5, -9.97785508632659910000e-001) (6, -7.98164248466491700000e-001) (7, -3.82360994815826420000e-001) (8, -7.41321295499801640000e-002) (9, 1.59217243194580080000e+001) (10, 1.00188755989074710000e+000) (11, -6.07153356075286870000e-001) (12, 6.87397599220275880000e-001) (13, -2.61501789093017580000e-001) (14, 3.51306259632110600000e-001) (15, -4.95028972625732420000e-001) (16, -7.70830988883972170000e-001) (17, 1.57814540863037110000e+001) (18, -1.20279893279075620000e-001) (19, 1.59486751556396480000e+001) (20, 2.96723365783691410000e-001) (21, 1.60384712219238280000e+001) (22, 1.81292369961738590000e-001) (23, -7.60339349508285520000e-002) (24, -2.95509874820709230000e-001) (25, 1.38670122623443600000e+000) (26, 2.90506809949874880000e-001) (27, 1.54508247375488280000e+001) (28, 2.17592582106590270000e-001) (29, 1.61309928894042970000e+001) (30, 5.60214638710021970000e-001) (31, 1.64233264923095700000e+001) (32, 4.32317256927490230000e-001) (33, 5.53212702274322510000e-001) (34, -7.61531174182891850000e-001) (35, 1.79773962497711180000e+000) (36, -2.85442769527435300000e-001) (37, 1.73816263675689700000e-001) (38, -3.68324339389801030000e-001) (39, 1.59621677398681640000e+001) (40, 9.16161537170410160000e-001) (41, -5.86451403796672820000e-002) (42, 3.17919045686721800000e-001) (43, 6.23167335987091060000e-001) (44, -2.35015213489532470000e-001) (45, -4.07048732042312620000e-001) (46, 1.36901366710662840000e+000) (47, 1.57657184600830080000e+001) (48, -1.80177390575408940000e-003) (49, 1.58623085021972660000e+001) (50, 1.58043365478515630000e+001) (51, 1.63438491821289060000e+001) (52, 1.57610397338867190000e+001) (53, 1.60625660419464110000e+000) (54, -4.21608746051788330000e-001) (55, 9.12464857101440430000e-001) (56, 1.39763176441192630000e+000) (57, 1.59846324920654300000e+001) (58, -1.61933735013008120000e-001) (59, 1.61077899932861330000e+001) (60, 1.58722114562988280000e+001) (61, 1.62425804138183590000e+001) (62, 1.55617713928222660000e+001) (63, 2.03493386507034300000e-002) (64, -5.69929003715515140000e-001) (65, 1.97207570075988770000e+000) (66, -3.61539423465728760000e-004) (67, 4.93525564670562740000e-001) (68, 5.45890510082244870000e-001) (69, 1.63386249542236330000e+001) (70, -3.83016169071197510000e-001) (71, -5.14825761318206790000e-001) (72, -1.71761721372604370000e-001) (73, 1.04376113414764400000e+000) (74, 2.96496227383613590000e-002) (75, 5.09252883493900300000e-002) (76, 8.31680178642272950000e-001) (77, 1.57964839935302730000e+001) (78, 2.26517844200134280000e+000) (79, 1.63234996795654300000e+001) (80, 9.26673054695129390000e-001) (81, 4.04243081808090210000e-001) (82, -3.27866762876510620000e-001) (83, 2.49685898423194890000e-001) (84, -9.78937149047851560000e-001) (85, -4.34880070388317110000e-002) (86, 1.02601826190948490000e+000) (87, 1.61272106170654300000e+001) (88, 1.89388084411621090000e+000) (89, 1.57114315032958980000e+001) (90, 1.55854549407958980000e+001) (91, 1.58687820434570310000e+001) (92, 1.63686218261718750000e+001) (93, 1.54973564147949220000e+001) (94, 1.63693256378173830000e+001) (95, 1.59245452880859380000e+001) (96, 1.62336387634277340000e+001) (97, 1.60946502685546880000e+001) (98, 2.53713011741638180000e+000) (99, 1.57678985595703130000e+001) (100, -1.21451067924499510000e+000) (0, -8.23231458663940430000e-001) (1, -4.90823656320571900000e-001) (2, 3.16719740629196170000e-001) (3, 3.56549590826034550000e-001) (4, 7.19561517238616940000e-001) (5, -3.99615943431854250000e-001) (6, -4.46725130081176760000e-001) (7, -7.14613676071166990000e-001) (8, -1.40247261524200440000e+000) (9, 1.61515979766845700000e+001) (10, -1.23419135808944700000e-001) (11, -7.15853720903396610000e-002) (12, 5.69835484027862550000e-001) (13, -6.03765547275543210000e-001) (14, 5.08660256862640380000e-001) (15, -5.74004828929901120000e-001) (16, -3.59000861644744870000e-001) (17, 1.59292564392089840000e+001) (18, -8.45237612724304200000e-001) (19, 1.55970878601074220000e+001) (20, -4.93979692459106450000e-001) (21, 1.55785961151123050000e+001) (22, 6.11100077629089360000e-001) (23, 4.46082860231399540000e-001) (24, 1.02619200944900510000e-001) (25, -3.57378035783767700000e-001) (26, 8.79130661487579350000e-001) (27, 1.59246082305908200000e+001) (28, -1.08158504962921140000e+000) (29, 1.61555728912353520000e+001) (30, -6.35872110724449160000e-002) (31, 1.56088809967041020000e+001) (32, 9.41761910915374760000e-001) (33, -3.17666769027709960000e-001) (34, 1.58573612570762630000e-002) (35, 1.22210653498768810000e-002) (36, -1.67306661605834960000e-001) (37, -1.53710246086120610000e+000) (38, -9.03146684169769290000e-001) (39, 1.58188858032226560000e+001) (40, 4.39627990126609800000e-002) (41, -2.39003077149391170000e-001) (42, -4.17589187622070310000e-001) (43, -3.38156819343566890000e-001) (44, -1.16122595965862270000e-001) (45, -7.81429290771484380000e-001) (46, -1.50211477279663090000e+000) (47, 1.62856521606445310000e+001) (48, -1.31668257713317870000e+000) (49, 1.61155776977539060000e+001) (50, 1.64077835083007810000e+001) (51, 1.57449855804443360000e+001) (52, 1.63960208892822270000e+001) (53, 9.08646136522293090000e-002) (54, 5.82660511136054990000e-002) (55, 1.08440840244293210000e+000) (56, -1.35844779014587400000e+000) (57, 1.55786285400390620000e+001) (58, -3.86147975921630860000e-001) (59, 1.59024009704589840000e+001) (60, 1.63453540802001950000e+001) (61, 1.56926193237304690000e+001) (62, 1.59071426391601560000e+001) (63, -3.95755350589752200000e-001) (64, 7.32985615730285640000e-001) (65, 3.84191662073135380000e-001) (66, 1.14466893672943120000e+000) (67, 1.69580757617950440000e-001) (68, -1.90083816647529600000e-001) (69, 1.53932685852050780000e+001) (70, -2.40595545619726180000e-002) (71, 3.19228917360305790000e-001) (72, 3.57300847768783570000e-001) (73, -4.78301167488098140000e-001) (74, 1.83510392904281620000e-001) (75, -1.81075409054756160000e-001) (76, -2.19042229652404790000e+000) (77, 1.63092384338378910000e+001) (78, 3.08120310306549070000e-001) (79, 1.55413570404052730000e+001) (80, -5.84608912467956540000e-001) (81, -2.25666016340255740000e-001) (82, 1.67792111635208130000e-001) (83, 1.12703174352645870000e-001) (84, 1.24991834163665770000e-001) (85, 9.11177694797515870000e-001) (86, 7.93048381805419920000e-001) (87, 1.59149303436279300000e+001) (88, 2.71073877811431880000e-001) (89, 1.54412097930908200000e+001) (90, 1.57235126495361330000e+001) (91, 1.59970359802246090000e+001) (92, 1.61565971374511720000e+001) (93, 1.59899520874023440000e+001) (94, 1.57728652954101560000e+001) (95, 1.63431110382080080000e+001) (96, 1.57959709167480470000e+001) (97, 1.59108924865722660000e+001) (98, 6.41137510538101200000e-002) (99, 1.61705379486083980000e+001) (100, -2.69232630729675290000e-001) (0, 2.26047611236572270000e+000) (1, 1.17675423622131350000e+000) (2, -3.63630890846252440000e-001) (3, 3.01522493362426760000e-001) (4, -4.00217151641845700000e+000) (5, -2.08015847206115720000e+000) (6, -1.90300226211547850000e+000) (7, 4.83385801315307620000e-001) (8, 5.47415852546691890000e-001) (9, 1.57456569671630860000e+001) (10, 2.85162520408630370000e+000) (11, 1.64905989170074460000e+000) (12, -2.72245526313781740000e-001) (13, 1.93473830819129940000e-001) (14, -7.24559664726257320000e-001) (15, 1.60895788669586180000e+000) (16, 1.97773650288581850000e-002) (17, 1.58969841003417970000e+001) (18, 6.37051582336425780000e-001) (19, 1.57391834259033200000e+001) (20, 3.06896877288818360000e+000) (21, 1.61537456512451170000e+001) (22, -1.72891247272491460000e+000) (23, 1.39069712162017820000e+000) (24, -4.62861251831054690000e+000) (25, -1.10596501827239990000e+000) (26, -1.56274819374084470000e+000) (27, 1.56598358154296870000e+001) (28, -8.57705473899841310000e-002) (29, 1.58741340637207030000e+001) (30, 2.57178997993469240000e+000) (31, 1.54991188049316410000e+001) (32, -1.80848538875579830000e+000) (33, 6.28587976098060610000e-002) (34, -5.50471496582031250000e+000) (35, -1.02581763267517090000e+000) (36, -1.44918322563171390000e+000) (37, -8.87509286403656010000e-002) (38, -2.73657217621803280000e-003) (39, 1.54902420043945310000e+001) (40, 2.89799737930297850000e+000) (41, 5.43382585048675540000e-001) (42, 1.17528223991394040000e+000) (43, 5.67451715469360350000e-001) (44, -1.56934237480163570000e+000) (45, 5.31234264373779300000e-001) (46, 5.61728715896606450000e-001) (47, 1.54250583648681640000e+001) (48, 4.06665056943893430000e-001) (49, 1.55760974884033200000e+001) (50, 1.57146682739257810000e+001) (51, 1.61646099090576170000e+001) (52, 1.59707241058349610000e+001) (53, 3.01604199409484860000e+000) (54, -3.33597436547279360000e-002) (55, -1.49040436744689940000e+000) (56, 1.84406295418739320000e-001) (57, 1.56299037933349610000e+001) (58, 3.29201728105545040000e-001) (59, 1.54653415679931640000e+001) (60, 1.57808132171630860000e+001) (61, 1.58099441528320310000e+001) (62, 1.61671733856201170000e+001) (63, 2.50727939605712890000e+000) (64, -3.94068956375122070000e+000) (65, -1.48703956604003910000e+000) (66, -7.34340608119964600000e-001) (67, 4.34796899557113650000e-001) (68, 1.46629467606544490000e-001) (69, 1.58364143371582030000e+001) (70, 1.09368360042572020000e+000) (71, 9.87575650215148930000e-001) (72, 1.45517492294311520000e+000) (73, 2.75601243972778320000e+000) (74, -2.91026771068573000000e-001) (75, 1.86386048793792720000e+000) (76, 4.13126409053802490000e-001) (77, 1.57060794830322270000e+001) (78, 2.60427445173263550000e-001) (79, 1.54400882720947270000e+001) (80, 1.72862255573272710000e+000) (81, 1.08763134479522710000e+000) (82, 4.08784151077270510000e-001) (83, 5.06623744964599610000e-001) (84, -4.81959724426269530000e+000) (85, -1.87620091438293460000e+000) (86, -2.23429694771766660000e-001) (87, 1.62196350097656250000e+001) (88, -5.72365056723356250000e-003) (89, 1.57756214141845700000e+001) (90, 1.62712306976318360000e+001) (91, 1.59234237670898440000e+001) (92, 1.55796546936035160000e+001) (93, 1.62577381134033200000e+001) (94, 1.57011756896972660000e+001) (95, 1.64094181060791020000e+001) (96, 1.56794166564941410000e+001) (97, 1.55286674499511720000e+001) (98, 1.97006255388259890000e-001) (99, 1.58771781921386720000e+001) (100, 4.13136482238769530000e-001) (0, 3.08070272207260130000e-001) (1, 4.69869911670684810000e-001) (2, -2.33407005667686460000e-001) (3, 5.71951508522033690000e-001) (4, 1.55867755413055420000e-001) (5, 3.87419342994689940000e-001) (6, 6.67158484458923340000e-001) (7, 2.11221143603324890000e-001) (8, 3.28866064548492430000e-001) (9, 1.59989585876464840000e+001) (10, -2.97570750117301940000e-002) (11, 5.56579589843750000000e-001) (12, -7.74725526571273800000e-002) (13, -1.75972998142242430000e-001) (14, 4.03325110673904420000e-001) (15, -5.16068577766418460000e-001) (16, 8.12213867902755740000e-002) (17, 1.56867866516113280000e+001) (18, 1.79174065589904790000e-001) (19, 1.54183921813964840000e+001) (20, -1.08176246285438540000e-001) (21, 1.56975231170654300000e+001) (22, -2.88513422012329100000e-001) (23, -1.69095337390899660000e-001) (24, -6.33147805929183960000e-002) (25, 1.55796930193901060000e-002) (26, -1.97493290901184080000e+000) (27, 1.60416774749755860000e+001) (28, 4.60771858692169190000e-001) (29, 1.59748268127441410000e+001) (30, 8.00326764583587650000e-001) (31, 1.63971748352050780000e+001) (32, 6.66645318269729610000e-002) (33, -1.72183477878570560000e+000) (34, -1.16813576221466060000e+000) (35, -1.96572110056877140000e-001) (36, 8.63735318183898930000e-001) (37, 1.37288510799407960000e-001) (38, 7.16956377029418950000e-001) (39, 1.54958190917968750000e+001) (40, 2.17326000332832340000e-001) (41, 5.65613865852355960000e-001) (42, 1.45751744508743290000e-001) (43, 7.08346962928771970000e-001) (44, 1.38566344976425170000e-001) (45, 7.77965009212493900000e-001) (46, -7.64491856098175050000e-001) (47, 1.56374664306640630000e+001) (48, 8.16078066825866700000e-001) (49, 1.64084243774414060000e+001) (50, 1.58637199401855470000e+001) (51, 1.62271327972412110000e+001) (52, 1.56894149780273440000e+001) (53, -1.88039138913154600000e-001) (54, -2.64457964897155760000e+000) (55, -1.58302044868469240000e+000) (56, 2.42512430995702740000e-002) (57, 1.60836257934570310000e+001) (58, 9.30388808250427250000e-001) (59, 1.56724624633789060000e+001) (60, 1.58498420715332030000e+001) (61, 1.53791999816894530000e+001) (62, 1.62635383605957030000e+001) (63, 1.53039544820785520000e-001) (64, -6.99641883373260500000e-001) (65, 2.36384078860282900000e-001) (66, 5.02040266990661620000e-001) (67, 1.03434944152832030000e+000) (68, 5.03489613533020020000e-001) (69, 1.57539253234863280000e+001) (70, 4.52170073986053470000e-001) (71, -2.21427753567695620000e-001) (72, 9.80176478624343870000e-002) (73, 6.20071351528167720000e-001) (74, 6.98751509189605710000e-002) (75, -2.00244367122650150000e-001) (76, -9.21362221240997310000e-001) (77, 1.55211029052734370000e+001) (78, 7.22842156887054440000e-001) (79, 1.56599006652832030000e+001) (80, 4.24849838018417360000e-001) (81, -3.71718823909759520000e-001) (82, 4.61677432060241700000e-001) (83, -2.33135566115379330000e-001) (84, 5.02104520797729490000e-001) (85, -1.42798519134521480000e+000) (86, -7.97269284725189210000e-001) (87, 1.57144756317138670000e+001) (88, 3.09082210063934330000e-001) (89, 1.55912227630615230000e+001) (90, 1.63371181488037110000e+001) (91, 1.55769615173339840000e+001) (92, 1.61213130950927730000e+001) (93, 1.63325996398925780000e+001) (94, 1.55327682495117190000e+001) (95, 1.54555683135986330000e+001) (96, 1.57639236450195310000e+001) (97, 1.61914329528808590000e+001) (98, 8.08920681476593020000e-001) (99, 1.56020221710205080000e+001) (100, 2.33462229371070860000e-002) (0, -1.79448378086090090000e+000) (1, 3.04444551467895510000e-001) (2, 4.20445986092090610000e-002) (3, 1.68719872832298280000e-001) (4, 5.79208910465240480000e-001) (5, 3.05630159378051760000e+000) (6, 3.34033513069152830000e+000) (7, 4.99853610992431640000e-001) (8, 1.22847628593444820000e+000) (9, 1.63859901428222660000e+001) (10, -2.72409677505493160000e+000) (11, -1.84317159652709960000e+000) (12, 2.38882973790168760000e-001) (13, -4.51778984069824220000e+000) (14, -5.02718724310398100000e-002) (15, -1.68040096759796140000e+000) (16, 5.93344792723655700000e-002) (17, 1.54962673187255860000e+001) (18, 3.04750919342041020000e-001) (19, 1.55072269439697270000e+001) (20, -2.94422841072082520000e+000) (21, 1.57116241455078120000e+001) (22, 1.11931705474853520000e+000) (23, -4.26230765879154210000e-002) (24, 7.86037668585777280000e-002) (25, 8.84679377079010010000e-001) (26, 1.74928605556488040000e+000) (27, 1.59862995147705080000e+001) (28, 8.01705181598663330000e-001) (29, 1.59630966186523440000e+001) (30, -3.24342012405395510000e+000) (31, 1.57799472808837890000e+001) (32, 4.74209249019622800000e-001) (33, 4.76493149995803830000e-001) (34, 1.43897628784179690000e+000) (35, 1.20357513427734370000e+000) (36, 3.21605658531188960000e+000) (37, 9.04896795749664310000e-001) (38, 1.06038928031921390000e+000) (39, 1.55696868896484380000e+001) (40, -2.82414793968200680000e+000) (41, -2.95662045478820800000e-001) (42, 1.36801585555076600000e-001) (43, -2.72752553224563600000e-001) (44, -3.91477197408676150000e-001) (45, 1.71136856079101560000e-003) (46, 1.94546096026897430000e-002) (47, 1.57900428771972660000e+001) (48, 1.03013682365417480000e+000) (49, 1.63282089233398440000e+001) (50, 1.55197906494140630000e+001) (51, 1.61406707763671880000e+001) (52, 1.58431453704833980000e+001) (53, 1.46174356341362000000e-001) (54, 8.25263440608978270000e-001) (55, 4.58950638771057130000e-001) (56, 7.89257824420928960000e-001) (57, 1.60814800262451170000e+001) (58, 1.66110825538635250000e+000) (59, 1.62705574035644530000e+001) (60, 1.62489261627197270000e+001) (61, 1.60637569427490230000e+001) (62, 1.62574176788330080000e+001) (63, -2.29415297508239750000e+000) (64, 9.12533223628997800000e-001) (65, 5.59941470623016360000e-001) (66, 1.08409953117370610000e+000) (67, 1.50878834724426270000e+000) (68, 1.43366992473602290000e+000) (69, 1.60262298583984380000e+001) (70, -1.63460922241210940000e+000) (71, -1.21729183197021480000e+000) (72, -1.35192179679870610000e+000) (73, -3.51983880996704100000e+000) (74, -2.30248361825942990000e-001) (75, -1.20908439159393310000e+000) (76, -1.03445991873741150000e-001) (77, 1.59296722412109380000e+001) (78, 1.53619086742401120000e+000) (79, 1.62001171112060550000e+001) (80, -2.17398524284362790000e+000) (81, -4.47726249694824220000e-002) (82, -1.35727420449256900000e-001) (83, -6.26279711723327640000e-002) (84, 6.75574541091918950000e-001) (85, 1.96496295928955080000e+000) (86, 8.11028182506561280000e-002) (87, 1.55486316680908200000e+001) (88, 1.06013119220733640000e+000) (89, 1.62723846435546870000e+001) (90, 1.64151535034179690000e+001) (91, 1.60662250518798830000e+001) (92, 1.58980407714843750000e+001) (93, 1.61521434783935550000e+001) (94, 1.57509136199951170000e+001) (95, 1.54667835235595700000e+001) (96, 1.62208518981933590000e+001) (97, 1.58631744384765630000e+001) (98, 1.54593312740325930000e+000) (99, 1.63320884704589840000e+001) (100, 1.99940741062164310000e-001) (0, -5.69122672080993650000e-001) (1, 1.12733691930770870000e-001) (2, 3.82140964269638060000e-001) (3, 4.35253411531448360000e-001) (4, 1.09599781036376950000e+000) (5, 3.30215430259704590000e+000) (6, 2.75078392028808590000e+000) (7, 6.54552698135375980000e+000) (8, 6.28395843505859380000e+000) (9, 1.55989131927490230000e+001) (10, 2.75978863239288330000e-001) (11, 1.21700927615165710000e-001) (12, -3.01379747688770290000e-002) (13, 5.84175229072570800000e-001) (14, 1.51067525148391720000e-001) (15, -4.14501667022705080000e-001) (16, 3.31959933042526250000e-001) (17, 1.62148914337158200000e+001) (18, 6.43528509140014650000e+000) (19, 1.59768447875976560000e+001) (20, 1.53078809380531310000e-002) (21, 1.53995819091796870000e+001) (22, 7.58576273918151860000e-001) (23, -1.78725197911262510000e-001) (24, 4.99323904514312740000e-001) (25, 9.83087718486785890000e-001) (26, 8.33279013633728030000e-001) (27, 1.56110916137695310000e+001) (28, 6.32827949523925780000e+000) (29, 1.55236358642578130000e+001) (30, 1.83266639709472660000e-001) (31, 1.64125251770019530000e+001) (32, 3.93944352865219120000e-001) (33, -7.67855525016784670000e-001) (34, 1.05923926830291750000e+000) (35, 5.25615513324737550000e-001) (36, 3.09625172615051270000e+000) (37, 6.18906688690185550000e+000) (38, 5.87051868438720700000e+000) (39, 1.54167270660400390000e+001) (40, 6.50737702846527100000e-001) (41, 2.63098627328872680000e-001) (42, 4.21441167593002320000e-001) (43, -1.05501011013984680000e-001) (44, 6.77242398262023930000e-001) (45, 6.08599364757537840000e-001) (46, -1.67730405926704410000e-001) (47, 1.62955532073974610000e+001) (48, 6.60029554367065430000e+000) (49, 1.59947910308837890000e+001) (50, 1.62922210693359370000e+001) (51, 1.59605331420898440000e+001) (52, 1.55871849060058590000e+001) (53, -6.76807999610900880000e-001) (54, 9.61522310972213750000e-002) (55, -1.05157923698425290000e+000) (56, -2.92489707469940190000e-001) (57, 1.57411079406738280000e+001) (58, 9.26186859607696530000e-001) (59, 1.54323978424072270000e+001) (60, 1.63744220733642580000e+001) (61, 1.57058868408203130000e+001) (62, 1.61425609588623050000e+001) (63, 1.33850052952766420000e-001) (64, 7.67333805561065670000e-001) (65, 7.39593982696533200000e-001) (66, -1.00558921694755550000e-002) (67, 3.37449729442596440000e-001) (68, 8.92569482326507570000e-001) (69, 1.56722049713134770000e+001) (70, 1.55734822154045100000e-001) (71, 4.54990565776824950000e-001) (72, -2.21299126744270320000e-001) (73, -1.90581157803535460000e-001) (74, -1.21813431382179260000e-001) (75, -3.19578111171722410000e-001) (76, -3.68152976036071780000e-001) (77, 1.59989891052246090000e+001) (78, 3.59538525342941280000e-001) (79, 1.55500736236572270000e+001) (80, -2.91242063045501710000e-001) (81, 7.00156986713409420000e-001) (82, -1.32717132568359380000e-001) (83, 3.80805402994155880000e-001) (84, 1.04651701450347900000e+000) (85, 6.45974054932594300000e-002) (86, -3.41487050056457520000e-001) (87, 1.56518230438232420000e+001) (88, 3.92482906579971310000e-001) (89, 1.60660324096679690000e+001) (90, 1.57537326812744140000e+001) (91, 1.63064823150634770000e+001) (92, 1.56380748748779300000e+001) (93, 1.56863708496093750000e+001) (94, 1.57488937377929690000e+001) (95, 1.56522731781005860000e+001) (96, 1.61549949645996090000e+001) (97, 1.62270698547363280000e+001) (98, -9.42804217338562010000e-002) (99, 1.53774051666259770000e+001) (100, 3.59236061573028560000e-001) (0, 1.24505627155303960000e+000) (1, 4.46947276592254640000e-001) (2, 1.24819949269294740000e-001) (3, 4.12124276161193850000e-001) (4, -5.16218021512031560000e-002) (5, -1.14493942260742190000e+000) (6, -1.47258901596069340000e+000) (7, -3.78882884979248050000e-001) (8, -3.72281193733215330000e-001) (9, 1.58767299652099610000e+001) (10, 9.00216639041900630000e-001) (11, 1.40468347072601320000e+000) (12, 4.17907893657684330000e-001) (13, 1.48818004131317140000e+000) (14, -3.63841980695724490000e-001) (15, 2.10807457566261290000e-001) (16, 3.30496311187744140000e-001) (17, 1.59919719696044920000e+001) (18, 3.82420569658279420000e-002) (19, 1.55887870788574220000e+001) (20, 3.28977167606353760000e-001) (21, 1.58019638061523440000e+001) (22, -6.73556983470916750000e-001) (23, 5.17030060291290280000e-001) (24, -3.34755182266235350000e+000) (25, -1.41764804720878600000e-003) (26, 3.63278746604919430000e-001) (27, 1.58024768829345700000e+001) (28, -7.04385221004486080000e-001) (29, 1.57582836151123050000e+001) (30, 8.69162976741790770000e-001) (31, 1.59136161804199220000e+001) (32, -8.87759566307067870000e-001) (33, 6.46742999553680420000e-001) (34, -2.79835760593414310000e-001) (35, -8.91946107149124150000e-002) (36, -1.05447053909301760000e+000) (37, 2.89266943931579590000e-001) (38, 1.37580819427967070000e-002) (39, 1.56272125244140630000e+001) (40, 9.36205446720123290000e-001) (41, 2.39453494548797610000e-001) (42, 3.52347195148468020000e-001) (43, -2.25698441267013550000e-001) (44, 7.50448644161224370000e-001) (45, -2.52526402473449710000e-001) (46, -3.14285218715667720000e-001) (47, 1.54265003204345700000e+001) (48, 1.10981650650501250000e-002) (49, 1.54252185821533200000e+001) (50, 1.54279422760009770000e+001) (51, 1.59634494781494140000e+001) (52, 1.59452476501464840000e+001) (53, -9.24645289778709410000e-002) (54, -4.18001604080200200000e+000) (55, -5.06884872913360600000e-001) (56, -4.94646251201629640000e-001) (57, 1.56562786102294920000e+001) (58, -4.33198273181915280000e-001) (59, 1.62371635437011720000e+001) (60, 1.57061119079589840000e+001) (61, 1.58277950286865230000e+001) (62, 1.60864143371582030000e+001) (63, 4.07620757818222050000e-001) (64, -3.23577165603637700000e+000) (65, 5.69212734699249270000e-001) (66, -2.69703090190887450000e-001) (67, -5.61386704444885250000e-001) (68, -7.15629220008850100000e-001) (69, 1.55954856872558590000e+001) (70, 1.02595078945159910000e+000) (71, 1.03998744487762450000e+000) (72, 1.33273780345916750000e+000) (73, 1.45169901847839360000e+000) (74, 5.40494859218597410000e-001) (75, 7.41731584072113040000e-001) (76, -8.92158448696136470000e-001) (77, 1.64194488525390630000e+001) (78, -8.57487142086029050000e-001) (79, 1.60063934326171880000e+001) (80, 9.82750833034515380000e-001) (81, 4.29737985134124760000e-001) (82, 8.96291732788085940000e-001) (83, 7.05707728862762450000e-001) (84, 1.62901401519775390000e-001) (85, 2.89698600769042970000e-001) (86, -1.15012133121490480000e+000) (87, 1.59250888824462890000e+001) (88, -2.22890719771385190000e-001) (89, 1.58901252746582030000e+001) (90, 1.60118408203125000000e+001) (91, 1.63856391906738280000e+001) (92, 1.63817920684814450000e+001) (93, 1.61639366149902340000e+001) (94, 1.60120010375976560000e+001) (95, 1.54892807006835940000e+001) (96, 1.60014572143554690000e+001) (97, 1.54315967559814450000e+001) (98, -4.92663085460662840000e-001) (99, 1.62125511169433590000e+001) (100, -7.23128676414489750000e-001) (0, -3.39728116989135740000e-001) (1, 2.09487497806549070000e-001) (2, 1.09666753560304640000e-002) (3, 4.83856558799743650000e-001) (4, 1.16246342658996580000e+000) (5, 6.56510949134826660000e-001) (6, -1.98729917407035830000e-001) (7, -4.49492037296295170000e-003) (8, 2.07272231578826900000e-001) (9, 1.61592903137207030000e+001) (10, 2.61550359427928920000e-002) (11, -5.73658704757690430000e-001) (12, -7.55212604999542240000e-001) (13, -1.76772624254226680000e-001) (14, -7.71073624491691590000e-002) (15, 3.07531535625457760000e-001) (16, 7.25329160690307620000e-001) (17, 1.54289035797119140000e+001) (18, -6.51600509881973270000e-002) (19, 1.59918746948242190000e+001) (20, 7.55706965923309330000e-001) (21, 1.58386592864990230000e+001) (22, -5.01678764820098880000e-001) (23, 3.33887368440628050000e-001) (24, 5.13589859008789060000e-001) (25, 1.12626597285270690000e-001) (26, 9.73164498805999760000e-001) (27, 1.57214946746826170000e+001) (28, 1.43947184085845950000e-001) (29, 1.57228393554687500000e+001) (30, 1.32102742791175840000e-001) (31, 1.57184810638427730000e+001) (32, -5.21323621273040770000e-001) (33, 3.16763877868652340000e-001) (34, -4.62453156709671020000e-001) (35, -1.44564360380172730000e-001) (36, 1.05429023504257200000e-001) (37, -4.81259465217590330000e-001) (38, -3.35413098335266110000e-001) (39, 1.62516174316406250000e+001) (40, 4.66482132673263550000e-001) (41, 1.70356720685958860000e-001) (42, 4.32341247797012330000e-001) (43, 7.60534226894378660000e-001) (44, 3.48877906799316410000e-001) (45, -1.33457764983177190000e-001) (46, 3.37979525327682500000e-001) (47, 1.60441436767578120000e+001) (48, 1.79839968681335450000e-001) (49, 1.61580715179443360000e+001) (50, 1.58382740020751950000e+001) (51, 1.61654109954833980000e+001) (52, 1.63400039672851560000e+001) (53, 3.69766354560852050000e-001) (54, 1.24853241443634030000e+000) (55, 3.23486141860485080000e-002) (56, 3.97106379270553590000e-001) (57, 1.60874080657958980000e+001) (58, 8.34609925746917720000e-001) (59, 1.59929008483886720000e+001) (60, 1.55529270172119140000e+001) (61, 1.62886962890625000000e+001) (62, 1.58433685302734370000e+001) (63, -1.12801142036914830000e-001) (64, 9.18504893779754640000e-001) (65, 8.38352292776107790000e-002) (66, 4.59792226552963260000e-001) (67, 1.35252273082733150000e+000) (68, 1.21513688564300540000e+000) (69, 1.58891639709472660000e+001) (70, -6.44034147262573240000e-001) (71, -5.42765319347381590000e-001) (72, -7.71453320980072020000e-001) (73, 4.38633203506469730000e-001) (74, -2.88297653198242190000e-001) (75, 2.81285047531127930000e-001) (76, 8.59930396080017090000e-001) (77, 1.54188423156738280000e+001) (78, -2.89153277873992920000e-001) (79, 1.61560840606689450000e+001) (80, -6.51930987834930420000e-001) (81, 6.32348835468292240000e-001) (82, 9.50462222099304200000e-001) (83, 1.07284998893737790000e+000) (84, 1.47639667987823490000e+000) (85, 7.28004217147827150000e-001) (86, 8.17178606986999510000e-001) (87, 1.57408504486083980000e+001) (88, 6.60337924957275390000e-001) (89, 1.62172622680664060000e+001) (90, 1.57334156036376950000e+001) (91, 1.61513099670410160000e+001) (92, 1.56003246307373050000e+001) (93, 1.55139255523681640000e+001) (94, 1.62097949981689450000e+001) (95, 1.61301269531250000000e+001) (96, 1.56179180145263670000e+001) (97, 1.56667900085449220000e+001) (98, 2.64331996440887450000e-001) (99, 1.56840629577636720000e+001) (100, 1.53156191110610960000e-001) (0, 8.54853510856628420000e-001) (1, -1.23901441693305970000e-001) (2, -4.02457475662231450000e-001) (3, 4.32948529720306400000e-001) (4, -9.68895852565765380000e-002) (5, 4.11772191524505620000e-001) (6, 1.46165907382965090000e-001) (7, 8.89070928096771240000e-001) (8, 9.80244874954223630000e-001) (9, 1.63505783081054690000e+001) (10, 1.46099710464477540000e+000) (11, 1.36356389522552490000e+000) (12, -5.88614232838153840000e-002) (13, 1.58406162261962890000e+000) (14, 4.19225424528121950000e-001) (15, 5.20626366138458250000e-001) (16, 3.47576320171356200000e-001) (17, 1.63743896484375000000e+001) (18, 7.32072174549102780000e-001) (19, 1.63367977142333980000e+001) (20, 4.88528192043304440000e-001) (21, 1.55723781585693360000e+001) (22, -1.39739656448364260000e+000) (23, -4.39931064844131470000e-001) (24, -1.14810192584991460000e+000) (25, -6.46898001432418820000e-002) (26, -1.65143275260925290000e+000) (27, 1.57783451080322270000e+001) (28, 2.96328008174896240000e-001) (29, 1.58378887176513670000e+001) (30, 1.33373808860778810000e+000) (31, 1.63992576599121090000e+001) (32, -1.38787865638732910000e+000) (33, 3.42867337167263030000e-002) (34, -1.09896099567413330000e+000) (35, -7.87992596626281740000e-001) (36, -3.67997646331787110000e-001) (37, 7.98121333122253420000e-001) (38, 5.20401239395141600000e-001) (39, 1.58251342773437500000e+001) (40, 