FANN_FLO_2.1
num_layers=6
learning_rate=0.700000
connection_rate=1.000000
network_type=0
learning_momentum=0.000000
training_algorithm=2
train_error_function=1
train_stop_function=0
cascade_output_change_fraction=0.010000
quickprop_decay=-0.000100
quickprop_mu=1.750000
rprop_increase_factor=1.200000
rprop_decrease_factor=0.500000
rprop_delta_min=0.000000
rprop_delta_max=50.000000
rprop_delta_zero=0.100000
cascade_output_stagnation_epochs=12
cascade_candidate_change_fraction=0.010000
cascade_candidate_stagnation_epochs=12
cascade_max_out_epochs=150
cascade_min_out_epochs=50
cascade_max_cand_epochs=150
cascade_min_cand_epochs=50
cascade_num_candidate_groups=2
bit_fail_limit=3.49999994039535520000e-001
cascade_candidate_limit=1.00000000000000000000e+003
cascade_weight_multiplier=4.00000005960464480000e-001
cascade_activation_functions_count=10
cascade_activation_functions=3 5 7 8 10 11 14 15 16 17 
cascade_activation_steepnesses_count=4
cascade_activation_steepnesses=2.50000000000000000000e-001 5.00000000000000000000e-001 7.50000000000000000000e-001 1.00000000000000000000e+000 
layer_sizes=101 81 61 41 11 4 
scale_included=0
neurons (num_inputs, activation_function, activation_steepness)=(0, 0, 0.00000000000000000000e+000) (0, 0, 0.00000000000000000000e+000) (0, 0, 0.00000000000000000000e+000) (0, 0, 0.00000000000000000000e+000) (0, 0, 0.00000000000000000000e+000) (0, 0, 0.00000000000000000000e+000) (0, 0, 0.00000000000000000000e+000) (0, 0, 0.00000000000000000000e+000) (0, 0, 0.00000000000000000000e+000) (0, 0, 0.00000000000000000000e+000) (0, 0, 0.00000000000000000000e+000) (0, 0, 0.00000000000000000000e+000) (0, 0, 0.00000000000000000000e+000) (0, 0, 0.00000000000000000000e+000) (0, 0, 0.00000000000000000000e+000) (0, 0, 0.00000000000000000000e+000) (0, 0, 0.00000000000000000000e+000) (0, 0, 0.00000000000000000000e+000) (0, 0, 0.00000000000000000000e+000) (0, 0, 0.00000000000000000000e+000) (0, 0, 0.00000000000000000000e+000) (0, 0, 0.00000000000000000000e+000) (0, 0, 0.00000000000000000000e+000) (0, 0, 0.00000000000000000000e+000) (0, 0, 0.00000000000000000000e+000) (0, 0, 0.00000000000000000000e+000) (0, 0, 0.00000000000000000000e+000) (0, 0, 0.00000000000000000000e+000) (0, 0, 0.00000000000000000000e+000) (0, 0, 0.00000000000000000000e+000) (0, 0, 0.00000000000000000000e+000) (0, 0, 0.00000000000000000000e+000) (0, 0, 0.00000000000000000000e+000) (0, 0, 0.00000000000000000000e+000) (0, 0, 0.00000000000000000000e+000) (0, 0, 0.00000000000000000000e+000) (0, 0, 0.00000000000000000000e+000) (0, 0, 0.00000000000000000000e+000) (0, 0, 0.00000000000000000000e+000) (0, 0, 0.00000000000000000000e+000) (0, 0, 0.00000000000000000000e+000) (0, 0, 0.00000000000000000000e+000) (0, 0, 0.00000000000000000000e+000) (0, 0, 0.00000000000000000000e+000) (0, 0, 0.00000000000000000000e+000) (0, 0, 0.00000000000000000000e+000) (0, 0, 0.00000000000000000000e+000) (0, 0, 0.00000000000000000000e+000) (0, 0, 0.00000000000000000000e+000) (0, 0, 0.00000000000000000000e+000) (0, 0, 0.00000000000000000000e+000) (0, 0, 0.00000000000000000000e+000) (0, 0, 0.00000000000000000000e+000) (0, 0, 0.00000000000000000000e+000) (0, 0, 0.00000000000000000000e+000) (0, 0, 0.00000000000000000000e+000) (0, 0, 0.00000000000000000000e+000) (0, 0, 0.00000000000000000000e+000) (0, 0, 0.00000000000000000000e+000) (0, 0, 0.00000000000000000000e+000) (0, 0, 0.00000000000000000000e+000) (0, 0, 0.00000000000000000000e+000) (0, 0, 0.00000000000000000000e+000) (0, 0, 0.00000000000000000000e+000) (0, 0, 0.00000000000000000000e+000) (0, 0, 0.00000000000000000000e+000) (0, 0, 0.00000000000000000000e+000) (0, 0, 0.00000000000000000000e+000) (0, 0, 0.00000000000000000000e+000) (0, 0, 0.00000000000000000000e+000) (0, 0, 0.00000000000000000000e+000) (0, 0, 0.00000000000000000000e+000) (0, 0, 0.00000000000000000000e+000) (0, 0, 0.00000000000000000000e+000) (0, 0, 0.00000000000000000000e+000) (0, 0, 0.00000000000000000000e+000) (0, 0, 0.00000000000000000000e+000) (0, 0, 0.00000000000000000000e+000) (0, 0, 0.00000000000000000000e+000) (0, 0, 0.00000000000000000000e+000) (0, 0, 0.00000000000000000000e+000) (0, 0, 0.00000000000000000000e+000) (0, 0, 0.00000000000000000000e+000) (0, 0, 0.00000000000000000000e+000) (0, 0, 0.00000000000000000000e+000) (0, 0, 0.00000000000000000000e+000) (0, 0, 0.00000000000000000000e+000) (0, 0, 0.00000000000000000000e+000) (0, 0, 0.00000000000000000000e+000) (0, 0, 0.00000000000000000000e+000) (0, 0, 0.00000000000000000000e+000) (0, 0, 0.00000000000000000000e+000) (0, 0, 0.00000000000000000000e+000) (0, 0, 0.00000000000000000000e+000) (0, 0, 0.00000000000000000000e+000) (0, 0, 0.00000000000000000000e+000) (0, 0, 0.00000000000000000000e+000) (0, 0, 0.00000000000000000000e+000) (0, 0, 0.00000000000000000000e+000) (0, 0, 0.00000000000000000000e+000) (0, 0, 0.00000000000000000000e+000) (101, 6, 1.00000000000000000000e+000) (101, 6, 1.00000000000000000000e+000) (101, 6, 1.00000000000000000000e+000) (101, 6, 1.00000000000000000000e+000) (101, 6, 1.00000000000000000000e+000) (101, 6, 1.00000000000000000000e+000) (101, 6, 1.00000000000000000000e+000) (101, 6, 1.00000000000000000000e+000) (101, 6, 1.00000000000000000000e+000) (101, 6, 1.00000000000000000000e+000) (101, 6, 1.00000000000000000000e+000) (101, 6, 1.00000000000000000000e+000) (101, 6, 1.00000000000000000000e+000) (101, 6, 1.00000000000000000000e+000) (101, 6, 1.00000000000000000000e+000) (101, 6, 1.00000000000000000000e+000) (101, 6, 1.00000000000000000000e+000) (101, 6, 1.00000000000000000000e+000) (101, 6, 1.00000000000000000000e+000) (101, 6, 1.00000000000000000000e+000) (101, 6, 1.00000000000000000000e+000) (101, 6, 1.00000000000000000000e+000) (101, 6, 1.00000000000000000000e+000) (101, 6, 1.00000000000000000000e+000) (101, 6, 1.00000000000000000000e+000) (101, 6, 1.00000000000000000000e+000) (101, 6, 1.00000000000000000000e+000) (101, 6, 1.00000000000000000000e+000) (101, 6, 1.00000000000000000000e+000) (101, 6, 1.00000000000000000000e+000) (101, 6, 1.00000000000000000000e+000) (101, 6, 1.00000000000000000000e+000) (101, 6, 1.00000000000000000000e+000) (101, 6, 1.00000000000000000000e+000) (101, 6, 1.00000000000000000000e+000) (101, 6, 1.00000000000000000000e+000) (101, 6, 1.00000000000000000000e+000) (101, 6, 1.00000000000000000000e+000) (101, 6, 1.00000000000000000000e+000) (101, 6, 1.00000000000000000000e+000) (101, 6, 1.00000000000000000000e+000) (101, 6, 1.00000000000000000000e+000) (101, 6, 1.00000000000000000000e+000) (101, 6, 1.00000000000000000000e+000) (101, 6, 1.00000000000000000000e+000) (101, 6, 1.00000000000000000000e+000) (101, 6, 1.00000000000000000000e+000) (101, 6, 1.00000000000000000000e+000) (101, 6, 1.00000000000000000000e+000) (101, 6, 1.00000000000000000000e+000) (101, 6, 1.00000000000000000000e+000) (101, 6, 1.00000000000000000000e+000) (101, 6, 1.00000000000000000000e+000) (101, 6, 1.00000000000000000000e+000) (101, 6, 1.00000000000000000000e+000) (101, 6, 1.00000000000000000000e+000) (101, 6, 1.00000000000000000000e+000) (101, 6, 1.00000000000000000000e+000) (101, 6, 1.00000000000000000000e+000) (101, 6, 1.00000000000000000000e+000) (101, 6, 1.00000000000000000000e+000) (101, 6, 1.00000000000000000000e+000) (101, 6, 1.00000000000000000000e+000) (101, 6, 1.00000000000000000000e+000) (101, 6, 1.00000000000000000000e+000) (101, 6, 1.00000000000000000000e+000) (101, 6, 1.00000000000000000000e+000) (101, 6, 1.00000000000000000000e+000) (101, 6, 1.00000000000000000000e+000) (101, 6, 1.00000000000000000000e+000) (101, 6, 1.00000000000000000000e+000) (101, 6, 1.00000000000000000000e+000) (101, 6, 1.00000000000000000000e+000) (101, 6, 1.00000000000000000000e+000) (101, 6, 1.00000000000000000000e+000) (101, 6, 1.00000000000000000000e+000) (101, 6, 1.00000000000000000000e+000) (101, 6, 1.00000000000000000000e+000) (101, 6, 1.00000000000000000000e+000) (101, 6, 1.00000000000000000000e+000) (0, 6, 1.00000000000000000000e+000) (81, 6, 1.00000000000000000000e+000) (81, 6, 1.00000000000000000000e+000) (81, 6, 1.00000000000000000000e+000) (81, 6, 1.00000000000000000000e+000) (81, 6, 1.00000000000000000000e+000) (81, 6, 1.00000000000000000000e+000) (81, 6, 1.00000000000000000000e+000) (81, 6, 1.00000000000000000000e+000) (81, 6, 1.00000000000000000000e+000) (81, 6, 1.00000000000000000000e+000) (81, 6, 1.00000000000000000000e+000) (81, 6, 1.00000000000000000000e+000) (81, 6, 1.00000000000000000000e+000) (81, 6, 1.00000000000000000000e+000) (81, 6, 1.00000000000000000000e+000) (81, 6, 1.00000000000000000000e+000) (81, 6, 1.00000000000000000000e+000) (81, 6, 1.00000000000000000000e+000) (81, 6, 1.00000000000000000000e+000) (81, 6, 1.00000000000000000000e+000) (81, 6, 1.00000000000000000000e+000) (81, 6, 1.00000000000000000000e+000) (81, 6, 1.00000000000000000000e+000) (81, 6, 1.00000000000000000000e+000) (81, 6, 1.00000000000000000000e+000) (81, 6, 1.00000000000000000000e+000) (81, 6, 1.00000000000000000000e+000) (81, 6, 1.00000000000000000000e+000) (81, 6, 1.00000000000000000000e+000) (81, 6, 1.00000000000000000000e+000) (81, 6, 1.00000000000000000000e+000) (81, 6, 1.00000000000000000000e+000) (81, 6, 1.00000000000000000000e+000) (81, 6, 1.00000000000000000000e+000) (81, 6, 1.00000000000000000000e+000) (81, 6, 1.00000000000000000000e+000) (81, 6, 1.00000000000000000000e+000) (81, 6, 1.00000000000000000000e+000) (81, 6, 1.00000000000000000000e+000) (81, 6, 1.00000000000000000000e+000) (81, 6, 1.00000000000000000000e+000) (81, 6, 1.00000000000000000000e+000) (81, 6, 1.00000000000000000000e+000) (81, 6, 1.00000000000000000000e+000) (81, 6, 1.00000000000000000000e+000) (81, 6, 1.00000000000000000000e+000) (81, 6, 1.00000000000000000000e+000) (81, 6, 1.00000000000000000000e+000) (81, 6, 1.00000000000000000000e+000) (81, 6, 1.00000000000000000000e+000) (81, 6, 1.00000000000000000000e+000) (81, 6, 1.00000000000000000000e+000) (81, 6, 1.00000000000000000000e+000) (81, 6, 1.00000000000000000000e+000) (81, 6, 1.00000000000000000000e+000) (81, 6, 1.00000000000000000000e+000) (81, 6, 1.00000000000000000000e+000) (81, 6, 1.00000000000000000000e+000) (81, 6, 1.00000000000000000000e+000) (81, 6, 1.00000000000000000000e+000) (0, 6, 1.00000000000000000000e+000) (61, 6, 1.00000000000000000000e+000) (61, 6, 1.00000000000000000000e+000) (61, 6, 1.00000000000000000000e+000) (61, 6, 1.00000000000000000000e+000) (61, 6, 1.00000000000000000000e+000) (61, 6, 1.00000000000000000000e+000) (61, 6, 1.00000000000000000000e+000) (61, 6, 1.00000000000000000000e+000) (61, 6, 1.00000000000000000000e+000) (61, 6, 1.00000000000000000000e+000) (61, 6, 1.00000000000000000000e+000) (61, 6, 1.00000000000000000000e+000) (61, 6, 1.00000000000000000000e+000) (61, 6, 1.00000000000000000000e+000) (61, 6, 1.00000000000000000000e+000) (61, 6, 1.00000000000000000000e+000) (61, 6, 1.00000000000000000000e+000) (61, 6, 1.00000000000000000000e+000) (61, 6, 1.00000000000000000000e+000) (61, 6, 1.00000000000000000000e+000) (61, 6, 1.00000000000000000000e+000) (61, 6, 1.00000000000000000000e+000) (61, 6, 1.00000000000000000000e+000) (61, 6, 1.00000000000000000000e+000) (61, 6, 1.00000000000000000000e+000) (61, 6, 1.00000000000000000000e+000) (61, 6, 1.00000000000000000000e+000) (61, 6, 1.00000000000000000000e+000) (61, 6, 1.00000000000000000000e+000) (61, 6, 1.00000000000000000000e+000) (61, 6, 1.00000000000000000000e+000) (61, 6, 1.00000000000000000000e+000) (61, 6, 1.00000000000000000000e+000) (61, 6, 1.00000000000000000000e+000) (61, 6, 1.00000000000000000000e+000) (61, 6, 1.00000000000000000000e+000) (61, 6, 1.00000000000000000000e+000) (61, 6, 1.00000000000000000000e+000) (61, 6, 1.00000000000000000000e+000) (61, 6, 1.00000000000000000000e+000) (0, 6, 1.00000000000000000000e+000) (41, 6, 1.00000000000000000000e+000) (41, 6, 1.00000000000000000000e+000) (41, 6, 1.00000000000000000000e+000) (41, 6, 1.00000000000000000000e+000) (41, 6, 1.00000000000000000000e+000) (41, 6, 1.00000000000000000000e+000) (41, 6, 1.00000000000000000000e+000) (41, 6, 1.00000000000000000000e+000) (41, 6, 1.00000000000000000000e+000) (41, 6, 1.00000000000000000000e+000) (0, 6, 1.00000000000000000000e+000) (11, 4, 1.00000000000000000000e+000) (11, 4, 1.00000000000000000000e+000) (11, 4, 1.00000000000000000000e+000) (0, 4, 1.00000000000000000000e+000) 
connections (connected_to_neuron, weight)=(0, 9.38453674316406250000e+000) (1, 1.06576931476593020000e+000) (2, 1.65660277009010310000e-001) (3, 1.12057375907897950000e+000) (4, 7.75811135768890380000e-001) (5, -1.67161911725997920000e-001) (6, 9.01441723108291630000e-002) (7, 1.89469945430755620000e+000) (8, 1.86947846412658690000e+000) (9, -9.62705671787261960000e-001) (10, -4.44856643676757810000e-001) (11, -1.27045381069183350000e+000) (12, 2.83648431301116940000e-001) (13, 6.66067004203796390000e-001) (14, 2.35824957489967350000e-001) (15, 7.13688969612121580000e-001) (16, 1.63660168647766110000e-001) (17, 9.22144889831542970000e+000) (18, 1.63816249370574950000e+000) (19, -2.36005783081054690000e-001) (20, 8.76990509033203120000e+000) (21, 9.06515502929687500000e+000) (22, 1.37744832038879390000e+000) (23, 6.68799430131912230000e-002) (24, 1.13624083995819090000e+000) (25, 8.89848411083221440000e-001) (26, 4.58172947168350220000e-001) (27, 9.18603706359863280000e+000) (28, 2.37200880050659180000e+000) (29, -1.23459315299987790000e+000) (30, 9.40072059631347660000e+000) (31, 9.48561286926269530000e+000) (32, 1.22237241268157960000e+000) (33, 6.19735121726989750000e-001) (34, 3.12243670225143430000e-001) (35, 5.11576175689697270000e-001) (36, 3.50238353013992310000e-001) (37, 2.05612063407897950000e+000) (38, 2.10306978225708010000e+000) (39, -7.95003235340118410000e-001) (40, -1.06881344318389890000e+000) (41, -6.61385715007781980000e-001) (42, -1.97148695588111880000e-001) (43, 3.62927883863449100000e-001) (44, 4.66115444898605350000e-001) (45, 6.82330012321472170000e-001) (46, -9.97020304203033450000e-002) (47, 9.01391124725341800000e+000) (48, 1.94248163700103760000e+000) (49, 9.59889984130859380000e+000) (50, 9.10732936859130860000e+000) (51, 8.76339912414550780000e+000) (52, -9.44631040096282960000e-001) (53, 9.96320992708206180000e-002) (54, 2.07848072052001950000e-001) (55, 1.12457728385925290000e+000) (56, -1.01015955209732060000e-001) (57, 8.74699115753173830000e+000) (58, 1.07508218288421630000e+000) (59, 9.51945495605468750000e+000) (60, 8.71561717987060550000e+000) (61, 9.27009582519531250000e+000) (62, -1.18437528610229490000e+000) (63, 9.17741584777832030000e+000) (64, 6.87549650669097900000e-001) (65, 3.06699186563491820000e-001) (66, 8.78194928169250490000e-001) (67, 1.14113128185272220000e+000) (68, 7.57687807083129880000e-001) (69, -1.21292924880981450000e+000) (70, -7.94458329677581790000e-001) (71, -4.34088826179504390000e-001) (72, -4.98909413814544680000e-001) (73, 8.67771387100219730000e-001) (74, 1.18821054697036740000e-001) (75, 6.48633420467376710000e-001) (76, 4.62275803089141850000e-001) (77, 9.49256706237792970000e+000) (78, 4.13362264633178710000e-001) (79, 8.67603969573974610000e+000) (80, 9.35470008850097660000e+000) (81, 4.85556751489639280000e-001) (82, 7.22677052021026610000e-001) (83, 9.66972053050994870000e-001) (84, 5.05205571651458740000e-001) (85, 6.48468673229217530000e-001) (86, -9.76830720901489260000e-002) (87, 8.77089881896972660000e+000) (88, 2.06081658601760860000e-001) (89, 9.44250965118408200000e+000) (90, 9.68664455413818360000e+000) (91, 8.78291606903076170000e+000) (92, 8.94142150878906250000e+000) (93, 9.04746532440185550000e+000) (94, 8.78698635101318360000e+000) (95, 8.71401500701904300000e+000) (96, 8.81477069854736330000e+000) (97, 9.03454971313476560000e+000) (98, 4.65823352336883540000e-001) (99, 9.08095455169677730000e+000) (100, 2.94499099254608150000e-001) (0, 9.67001152038574220000e+000) (1, 3.67305898666381840000e+000) (2, 4.91894066333770750000e-001) (3, 1.17387795448303220000e+000) (4, 8.93337666988372800000e-001) (5, 1.11497533321380620000e+000) (6, 1.50546908378601070000e+000) (7, 1.95836198329925540000e+000) (8, 1.69775509834289550000e+000) (9, -1.61461412906646730000e+000) (10, -1.41518533229827880000e+000) (11, -8.44714939594268800000e-001) (12, -1.11397814750671390000e+000) (13, -1.09450328350067140000e+000) (14, 9.83974158763885500000e-001) (15, -1.04816305637359620000e+000) (16, 1.18586349487304690000e+000) (17, 8.99381828308105470000e+000) (18, 2.12279582023620610000e+000) (19, -1.00869989395141600000e+000) (20, 8.80522060394287110000e+000) (21, 9.04746532440185550000e+000) (22, 1.04143583774566650000e+000) (23, -2.68061310052871700000e-001) (24, 3.17799520492553710000e+000) (25, 1.39620840549468990000e-001) (26, 1.44454753398895260000e+000) (27, 9.21632099151611330000e+000) (28, 1.49624300003051760000e+000) (29, -1.01062273979187010000e+000) (30, 9.23080635070800780000e+000) (31, 9.58457469940185550000e+000) (32, 5.19901633262634280000e-001) (33, -6.13946259021759030000e-001) (34, 6.88179492950439450000e-001) (35, -1.20216995477676390000e-001) (36, 1.43922770023345950000e+000) (37, 1.68753206729888920000e+000) (38, 1.54274332523345950000e+000) (39, -1.62022244930267330000e+000) (40, -1.41931927204132080000e+000) (41, 6.67659759521484380000e-001) (42, -4.64076519012451170000e-001) (43, 4.61869150400161740000e-001) (44, 3.66942405700683590000e-001) (45, -7.25196897983551030000e-001) (46, -9.27329599857330320000e-001) (47, 9.12803173065185550000e+000) (48, 1.49108338356018070000e+000) (49, 9.49009990692138670000e+000) (50, 9.31018733978271480000e+000) (51, 9.02955055236816410000e+000) (52, -1.57026112079620360000e+000) (53, 7.95214176177978520000e-002) (54, 2.88508802652359010000e-001) (55, -3.38874667882919310000e-001) (56, -2.33862787485122680000e-001) (57, 8.86111068725585940000e+000) (58, 4.76163923740386960000e-001) (59, 8.73433303833007810000e+000) (60, 9.39629745483398440000e+000) (61, 9.48686313629150390000e+000) (62, -1.25674450397491460000e+000) (63, 9.67738246917724610000e+000) (64, 3.33964061737060550000e+000) (65, 1.07573747634887700000e-001) (66, -1.29502750933170320000e-002) (67, 1.62519067525863650000e-001) (68, 3.30125391483306880000e-001) (69, -1.22521007061004640000e+000) (70, -1.10708439350128170000e+000) (71, -6.78518712520599370000e-001) (72, -1.31677436828613280000e+000) (73, -1.06812846660614010000e+000) (74, 1.15350317955017090000e+000) (75, -4.91761535406112670000e-001) (76, -1.61989554762840270000e-002) (77, 9.61091709136962890000e+000) (78, 7.23279118537902830000e-001) (79, 8.74234485626220700000e+000) (80, 8.66052818298339840000e+000) (81, 3.55945205688476560000e+000) (82, 8.93722176551818850000e-001) (83, 1.31020629405975340000e+000) (84, 1.43320286273956300000e+000) (85, 7.26276159286499020000e-001) (86, 4.24472540616989140000e-002) (87, 8.92639064788818360000e+000) (88, 1.68608024716377260000e-001) (89, 9.63001728057861330000e+000) (90, 8.92632675170898440000e+000) (91, 9.38831806182861330000e+000) (92, 8.98256969451904300000e+000) (93, 9.18453025817871090000e+000) (94, 9.52374935150146480000e+000) (95, 9.34777832031250000000e+000) (96, 9.44613075256347660000e+000) (97, 8.87838459014892580000e+000) (98, 3.02917420864105220000e-001) (99, 9.58938121795654300000e+000) (100, -1.22968351840972900000e+000) (0, 8.79198551177978520000e+000) (1, -1.07764385640621190000e-001) (2, -1.32095742225646970000e+000) (3, -2.32338935136795040000e-001) (4, 2.35548481345176700000e-001) (5, 2.39778742194175720000e-001) (6, 1.80619820952415470000e-001) (7, 2.21139445900917050000e-001) (8, 3.30195695161819460000e-001) (9, 6.47974610328674320000e-001) (10, 9.77995574474334720000e-001) (11, 9.74566519260406490000e-001) (12, 4.17486250400543210000e-001) (13, -6.95177972316741940000e-001) (14, -1.47287458181381230000e-001) (15, -6.51722133159637450000e-001) (16, 1.49950608611106870000e-001) (17, 9.14655494689941410000e+000) (18, -1.85281723737716670000e-001) (19, 4.87771242856979370000e-001) (20, 9.42004489898681640000e+000) (21, 9.09592056274414060000e+000) (22, 2.01130807399749760000e-002) (23, 1.01504474878311160000e-001) (24, 2.93785661458969120000e-001) (25, -7.27001845836639400000e-001) (26, 4.24754440784454350000e-001) (27, 9.17542934417724610000e+000) (28, 2.01080143451690670000e-002) (29, 9.40885007381439210000e-001) (30, 9.51794815063476560000e+000) (31, 9.33755493164062500000e+000) (32, -2.30334907770156860000e-001) (33, -5.12325465679168700000e-001) (34, 2.13579982519149780000e-001) (35, -6.52600944042205810000e-001) (36, 4.90547150373458860000e-001) (37, -1.32307857275009160000e-001) (38, 6.69510304927825930000e-001) (39, 8.69227766990661620000e-001) (40, 1.46889293193817140000e+000) (41, 6.68754935264587400000e-001) (42, 2.57973849773406980000e-001) (43, 1.95962965488433840000e-001) (44, -1.13274478912353520000e+000) (45, -6.59523069858551030000e-001) (46, -4.73596990108489990000e-001) (47, 8.73391628265380860000e+000) (48, 2.36554086208343510000e-001) (49, 9.62114048004150390000e+000) (50, 8.81980228424072270000e+000) (51, 9.40328407287597660000e+000) (52, 1.17710423469543460000e+000) (53, -5.38315713405609130000e-001) (54, -1.47549837827682500000e-001) (55, -4.83957082033157350000e-001) (56, 9.56234633922576900000e-002) (57, 9.58784294128417970000e+000) (58, -7.49867379665374760000e-001) (59, 8.97670459747314450000e+000) (60, 9.34547138214111330000e+000) (61, 9.40027141571044920000e+000) (62, 1.26058685779571530000e+000) (63, 8.82134056091308590000e+000) (64, 7.93207585811614990000e-001) (65, -7.51466214656829830000e-001) (66, -1.17313310503959660000e-001) (67, -4.80671942234039310000e-001) (68, -6.28280818462371830000e-001) (69, 1.38874316215515140000e+000) (70, 1.48225653171539310000e+000) (71, 8.13209474086761470000e-001) (72, 1.32175356149673460000e-001) (73, -8.65155756473541260000e-001) (74, 4.50134456157684330000e-001) (75, -4.27809149026870730000e-001) (76, -1.08836978673934940000e-001) (77, 9.21603298187255860000e+000) (78, -4.52277630567550660000e-001) (79, 9.66908264160156250000e+000) (80, 9.50775718688964840000e+000) (81, -4.98232468962669370000e-002) (82, 4.08282220363616940000e-001) (83, 5.94379663467407230000e-001) (84, -3.27679187059402470000e-001) (85, -1.70872718095779420000e-001) (86, -4.42575395107269290000e-001) (87, 9.41895484924316410000e+000) (88, 2.31415063142776490000e-001) (89, 9.14809322357177730000e+000) (90, 9.16011047363281250000e+000) (91, 9.53935623168945310000e+000) (92, 9.59800243377685550000e+000) (93, 9.53243350982666020000e+000) (94, 9.32566547393798830000e+000) (95, 8.74779224395751950000e+000) (96, 9.22478199005126950000e+000) (97, 8.79038333892822270000e+000) (98, 3.38676631450653080000e-001) (99, 8.64950370788574220000e+000) (100, -1.08420085906982420000e+000) (0, 9.51102638244628910000e+000) (1, 1.28985285758972170000e+000) (2, -9.77601110935211180000e-002) (3, 7.13412344455718990000e-001) (4, 7.67411768436431880000e-001) (5, 1.65629112720489500000e+000) (6, 1.51916158199310300000e+000) (7, 1.30605089664459230000e+000) (8, 1.25474345684051510000e+000) (9, -2.47745454311370850000e-001) (10, -3.56064587831497190000e-001) (11, -7.98987567424774170000e-001) (12, -1.22804380953311920000e-002) (13, 1.99984943866729740000e+000) (14, 2.06631517410278320000e+000) (15, 1.74334454536437990000e+000) (16, 1.68298625946044920000e+000) (17, 8.72058486938476560000e+000) (18, 1.03515672683715820000e+000) (19, -6.05359017848968510000e-001) (20, 9.14620208740234370000e+000) (21, 9.59034252166748050000e+000) (22, 4.81766104698181150000e-001) (23, 2.08139032125473020000e-001) (24, 9.45763289928436280000e-001) (25, -2.40334898233413700000e-001) (26, 1.26467561721801760000e+000) (27, 8.86854648590087890000e+000) (28, 6.88888132572174070000e-001) (29, -6.91084921360015870000e-001) (30, 8.97128868103027340000e+000) (31, 9.17658233642578120000e+000) (32, 7.41283476352691650000e-001) (33, 3.78709614276885990000e-001) (34, 3.59220683574676510000e-001) (35, -3.58748883008956910000e-001) (36, 2.26518583297729490000e+000) (37, 5.21506130695343020000e-001) (38, 6.70172631740570070000e-001) (39, -2.47328877449035640000e-001) (40, -1.48143112659454350000e-001) (41, -1.39426253736019130000e-002) (42, 3.95393759012222290000e-001) (43, 7.34121739864349370000e-001) (44, 6.40985846519470210000e-001) (45, 3.19703549146652220000e-001) (46, 8.21161568164825440000e-001) (47, 9.60498809814453130000e+000) (48, 8.93316507339477540000e-001) (49, 9.21590423583984370000e+000) (50, 9.01833438873291020000e+000) (51, 9.22532653808593750000e+000) (52, -1.17262446880340580000e+000) (53, -5.62173835933208470000e-002) (54, 7.60712474584579470000e-002) (55, -1.14582046866416930000e-001) (56, 3.50550025701522830000e-001) (57, 8.87915325164794920000e+000) (58, 4.57567870616912840000e-001) (59, 8.77631473541259770000e+000) (60, 8.89860630035400390000e+000) (61, 8.99907398223876950000e+000) (62, -8.36482703685760500000e-001) (63, 8.90322113037109370000e+000) (64, 8.53467643260955810000e-001) (65, 5.46934008598327640000e-001) (66, 1.45623743534088130000e-001) (67, -1.86771064996719360000e-001) (68, 4.84743773937225340000e-001) (69, -3.93880158662796020000e-001) (70, -4.20895934104919430000e-001) (71, -4.17723238468170170000e-001) (72, -3.69627445936203000000e-001) (73, 1.42905867099761960000e+000) (74, 1.92761528491973880000e+000) (75, 1.36881017684936520000e+000) (76, 1.23825454711914060000e+000) (77, 8.85748958587646480000e+000) (78, 5.00799357891082760000e-001) (79, 9.15703392028808590000e+000) (80, 9.09056854248046870000e+000) (81, 1.38125109672546390000e+000) (82, 9.70494151115417480000e-001) (83, 8.47657680511474610000e-001) (84, 1.29429793357849120000e+000) (85, 1.69208765029907230000e+000) (86, 1.32853114604949950000e+000) (87, 8.94545936584472660000e+000) (88, 1.86866089701652530000e-001) (89, 9.26929473876953130000e+000) (90, 8.92991638183593750000e+000) (91, 9.01702022552490230000e+000) (92, 9.36588478088378910000e+000) (93, 9.36159038543701170000e+000) (94, 8.65511226654052730000e+000) (95, 9.38597869873046870000e+000) (96, 8.87271213531494140000e+000) (97, 9.15809154510498050000e+000) (98, 4.46832060813903810000e-001) (99, 8.82829475402832030000e+000) (100, 6.29927814006805420000e-001) (0, 9.01496887207031250000e+000) (1, 1.04381775856018070000e+000) (2, 9.69013810157775880000e-001) (3, 1.52082312107086180000e+000) (4, 1.32331681251525880000e+000) (5, 7.20303595066070560000e-001) (6, 6.86077296733856200000e-001) (7, 7.90494203567504880000e-001) (8, 1.28026986122131350000e+000) (9, -8.60112488269805910000e-001) (10, -4.40519958734512330000e-001) (11, -3.48448663949966430000e-001) (12, 3.76548230648040770000e-001) (13, 5.76848387718200680000e-001) (14, 1.01291823387146000000e+000) (15, 3.92801940441131590000e-001) (16, 6.92262411117553710000e-001) (17, 8.74324226379394530000e+000) (18, 4.29227292537689210000e-001) (19, -7.23688066005706790000e-001) (20, 9.04182434082031250000e+000) (21, 9.45657825469970700000e+000) (22, 8.29571843147277830000e-001) (23, -8.63604396581649780000e-002) (24, 1.61319851875305180000e+000) (25, -5.72579443454742430000e-001) (26, 6.61657392978668210000e-001) (27, 8.80518913269042970000e+000) (28, 5.67606627941131590000e-001) (29, -7.15644180774688720000e-001) (30, 8.81175899505615230000e+000) (31, 9.67469120025634770000e+000) (32, 6.61580920219421390000e-001) (33, 1.34217187762260440000e-001) (34, 6.71803951263427730000e-001) (35, 5.59756636619567870000e-001) (36, 2.73022353649139400000e-001) (37, 1.33558309078216550000e+000) (38, 6.59677982330322270000e-001) (39, -9.39941823482513430000e-001) (40, -8.33898007869720460000e-001) (41, -5.53499221801757810000e-001) (42, 3.54024529457092290000e-001) (43, 1.05139541625976560000e+000) (44, 1.43222248554229740000e+000) (45, -5.65415084362030030000e-001) (46, 8.77751410007476810000e-003) (47, 9.31361579895019530000e+000) (48, 8.85994493961334230000e-001) (49, 9.50669956207275390000e+000) (50, 8.85367584228515620000e+000) (51, 8.99231147766113280000e+000) (52, -8.78667771816253660000e-001) (53, 1.40340670943260190000e-001) (54, 1.36507236957550050000e+000) (55, 5.14859318733215330000e-001) (56, -1.07553504407405850000e-001) (57, 9.55512332916259770000e+000) (58, 3.13642591238021850000e-001) (59, 9.38017749786376950000e+000) (60, 9.03195381164550780000e+000) (61, 9.01298236846923830000e+000) (62, -3.62581402063369750000e-001) (63, 8.78233909606933590000e+000) (64, 1.99843657016754150000e+000) (65, 6.88740909099578860000e-001) (66, -4.27691996097564700000e-001) (67, 4.83043521642684940000e-001) (68, 6.64462149143218990000e-001) (69, -4.34655338525772090000e-001) (70, -1.79432302713394170000e-001) (71, -1.02006517350673680000e-001) (72, 9.69620943069458010000e-001) (73, 4.04274761676788330000e-001) (74, 8.02144646644592290000e-001) (75, 2.87879735231399540000e-001) (76, -1.31460607051849370000e-001) (77, 9.07714080810546870000e+000) (78, 5.85940293967723850000e-002) (79, 9.12771129608154300000e+000) (80, 9.05111789703369140000e+000) (81, 1.22065353393554690000e+000) (82, 2.00854778289794920000e+000) (83, 2.13446092605590820000e+000) (84, 1.71647059917449950000e+000) (85, 7.55843818187713620000e-001) (86, -7.99929723143577580000e-002) (87, 8.72359752655029300000e+000) (88, 4.91165757179260250000e-001) (89, 9.19017028808593750000e+000) (90, 9.50557804107666020000e+000) (91, 9.29557323455810550000e+000) (92, 8.67841053009033200000e+000) (93, 8.76166915893554690000e+000) (94, 8.81778335571289060000e+000) (95, 9.60188007354736330000e+000) (96, 8.75839996337890620000e+000) (97, 8.89075469970703120000e+000) (98, -3.18952769041061400000e-001) (99, 9.56919193267822270000e+000) (100, -7.60273933410644530000e-001) (0, 8.81634140014648440000e+000) (1, 6.52706980705261230000e-001) (2, 3.45949649810791020000e-001) (3, 3.06357353925704960000e-001) (4, 6.05484902858734130000e-001) (5, 7.87544488906860350000e-001) (6, 9.81365323066711430000e-001) (7, 7.55306482315063480000e-001) (8, 1.42377662658691410000e+000) (9, -6.86909556388854980000e-001) (10, -6.79699063301086430000e-001) (11, -5.45774221420288090000e-001) (12, 1.00292012095451350000e-001) (13, 7.73267626762390140000e-001) (14, 1.24221205711364750000e-001) (15, 5.90406894683837890000e-001) (16, 5.83404481410980220000e-001) (17, 8.74881839752197270000e+000) (18, 1.04058969020843510000e+000) (19, -2.00691074132919310000e-001) (20, 9.50746917724609370000e+000) (21, 9.67427444458007810000e+000) (22, 7.60929524898529050000e-001) (23, -1.62100136280059810000e-001) (24, 2.99515962600708010000e-001) (25, -2.23543226718902590000e-001) (26, 6.13144159317016600000e-001) (27, 9.23295402526855470000e+000) (28, 5.27291417121887210000e-001) (29, -4.49876114726066590000e-003) (30, 9.57912635803222660000e+000) (31, 9.18994617462158200000e+000) (32, -1.26873441040515900000e-002) (33, 9.00464057922363280000e-002) (34, 2.11565718054771420000e-001) (35, -3.47086906433105470000e-001) (36, 3.21515619754791260000e-001) (37, 9.66144323348999020000e-001) (38, 4.88834887742996220000e-001) (39, -1.01537406444549560000e-001) (40, -4.85315062105655670000e-002) (41, 9.50328111648559570000e-001) (42, 4.51218307018280030000e-001) (43, 1.17364302277565000000e-001) (44, -3.56296241283416750000e-001) (45, -2.37682461738586430000e-002) (46, -1.26482546329498290000e-002) (47, 8.87312889099121090000e+000) (48, 1.32654583454132080000e+000) (49, 8.89931106567382810000e+000) (50, 9.59303474426269530000e+000) (51, 9.46833992004394530000e+000) (52, -5.83333373069763180000e-001) (53, -1.52806460857391360000e-001) (54, -2.24860668182373050000e-001) (55, -3.67050743103027340000e+000) (56, -2.65660077333450320000e-001) (57, 8.98574256896972660000e+000) (58, 3.01723003387451170000e-001) (59, 9.66286563873291020000e+000) (60, 9.49990558624267580000e+000) (61, 8.96048927307128910000e+000) (62, -4.62740182876586910000e-001) (63, 8.74551773071289060000e+000) (64, 4.57091510295867920000e-001) (65, -3.48945677280426030000e-001) (66, -9.97048854827880860000e-001) (67, 1.90231144428253170000e-001) (68, 4.12189275026321410000e-001) (69, -3.12599509954452510000e-001) (70, -3.31731587648391720000e-001) (71, -1.22400045394897460000e-001) (72, -1.10097154974937440000e-001) (73, 7.41669178009033200000e-001) (74, -9.18402969837188720000e-002) (75, 6.67896747589111330000e-001) (76, -5.47321915626525880000e-001) (77, 8.98699188232421870000e+000) (78, -1.56393460929393770000e-002) (79, 9.58870887756347660000e+000) (80, 9.25061130523681640000e+000) (81, 3.67904484272003170000e-001) (82, 9.81974184513092040000e-001) (83, 6.68810009956359860000e-001) (84, 3.75835448503494260000e-001) (85, 1.01181006431579590000e+000) (86, -1.92015826702117920000e-001) (87, 9.19501018524169920000e+000) (88, 2.15804696083068850000e-001) (89, 9.09771442413330080000e+000) (90, 9.15482234954833980000e+000) (91, 9.69257259368896480000e+000) (92, 9.19638824462890620000e+000) (93, 9.67728614807128910000e+000) (94, 8.95174026489257810000e+000) (95, 9.06884002685546870000e+000) (96, 8.84524822235107420000e+000) (97, 8.90876483917236330000e+000) (98, 3.62099766731262210000e-001) (99, 8.98003768920898440000e+000) (100, -1.80902969837188720000e+000) (0, 9.48375415802001950000e+000) (1, 6.77742958068847660000e-001) (2, -9.20198023319244380000e-001) (3, 7.35738754272460940000e-001) (4, 7.58011460304260250000e-001) (5, 1.80979117751121520000e-001) (6, 1.82357057929039000000e-001) (7, 4.34395730495452880000e-001) (8, 5.48900067806243900000e-001) (9, 7.46890962123870850000e-001) (10, -2.18880146741867070000e-001) (11, 5.50538420677185060000e-001) (12, -1.09859257936477660000e-001) (13, -3.76605570316314700000e-001) (14, -2.47559666633605960000e+000) (15, -3.75964641571044920000e-001) (16, 8.07583689689636230000e-001) (17, 9.36437892913818360000e+000) (18, 3.48317265510559080000e-001) (19, 1.21459931135177610000e-001) (20, 8.75154209136962890000e+000) (21, 9.19071578979492190000e+000) (22, -7.60351717472076420000e-001) (23, -4.71502155065536500000e-001) (24, 3.23109835386276250000e-001) (25, -6.65794461965560910000e-002) (26, 3.38798850774765010000e-001) (27, 9.52794742584228520000e+000) (28, 4.81697291135787960000e-001) (29, -1.89012259244918820000e-001) (30, 8.77932739257812500000e+000) (31, 9.52217864990234370000e+000) (32, -3.11083585023880000000e-001) (33, -7.36023485660552980000e-002) (34, -4.11340713500976560000e-001) (35, -1.00682532787323000000e+000) (36, 5.16448020935058590000e-001) (37, 8.95777761936187740000e-001) (38, -3.41326817870140080000e-002) (39, 2.67979264259338380000e-001) (40, 2.48699523508548740000e-002) (41, 2.07877278327941890000e-001) (42, -1.62840175628662110000e+000) (43, -2.96714448928833010000e+000) (44, -4.33193969726562500000e+000) (45, -6.58838093280792240000e-001) (46, -4.27213042974472050000e-001) (47, 8.94013881683349610000e+000) (48, 4.17474895715713500000e-001) (49, 8.99445915222167970000e+000) (50, 9.24215126037597660000e+000) (51, 9.22148036956787110000e+000) (52, 2.27728039026260380000e-001) (53, -6.44079074263572690000e-002) (54, 2.60812975466251370000e-002) (55, -2.34374344348907470000e-001) (56, -7.20027267932891850000e-001) (57, 9.28163337707519530000e+000) (58, -1.44933134317398070000e-001) (59, 9.57540893554687500000e+000) (60, 8.87880134582519530000e+000) (61, 8.79128074645996090000e+000) (62, 3.25151264667510990000e-001) (63, 9.06582832336425780000e+000) (64, -1.65255755186080930000e-001) (65, -1.78920626640319820000e-001) (66, -2.20007681846618650000e+000) (67, 6.34048879146575930000e-002) (68, -9.13530588150024410000e-004) (69, 7.69900858402252200000e-001) (70, 1.83567166328430180000e-001) (71, 6.01397216320037840000e-001) (72, -5.03141224384307860000e-001) (73, 3.74610364437103270000e-001) (74, -2.09192872047424320000e+000) (75, 1.57491251826286320000e-001) (76, -6.86538040637969970000e-001) (77, 9.56425666809082030000e+000) (78, 9.07510295510292050000e-002) (79, 9.25115680694580080000e+000) (80, 8.84874057769775390000e+000) (81, -1.17954216897487640000e-001) (82, 2.24345773458480830000e-002) (83, -4.66590225696563720000e-002) (84, 3.09704631567001340000e-001) (85, 7.32337117195129390000e-001) (86, -1.56322345137596130000e-002) (87, 8.77740383148193360000e+000) (88, -1.46397501230239870000e-001) (89, 9.26576995849609370000e+000) (90, 9.06284713745117190000e+000) (91, 8.72949409484863280000e+000) (92, 8.98449230194091800000e+000) (93, 9.09242725372314450000e+000) (94, 8.66180992126464840000e+000) (95, 9.56380748748779300000e+000) (96, 9.63261318206787110000e+000) (97, 9.41206455230712890000e+000) (98, -4.15073707699775700000e-002) (99, 9.37376880645751950000e+000) (100, -7.19167351722717290000e-001) (0, 8.72366142272949220000e+000) (1, -1.86467379331588750000e-001) (2, -6.76586329936981200000e-001) (3, 5.14326393604278560000e-001) (4, -4.79077920317649840000e-002) (5, 3.15565198659896850000e-001) (6, -3.22588592767715450000e-001) (7, 7.87279456853866580000e-002) (8, 7.25726604461669920000e-001) (9, 5.20805157721042630000e-002) (10, 3.41982543468475340000e-002) (11, 1.82095572352409360000e-001) (12, -3.93947154283523560000e-001) (13, 2.91503906250000000000e-001) (14, -9.52732712030410770000e-002) (15, 1.05310291051864620000e-001) (16, 6.81121528148651120000e-001) (17, 9.29698371887207030000e+000) (18, 7.49056935310363770000e-001) (19, 6.48156464099884030000e-001) (20, 8.74955558776855470000e+000) (21, 9.66414737701416020000e+000) (22, -8.55111539363861080000e-001) (23, -3.79006117582321170000e-001) (24, 7.33860909938812260000e-001) (25, -5.84813579916954040000e-002) (26, -4.21813949942588810000e-002) (27, 9.07912731170654300000e+000) (28, 3.71093451976776120000e-001) (29, 5.77208139002323150000e-002) (30, 9.14802837371826170000e+000) (31, 9.12207031250000000000e+000) (32, -1.29450941085815430000e+000) (33, -6.83613717555999760000e-001) (34, 3.41415762901306150000e-001) (35, 1.63842931389808650000e-001) (36, 2.62399107217788700000e-001) (37, 6.12055659294128420000e-001) (38, 8.20650100708007810000e-001) (39, 5.06476223468780520000e-001) (40, -1.55708938837051390000e-002) (41, 7.30556964874267580000e-001) (42, 7.02791929244995120000e-001) (43, -4.09149199724197390000e-001) (44, -6.12660527229309080000e-001) (45, -2.60786795616149900000e+000) (46, 5.05330786108970640000e-002) (47, 9.54627799987792970000e+000) (48, 6.81149125099182130000e-001) (49, 9.44093894958496090000e+000) (50, 9.02503204345703120000e+000) (51, 8.78615283966064450000e+000) (52, 7.06802546977996830000e-001) (53, -9.01854515075683590000e-001) (54, 6.22655749320983890000e-001) (55, -1.57734465599060060000e+000) (56, -4.51901197433471680000e-001) (57, 9.35264968872070310000e+000) (58, -2.98342645168304440000e-001) (59, 8.77243709564208980000e+000) (60, 9.13770961761474610000e+000) (61, 9.43892002105712890000e+000) (62, 3.87677639722824100000e-001) (63, 8.80740070343017580000e+000) (64, 7.56870687007904050000e-001) (65, -4.96536582708358760000e-001) (66, -5.64827062189579010000e-002) (67, -1.59867167472839360000e-001) (68, -1.28268718719482420000e-001) (69, 6.62128984928131100000e-001) (70, 3.43196272850036620000e-001) (71, 1.43611282110214230000e-002) (72, 6.77407085895538330000e-001) (73, -6.58980727195739750000e-001) (74, 5.77042639255523680000e-001) (75, -4.44136895239353180000e-002) (76, -1.59920156002044680000e-001) (77, 8.92517375946044920000e+000) (78, -4.51298117637634280000e-001) (79, 8.65745162963867190000e+000) (80, 9.34755420684814450000e+000) (81, -4.32490929961204530000e-002) (82, 3.10410708189010620000e-001) (83, 2.93897688388824460000e-002) (84, 2.24236115813255310000e-001) (85, 2.69572675228118900000e-001) (86, -3.48965913057327270000e-001) (87, 9.33201122283935550000e+000) (88, -1.47908300161361690000e-001) (89, 9.49775886535644530000e+000) (90, 8.86127185821533200000e+000) (91, 9.58967018127441410000e+000) (92, 9.34733009338378910000e+000) (93, 9.57185173034667970000e+000) (94, 9.65475749969482420000e+000) (95, 8.86508464813232420000e+000) (96, 9.24657344818115230000e+000) (97, 9.66892242431640620000e+000) (98, -1.32750034332275390000e-001) (99, 9.48929786682128910000e+000) (100, -1.12062323093414310000e+000) (0, 9.20933532714843750000e+000) (1, 1.86228489875793460000e+000) (2, 1.03403222560882570000e+000) (3, 8.47889125347137450000e-001) (4, 1.04606842994689940000e+000) (5, 8.50478947162628170000e-001) (6, 6.64509594440460210000e-001) (7, 3.48877787590026860000e-001) (8, 1.07102692127227780000e+000) (9, -4.28230762481689450000e-001) (10, -2.38896518945693970000e-001) (11, 5.02769351005554200000e-001) (12, 7.47160494327545170000e-001) (13, 1.13461744785308840000e+000) (14, 1.84503746032714840000e+000) (15, 1.27600932121276860000e+000) (16, 6.78071618080139160000e-001) (17, 9.33008861541748050000e+000) (18, 1.07371890544891360000e+000) (19, 1.92107707262039180000e-002) (20, 9.51653861999511720000e+000) (21, 8.96231555938720700000e+000) (22, 1.58745861053466800000e+000) (23, 3.05452674627304080000e-001) (24, 1.38052093982696530000e+000) (25, -9.68791842460632320000e-002) (26, 1.01768732070922850000e-001) (27, 8.78669738769531250000e+000) (28, 7.80584156513214110000e-001) (29, 3.36060404777526860000e-001) (30, 9.29881000518798830000e+000) (31, 9.23096656799316410000e+000) (32, 6.93184554576873780000e-001) (33, 3.05024653673172000000e-001) (34, 6.85717582702636720000e-001) (35, 1.48684352636337280000e-001) (36, 1.08814013004302980000e+000) (37, 1.13701188564300540000e+000) (38, 2.40366339683532710000e-001) (39, -4.67007666826248170000e-001) (40, 2.08224460482597350000e-001) (41, 4.19068545103073120000e-001) (42, 1.17833256721496580000e+000) (43, -1.61350667476654050000e-001) (44, 1.88049599528312680000e-001) (45, -9.32275801897048950000e-002) (46, -2.85244733095169070000e-001) (47, 8.84877300262451170000e+000) (48, 2.37866669893264770000e-001) (49, 8.77525711059570310000e+000) (50, 8.81842422485351560000e+000) (51, 8.84005641937255860000e+000) (52, -2.30596318840980530000e-001) (53, -2.95366317033767700000e-001) (54, 8.20111572742462160000e-001) (55, 2.11201071739196780000e-001) (56, -2.81364843249320980000e-003) (57, 8.66786766052246090000e+000) (58, 3.01353216171264650000e-001) (59, 8.84899711608886720000e+000) (60, 8.88239002227783200000e+000) (61, 9.46712207794189450000e+000) (62, -1.41537442803382870000e-001) (63, 9.48631763458251950000e+000) (64, 2.07514166831970210000e+000) (65, -7.05911099910736080000e-001) (66, 1.00302509963512420000e-002) (67, -5.25493800640106200000e-001) (68, -2.02523142099380490000e-001) (69, -2.07522407174110410000e-001) (70, 4.76234436035156250000e-001) (71, 9.77261215448379520000e-002) (72, 3.89496609568595890000e-003) (73, 1.48857760429382320000e+000) (74, 1.11830556392669680000e+000) (75, 1.33279669284820560000e+000) (76, 1.69727846980094910000e-001) (77, 8.64812660217285160000e+000) (78, 3.41445766389369960000e-002) (79, 9.22923660278320310000e+000) (80, 9.00791931152343750000e+000) (81, 2.10065126419067380000e+000) (82, 2.45788365602493290000e-001) (83, 6.66085958480834960000e-001) (84, 7.95716464519500730000e-001) (85, 9.06855821609497070000e-001) (86, -3.25175315141677860000e-001) (87, 9.55319976806640620000e+000) (88, 1.45924881100654600000e-001) (89, 8.69997882843017580000e+000) (90, 9.41866683959960940000e+000) (91, 8.66056060791015620000e+000) (92, 8.97398090362548830000e+000) (93, 8.79240226745605470000e+000) (94, 9.30656623840332030000e+000) (95, 8.99564456939697270000e+000) (96, 9.63988780975341800000e+000) (97, 9.38017749786376950000e+000) (98, 2.58698582649230960000e-001) (99, 8.72004032135009770000e+000) (100, -9.15718793869018550000e-001) (0, 8.86277770996093750000e+000) (1, 1.81103801727294920000e+000) (2, 4.80878442525863650000e-001) (3, 1.76197385787963870000e+000) (4, 1.61125636100769040000e+000) (5, 8.35839450359344480000e-001) (6, 1.03558897972106930000e+000) (7, 3.47940504550933840000e-001) (8, 2.48562514781951900000e-001) (9, -6.53324544429779050000e-001) (10, -1.80229768157005310000e-002) (11, -6.02529823780059810000e-001) (12, -1.62202405929565430000e+000) (13, -4.25208359956741330000e-001) (14, 4.69706565141677860000e-001) (15, -5.43273352086544040000e-002) (16, 2.49313533306121830000e-001) (17, 8.92103958129882810000e+000) (18, 3.55663865804672240000e-001) (19, 5.52687346935272220000e-002) (20, 9.04445266723632810000e+000) (21, 9.01371955871582030000e+000) (22, -2.09376141428947450000e-002) (23, -2.59931355714797970000e-001) (24, 1.57712626457214360000e+000) (25, -5.21437168121337890000e-001) (26, 7.71392703056335450000e-001) (27, 8.82819843292236330000e+000) (28, 8.58610987663269040000e-001) (29, -3.08593958616256710000e-001) (30, 9.64748287200927730000e+000) (31, 9.28265857696533200000e+000) (32, -4.97445791959762570000e-001) (33, -2.90047973394393920000e-001) (34, -1.21030054986476900000e-001) (35, -1.48252084851264950000e-001) (36, 1.96211516857147220000e-001) (37, 6.39921605587005620000e-001) (38, 1.14812433719635010000e+000) (39, -2.70361751317977910000e-001) (40, 6.78311288356781010000e-002) (41, 3.93307417631149290000e-001) (42, -6.29204094409942630000e-001) (43, -9.50769707560539250000e-003) (44, 4.35800760984420780000e-001) (45, -8.07387650012969970000e-001) (46, 5.26127144694328310000e-002) (47, 8.69844055175781250000e+000) (48, 1.00307929515838620000e+000) (49, 9.44747734069824220000e+000) (50, 9.36107826232910160000e+000) (51, 9.34172153472900390000e+000) (52, -6.41499102115631100000e-001) (53, -3.16270142793655400000e-001) (54, 4.44550365209579470000e-001) (55, 4.46429580450057980000e-001) (56, -6.97513520717620850000e-001) (57, 9.37889575958251950000e+000) (58, 6.12477004528045650000e-001) (59, 9.31582736968994140000e+000) (60, 9.23910617828369140000e+000) (61, 9.00727748870849610000e+000) (62, -2.35302239656448360000e-001) (63, 9.22305107116699220000e+000) (64, 1.03578674793243410000e+000) (65, 1.77071869373321530000e-001) (66, 2.33372837305068970000e-001) (67, 9.25833463668823240000e-001) (68, 2.96332329511642460000e-001) (69, -7.16937959194183350000e-001) (70, -1.48390501737594600000e-001) (71, -8.82268965244293210000e-001) (72, -1.21704483032226560000e+000) (73, -3.47526162862777710000e-001) (74, 5.90171635150909420000e-001) (75, -5.18273115158081050000e-001) (76, -6.66427791118621830000e-001) (77, 8.80688762664794920000e+000) (78, 2.43996828794479370000e-001) (79, 8.91280269622802730000e+000) (80, 9.54006099700927730000e+000) (81, 1.14449048042297360000e+000) (82, 9.55476760864257810000e-001) (83, 1.13288938999176030000e+000) (84, 1.14958596229553220000e+000) (85, 1.00613772869110110000e+000) (86, -1.92066803574562070000e-001) (87, 9.05403423309326170000e+000) (88, 8.92181277275085450000e-001) (89, 8.80156803131103520000e+000) (90, 9.46942901611328120000e+000) (91, 8.70029926300048830000e+000) (92, 9.22772979736328120000e+000) (93, 8.79060745239257810000e+000) (94, 9.27474308013916020000e+000) (95, 9.30461120605468750000e+000) (96, 9.34143257141113280000e+000) (97, 9.30848884582519530000e+000) (98, 7.08455264568328860000e-001) (99, 9.16136074066162110000e+000) (100, -4.44435119628906250000e-001) (0, 9.32117938995361330000e+000) (1, 5.18434405326843260000e-001) (2, 5.54158985614776610000e-001) (3, 8.07697325944900510000e-002) (4, -2.29029446840286250000e-001) (5, 1.85278281569480900000e-001) (6, 1.06590032577514650000e+000) (7, 8.10196638107299800000e-001) (8, 6.92583799362182620000e-001) (9, 6.04088962078094480000e-001) (10, -3.10791492462158200000e-001) (11, 1.68825268745422360000e-001) (12, 9.44364607334136960000e-001) (13, 3.58327120542526250000e-001) (14, 5.54327130317687990000e-001) (15, 6.76170110702514650000e-001) (16, 4.87481445074081420000e-001) (17, 8.80881023406982420000e+000) (18, 7.17292129993438720000e-001) (19, 2.98391640186309810000e-001) (20, 9.11591720581054690000e+000) (21, 9.03666496276855470000e+000) (22, 7.03989624977111820000e-001) (23, -3.11793297529220580000e-001) (24, 8.20542335510253910000e-001) (25, -4.01285231113433840000e-001) (26, 7.35333681106567380000e-001) (27, 9.38556194305419920000e+000) (28, 9.29988622665405270000e-001) (29, 2.72850096225738530000e-001) (30, 9.03355693817138670000e+000) (31, 8.92482089996337890000e+000) (32, 4.23192977905273440000e-001) (33, -1.66840218007564540000e-002) (34, 1.73215270042419430000e-001) (35, -4.29594069719314580000e-001) (36, 9.77706670761108400000e-001) (37, 8.14522981643676760000e-001) (38, 1.12281596660614010000e+000) (39, 4.59246970713138580000e-002) (40, 3.30086231231689450000e-001) (41, -9.23038423061370850000e-002) (42, 4.01311635971069340000e-001) (43, 8.41945171356201170000e-001) (44, 8.90084505081176760000e-001) (45, -1.39972120523452760000e-001) (46, -3.25467199087142940000e-001) (47, 9.03935718536376950000e+000) (48, 6.05383634567260740000e-001) (49, 9.39059352874755860000e+000) (50, 9.57332611083984380000e+000) (51, 9.47173690795898440000e+000) (52, 2.71664381027221680000e-001) (53, 4.62047606706619260000e-002) (54, 6.53613656759262080000e-002) (55, -2.90963798761367800000e-004) (56, -3.69916528463363650000e-001) (57, 9.52970981597900390000e+000) (58, -8.43599617481231690000e-001) (59, 8.94305515289306640000e+000) (60, 8.88255023956298830000e+000) (61, 8.99000453948974610000e+000) (62, -3.62259149551391600000e-001) (63, 8.70779800415039060000e+000) (64, 9.00339603424072270000e-001) (65, 7.17284977436065670000e-001) (66, -6.74193382263183590000e-001) (67, -4.91722464561462400000e-001) (68, -7.08136498928070070000e-001) (69, 4.00782138109207150000e-001) (70, -3.65207433700561520000e-001) (71, -2.85858869552612300000e-001) (72, 1.29475677013397220000e+000) (73, 7.58755564689636230000e-001) (74, 6.96199655532836910000e-001) (75, 1.05942142009735110000e+000) (76, -5.63641190528869630000e-001) (77, 9.38514518737792970000e+000) (78, 3.77649068832397460000e-001) (79, 9.46068000793457030000e+000) (80, 9.58473491668701170000e+000) (81, 5.73363125324249270000e-001) (82, -2.08102732896804810000e-001) (83, 2.98497706651687620000e-001) (84, 7.26454555988311770000e-001) (85, 5.93525350093841550000e-001) (86, -5.75370430946350100000e-001) (87, 8.85890007019042970000e+000) (88, -1.85226112604141240000e-001) (89, 9.10050296783447270000e+000) (90, 9.67911338806152340000e+000) (91, 8.97407722473144530000e+000) (92, 9.30701446533203120000e+000) (93, 9.19956016540527340000e+000) (94, 9.18760681152343750000e+000) (95, 8.98301792144775390000e+000) (96, 9.32278156280517580000e+000) (97, 9.48593330383300780000e+000) (98, -1.01134568452835080000e-001) (99, 9.02461528778076170000e+000) (100, -1.49552285671234130000e-001) (0, 9.49202251434326170000e+000) (1, 6.15796625614166260000e-001) (2, 5.10448276996612550000e-001) (3, 2.06664919853210450000e+000) (4, 1.76675248146057130000e+000) (5, 8.88575017452239990000e-001) (6, 5.17982423305511470000e-001) (7, 5.77814340591430660000e-001) (8, 7.72532522678375240000e-001) (9, -1.42243742942810060000e+000) (10, -8.32258105278015140000e-001) (11, -1.61379063129425050000e+000) (12, -5.13390481472015380000e-001) (13, 8.83675634860992430000e-001) (14, 2.59750753641128540000e-001) (15, 1.25056862831115720000e-001) (16, 5.40638327598571780000e-001) (17, 8.68671131134033200000e+000) (18, 9.66417372226715090000e-001) (19, -9.20900344848632810000e-001) (20, 9.67610073089599610000e+000) (21, 8.72205924987792970000e+000) (22, 6.09929382801055910000e-001) (23, 1.22752144932746890000e-001) (24, 4.65944379568099980000e-001) (25, 1.06350615620613100000e-001) (26, 3.83607566356658940000e-001) (27, 8.72795581817626950000e+000) (28, 7.79454708099365230000e-001) (29, -1.36299002170562740000e+000) (30, 9.18844032287597660000e+000) (31, 9.09345245361328120000e+000) (32, 3.18461060523986820000e-001) (33, -4.15703028440475460000e-001) (34, 6.70562505722045900000e-001) (35, 4.20636385679245000000e-001) (36, 7.52535104751586910000e-001) (37, 7.85062909126281740000e-001) (38, 2.51671075820922850000e-001) (39, -1.31203508377075200000e+000) (40, -1.75912415981292720000e+000) (41, -3.46542418003082280000e-001) (42, 1.60044968128204350000e-001) (43, -4.82730567455291750000e-003) (44, -1.92065909504890440000e-003) (45, 4.51980620622634890000e-001) (46, 6.03328466415405270000e-001) (47, 9.65956497192382810000e+000) (48, 1.06185364723205570000e+000) (49, 9.14597797393798830000e+000) (50, 8.68949890136718750000e+000) (51, 9.33771514892578120000e+000) (52, -1.52925038337707520000e+000) (53, -4.45058077573776250000e-001) (54, 4.39995497465133670000e-001) (55, 2.64663249254226680000e-001) (56, -3.02130013704299930000e-001) (57, 9.62296676635742190000e+000) (58, 2.34913438558578490000e-001) (59, 9.31499385833740230000e+000) (60, 9.01567459106445310000e+000) (61, 8.99862480163574220000e+000) (62, -1.34648585319519040000e+000) (63, 9.64722633361816410000e+000) (64, 3.96786749362945560000e-001) (65, -3.15549403429031370000e-001) (66, 2.28391289710998540000e-001) (67, 4.10884082317352290000e-001) (68, 6.36335313320159910000e-001) (69, -1.76226484775543210000e+000) (70, -1.02293825149536130000e+000) (71, -1.16263151168823240000e+000) (72, 2.98650771379470830000e-001) (73, 1.94022208452224730000e-001) (74, 7.13120996952056880000e-001) (75, 8.98691415786743160000e-002) (76, -3.84875506162643430000e-001) (77, 9.59389972686767580000e+000) (78, 2.20547601580619810000e-001) (79, 9.26862239837646480000e+000) (80, 9.42135810852050780000e+000) (81, 6.55919611454010010000e-001) (82, 1.90827238559722900000e+000) (83, 1.59055757522583010000e+000) (84, 2.11705923080444340000e+000) (85, 5.48684932291507720000e-002) (86, 4.56136137247085570000e-001) (87, 9.24868869781494140000e+000) (88, 2.44935423135757450000e-001) (89, 9.31352043151855470000e+000) (90, 9.27804374694824220000e+000) (91, 9.42180728912353520000e+000) (92, 8.77964782714843750000e+000) (93, 9.01035404205322270000e+000) (94, 9.36444282531738280000e+000) (95, 9.41075134277343750000e+000) (96, 9.48170280456542970000e+000) (97, 9.05932235717773440000e+000) (98, -2.33628973364830020000e-002) (99, 8.73587131500244140000e+000) (100, -7.34533071517944340000e-001) (0, 8.67261028289794920000e+000) (1, 9.73570585250854490000e-001) (2, 5.29918670654296880000e-002) (3, 3.48004370927810670000e-001) (4, 5.97907662391662600000e-001) (5, 6.70648276805877690000e-001) (6, 3.54375481605529790000e-001) (7, 2.69876778125762940000e-001) (8, 5.94385683536529540000e-001) (9, -1.08169138431549070000e-001) (10, -9.72410738468170170000e-002) (11, -2.90741384029388430000e-001) (12, 4.63447719812393190000e-001) (13, -1.38976371288299560000e+000) (14, -7.98086941242218020000e-001) (15, -1.13809788227081300000e+000) (16, -6.07586205005645750000e-002) (17, 9.63783645629882810000e+000) (18, 2.03571334481239320000e-001) (19, -2.09309756755828860000e-001) (20, 9.43103694915771480000e+000) (21, 9.12107753753662110000e+000) (22, 1.41585052013397220000e-001) (23, 4.97227162122726440000e-001) (24, 1.77218413352966310000e+000) (25, 3.78229409456253050000e-001) (26, 7.85060286521911620000e-001) (27, 9.28124809265136720000e+000) (28, 3.80246907472610470000e-001) (29, -3.07085394859313960000e-001) (30, 8.86752033233642580000e+000) (31, 8.91219425201416020000e+000) (32, -7.50533193349838260000e-002) (33, -2.00295478105545040000e-001) (34, 1.03425049781799320000e+000) (35, 1.58162042498588560000e-001) (36, -1.59595817327499390000e-001) (37, 8.02755892276763920000e-001) (38, 3.97071629762649540000e-001) (39, 1.05713151395320890000e-001) (40, -5.82241773605346680000e-001) (41, -4.08700138330459590000e-001) (42, -9.93906557559967040000e-001) (43, 2.49841541051864620000e-001) (44, -7.94969499111175540000e-001) (45, 1.20845422148704530000e-001) (46, -1.91754966974258420000e-001) (47, 9.32310199737548830000e+000) (48, 4.94302570819854740000e-001) (49, 9.34108066558837890000e+000) (50, 9.37216567993164060000e+000) (51, 9.13162040710449220000e+000) (52, 4.42944705486297610000e-001) (53, 8.10636132955551150000e-002) (54, 7.66936779022216800000e-001) (55, 6.58692240715026860000e-001) (56, 2.26812109351158140000e-001) (57, 9.08838939666748050000e+000) (58, 4.19922679662704470000e-001) (59, 9.32524967193603520000e+000) (60, 8.64517784118652340000e+000) (61, 8.89517688751220700000e+000) (62, -4.75172519683837890000e-001) (63, 9.48606109619140620000e+000) (64, 1.03756856918334960000e+000) (65, 7.93687999248504640000e-001) (66, -2.87084817886352540000e-001) (67, -5.19386865198612210000e-002) (68, 6.47489130496978760000e-001) (69, -5.13468742370605470000e-001) (70, -2.73820519447326660000e-001) (71, -5.08277058601379390000e-001) (72, -1.24653410911560060000e+000) (73, -1.69209611415863040000e+000) (74, -8.80127370357513430000e-001) (75, -9.13223445415496830000e-001) (76, 2.93982714414596560000e-001) (77, 9.35399532318115230000e+000) (78, -4.29550796747207640000e-001) (79, 8.79996490478515620000e+000) (80, 9.52769088745117190000e+000) (81, 1.33140838146209720000e+000) (82, 6.88472747802734380000e-001) (83, 4.53920006752014160000e-001) (84, 3.37268590927124020000e-001) (85, 1.46586045622825620000e-001) (86, -5.31902670860290530000e-001) (87, 8.93254375457763670000e+000) (88, -4.55252557992935180000e-001) (89, 9.10550212860107420000e+000) (90, 9.39937400817871090000e+000) (91, 8.91049575805664060000e+000) (92, 8.89710044860839840000e+000) (93, 9.55787944793701170000e+000) (94, 9.29627895355224610000e+000) (95, 9.39761161804199220000e+000) (96, 8.73359584808349610000e+000) (97, 9.06095695495605470000e+000) (98, -1.30027160048484800000e-002) (99, 8.91546344757080080000e+000) (100, 3.04072916507720950000e-001) (0, 8.81018829345703120000e+000) (1, 1.41891336441040040000e+000) (2, 4.72438991069793700000e-001) (3, 1.47384393215179440000e+000) (4, 1.24105393886566160000e+000) (5, 3.59031677246093750000e-001) (6, 7.86187410354614260000e-001) (7, 1.35894536972045900000e+000) (8, 4.20222073793411250000e-001) (9, -1.16048023104667660000e-001) (10, -7.50227868556976320000e-001) (11, -1.88762903213500980000e-001) (12, 5.31010031700134280000e-001) (13, 1.99253827333450320000e-001) (14, 1.15206956863403320000e+000) (15, 5.77338486909866330000e-002) (16, 1.26303815841674800000e+000) (17, 8.92017364501953130000e+000) (18, 5.41392147541046140000e-001) (19, -1.76264524459838870000e-001) (20, 9.41238498687744140000e+000) (21, 8.71779632568359370000e+000) (22, 1.11684978008270260000e+000) (23, 4.67381268739700320000e-001) (24, 1.30684459209442140000e+000) (25, -1.65517657995224000000e-001) (26, 1.13430500030517580000e+000) (27, 9.10389995574951170000e+000) (28, 1.18915998935699460000e+000) (29, -1.40916571021080020000e-001) (30, 8.69571590423583980000e+000) (31, 9.32489681243896480000e+000) (32, 3.97680908441543580000e-001) (33, 9.32894825935363770000e-001) (34, 1.45270228385925290000e-001) (35, 8.11824977397918700000e-001) (36, 8.58357369899749760000e-001) (37, 4.61370497941970830000e-001) (38, 6.96147561073303220000e-001) (39, -2.65900254249572750000e-001) (40, -4.68982636928558350000e-001) (41, -4.58440542221069340000e-001) (42, 7.56886124610900880000e-001) (43, 4.41260367631912230000e-001) (44, 1.55538558959960940000e+000) (45, 3.52750927209854130000e-001) (46, 5.07345087826251980000e-002) (47, 9.30663013458251950000e+000) (48, 8.19208383560180660000e-001) (49, 9.35857772827148440000e+000) (50, 9.55348873138427730000e+000) (51, 9.02198791503906250000e+000) (52, -7.00907409191131590000e-001) (53, 3.47557216882705690000e-001) (54, 1.89562499523162840000e-001) (55, 2.64939993619918820000e-001) (56, -2.41915695369243620000e-002) (57, 9.36626911163330080000e+000) (58, 6.89669728279113770000e-001) (59, 8.82409667968750000000e+000) (60, 8.86014938354492190000e+000) (61, 8.99775981903076170000e+000) (62, -9.35235738754272460000e-001) (63, 8.98599910736083980000e+000) (64, 2.08299326896667480000e+000) (65, 2.78658390045166020000e-001) (66, -4.67556454241275790000e-002) (67, -1.89317852258682250000e-001) (68, -2.13385254144668580000e-001) (69, -3.96043479442596440000e-001) (70, -3.07529449462890630000e-001) (71, -5.48427462577819820000e-001) (72, -8.12772661447525020000e-002) (73, -4.40476760268211360000e-002) (74, 1.19491648674011230000e+000) (75, 6.83902084827423100000e-001) (76, 2.62693971395492550000e-001) (77, 9.66606998443603520000e+000) (78, -2.08674192428588870000e+000) (79, 8.85438156127929690000e+000) (80, 9.25080394744873050000e+000) (81, 1.83635878562927250000e+000) (82, 1.06457054615020750000e+000) (83, 9.23275053501129150000e-001) (84, 8.17840099334716800000e-001) (85, 1.32492113113403320000e+000) (86, 2.02577598392963410000e-002) (87, 9.46965312957763670000e+000) (88, -1.89211976528167720000e+000) (89, 9.50064277648925780000e+000) (90, 8.73372364044189450000e+000) (91, 9.02349376678466800000e+000) (92, 9.40793037414550780000e+000) (93, 8.85547065734863280000e+000) (94, 8.75083732604980470000e+000) (95, 9.50362300872802730000e+000) (96, 9.44337463378906250000e+000) (97, 8.76182937622070310000e+000) (98, -1.82123148441314700000e+000) (99, 9.06832790374755860000e+000) (100, -3.78214955329895020000e-001) (0, 9.60252094268798830000e+000) (1, 5.03299474716186520000e-001) (2, 1.59621134400367740000e-001) (3, 1.35270684957504270000e-001) (4, 1.66869148612022400000e-001) (5, 2.44037449359893800000e-001) (6, 5.72744488716125490000e-001) (7, 1.44346952438354490000e+000) (8, 1.11440992355346680000e+000) (9, 6.19119465351104740000e-001) (10, 1.05835688114166260000e+000) (11, 7.15805530548095700000e-001) (12, 2.06979103386402130000e-002) (13, -3.03870826959609990000e-001) (14, 8.20755541324615480000e-001) (15, 4.95063066482543950000e-001) (16, -3.98793369531631470000e-001) (17, 9.04310703277587890000e+000) (18, 9.81478571891784670000e-001) (19, 1.33405804634094240000e+000) (20, 9.36665439605712890000e+000) (21, 8.81662940979003910000e+000) (22, -3.86616379022598270000e-001) (23, 4.96064573526382450000e-001) (24, 7.63842403888702390000e-001) (25, 6.95623278617858890000e-001) (26, 3.87321889400482180000e-001) (27, 9.14399051666259770000e+000) (28, 1.12476110458374020000e+000) (29, 1.29861390590667720000e+000) (30, 9.39437484741210940000e+000) (31, 8.80605411529541020000e+000) (32, -8.36432278156280520000e-002) (33, -2.48259276151657100000e-001) (34, 1.41931191086769100000e-001) (35, 8.32295775413513180000e-001) (36, 3.74372959136962890000e-001) (37, 1.50839698314666750000e+000) (38, 1.63142573833465580000e+000) (39, 6.19600176811218260000e-001) (40, 1.09412145614624020000e+000) (41, 2.18717604875564580000e-001) (42, 5.31318902969360350000e-001) (43, 4.21447187662124630000e-001) (44, 1.24129378795623780000e+000) (45, 1.55854359269142150000e-001) (46, 3.10423642396926880000e-001) (47, 9.24359321594238280000e+000) (48, 1.08656096458435060000e+000) (49, 8.87944221496582030000e+000) (50, 9.02237224578857420000e+000) (51, 9.69273281097412110000e+000) (52, 6.14889264106750490000e-001) (53, 4.66517180204391480000e-001) (54, -4.25572618842124940000e-002) (55, 3.25300663709640500000e-001) (56, -3.14751118421554570000e-001) (57, 9.32765293121337890000e+000) (58, 1.90088605880737300000e+000) (59, 9.33777999877929690000e+000) (60, 9.52547931671142580000e+000) (61, 9.13786983489990230000e+000) (62, 6.52063846588134770000e-001) (63, 8.90632915496826170000e+000) (64, 6.17066681385040280000e-001) (65, 7.71317958831787110000e-001) (66, 5.39134405553340910000e-002) (67, 2.33348989486694340000e+000) (68, 1.91158986091613770000e+000) (69, 6.04025244712829590000e-001) (70, 8.08453738689422610000e-001) (71, 1.28255832195281980000e+000) (72, -2.51614861190319060000e-002) (73, -4.50264513492584230000e-002) (74, 1.78852275013923650000e-001) (75, 5.21886467933654790000e-001) (76, 1.65987372398376460000e-001) (77, 9.29204845428466800000e+000) (78, 1.31434190273284910000e+000) (79, 9.28022289276123050000e+000) (80, 9.08531284332275390000e+000) (81, 7.55317866802215580000e-001) (82, -1.24919615685939790000e-001) (83, 1.35366827249526980000e-001) (84, 2.33430951833724980000e-001) (85, 6.26264929771423340000e-001) (86, 4.30664330720901490000e-001) (87, 9.31512260437011720000e+000) (88, 8.25271308422088620000e-001) (89, 9.06268692016601560000e+000) (90, 8.92318630218505860000e+000) (91, 9.11841678619384770000e+000) (92, 9.48711872100830080000e+000) (93, 9.38966369628906250000e+000) (94, 9.21747493743896480000e+000) (95, 9.21981430053710940000e+000) (96, 9.65344333648681640000e+000) (97, 8.76099586486816410000e+000) (98, 8.11971843242645260000e-001) (99, 9.58566379547119140000e+000) (100, -6.08191430568695070000e-001) (0, 9.04496574401855470000e+000) (1, 2.78395986557006840000e+000) (2, 5.40754608809947970000e-002) (3, 1.97864010930061340000e-001) (4, 7.44587421417236330000e-001) (5, 4.17941153049468990000e-001) (6, 8.09941291809082030000e-001) (7, 1.38870823383331300000e+000) (8, 1.04231131076812740000e+000) (9, -1.71521246433258060000e-001) (10, -2.41672337055206300000e-001) (11, -5.28718233108520510000e-001) (12, 1.12741664052009580000e-001) (13, -8.89043271541595460000e-001) (14, 2.06757664680480960000e+000) (15, -9.92138683795928960000e-001) (16, 1.08282220363616940000e+000) (17, 8.94529914855957030000e+000) (18, 1.25721907615661620000e+000) (19, 1.36147774755954740000e-002) (20, 9.19760513305664060000e+000) (21, 9.43395328521728520000e+000) (22, -1.90669620037078860000e+000) (23, 3.90226058661937710000e-002) (24, 3.53100967407226560000e+000) (25, -5.04775166511535640000e-001) (26, 3.02507609128952030000e-001) (27, 8.90334892272949220000e+000) (28, 6.32172703742980960000e-001) (29, -5.13399720191955570000e-001) (30, 8.84678649902343750000e+000) (31, 9.04291439056396480000e+000) (32, -1.98876893520355220000e+000) (33, -3.76221239566802980000e-001) (34, 2.06683468818664550000e+000) (35, 1.96287035942077640000e-001) (36, 1.04542326927185060000e+000) (37, 9.69179868698120120000e-001) (38, 3.85025501251220700000e-001) (39, -8.37363719940185550000e-001) (40, 1.71927362680435180000e-001) (41, 1.15844249725341800000e+000) (42, 2.12579667568206790000e-001) (43, 7.42405772209167480000e-001) (44, 4.34135496616363530000e-001) (45, -1.15382552146911620000e+000) (46, 8.35821628570556640000e-001) (47, 8.74022960662841800000e+000) (48, 1.01186656951904300000e+000) (49, 9.67719078063964840000e+000) (50, 9.58117771148681640000e+000) (51, 8.77477645874023440000e+000) (52, -3.20187747478485110000e-001) (53, -1.25827640295028690000e-001) (54, 2.45695614814758300000e+000) (55, -1.05205178260803220000e+000) (56, 9.40615653991699220000e-001) (57, 8.81332874298095700000e+000) (58, 6.27302825450897220000e-002) (59, 8.80214405059814450000e+000) (60, 9.41683959960937500000e+000) (61, 8.91219425201416020000e+000) (62, -7.96696066856384280000e-001) (63, 9.01400756835937500000e+000) (64, 2.86170625686645510000e+000) (65, -5.42495191097259520000e-001) (66, -3.57129573822021480000e-001) (67, 3.96372526884078980000e-001) (68, -4.72744643688201900000e-001) (69, -2.79455840587615970000e-001) (70, -2.05459117889404300000e-001) (71, -2.77116417884826660000e-001) (72, 3.98744523525238040000e-001) (73, -4.56022948026657100000e-001) (74, 1.28918468952178960000e+000) (75, -1.01694321632385250000e+000) (76, 1.04008984565734860000e+000) (77, 8.75718212127685550000e+000) (78, -5.11555373668670650000e-001) (79, 9.03708171844482420000e+000) (80, 8.83121109008789060000e+000) (81, 2.94736814498901370000e+000) (82, 3.59445422887802120000e-001) (83, 9.67859506607055660000e-001) (84, 2.36288502812385560000e-001) (85, 2.86836594343185420000e-001) (86, 1.08463537693023680000e+000) (87, 9.56903171539306640000e+000) (88, -7.69758880138397220000e-001) (89, 9.24096584320068360000e+000) (90, 8.84970283508300780000e+000) (91, 9.15216255187988280000e+000) (92, 8.97958946228027340000e+000) (93, 9.25506591796875000000e+000) (94, 9.04400348663330080000e+000) (95, 8.68991565704345700000e+000) (96, 9.61242294311523440000e+000) (97, 8.69337654113769530000e+000) (98, -3.17157745361328130000e-001) (99, 9.02131462097167970000e+000) (100, 2.63694286346435550000e-001) (0, 9.33249187469482420000e+000) (1, 8.61089825630187990000e-001) (2, -2.49417066574096680000e-001) (3, 3.20091456174850460000e-001) (4, 2.17348501086235050000e-001) (5, 2.26399272680282590000e-001) (6, 2.05472528934478760000e-001) (7, 8.07114124298095700000e-001) (8, 7.18856334686279300000e-001) (9, -6.29091203212738040000e-001) (10, -3.66913884878158570000e-001) (11, -1.54666006565093990000e-001) (12, 1.74247622489929200000e-001) (13, -3.23908567428588870000e-001) (14, 5.20596444606781010000e-001) (15, 5.50720751285552980000e-001) (16, 1.15474855899810790000e+000) (17, 9.31608390808105470000e+000) (18, 3.67395877838134770000e-001) (19, 2.87074670195579530000e-002) (20, 9.27519130706787110000e+000) (21, 9.03413295745849610000e+000) (22, -6.10262639820575710000e-002) (23, 4.36808019876480100000e-001) (24, 6.08270287513732910000e-001) (25, 4.99914497137069700000e-001) (26, 1.18541753292083740000e+000) (27, 8.89011383056640620000e+000) (28, 8.96749734878540040000e-001) (29, -3.62715750932693480000e-001) (30, 8.95673942565917970000e+000) (31, 9.22625541687011720000e+000) (32, 5.74691951274871830000e-001) (33, 6.62965357303619380000e-001) (34, -4.45587754249572750000e-001) (35, 8.18340480327606200000e-001) (36, 3.94165873527526860000e-001) (37, 1.06990015506744380000e+000) (38, 9.21297907829284670000e-001) (39, 6.02418407797813420000e-002) (40, -2.30168938636779790000e-001) (41, -5.81284701824188230000e-001) (42, -3.03747653961181640000e-001) (43, 2.33339555561542510000e-002) (44, 2.89953470230102540000e-001) (45, 1.08679282665252690000e+000) (46, 8.66253912448883060000e-001) (47, 8.72853279113769530000e+000) (48, 8.53646397590637210000e-001) (49, 9.41815376281738280000e+000) (50, 9.55858421325683590000e+000) (51, 9.10210514068603520000e+000) (52, -4.49082672595977780000e-001) (53, 2.48467326164245610000e-001) (54, -9.52968180179595950000e-001) (55, 6.84525430202484130000e-001) (56, 2.41367727518081670000e-001) (57, 9.28307533264160160000e+000) (58, 3.17685544490814210000e-001) (59, 9.06823158264160160000e+000) (60, 8.83999252319335940000e+000) (61, 8.81912994384765630000e+000) (62, -5.56953191757202150000e-001) (63, 9.15764331817626950000e+000) (64, -2.03976929187774660000e-002) (65, 3.27975660562515260000e-001) (66, 9.84648048877716060000e-001) (67, 4.04244810342788700000e-001) (68, 1.40529170632362370000e-001) (69, -2.42154598236083980000e-001) (70, -8.90883862972259520000e-001) (71, 6.27735480666160580000e-002) (72, -1.82308316230773930000e-001) (73, -3.89733254909515380000e-001) (74, -3.81593286991119380000e-001) (75, 1.21930629014968870000e-001) (76, 4.02436405420303340000e-001) (77, 9.47875499725341800000e+000) (78, 1.39204335212707520000e+000) (79, 9.33047294616699220000e+000) (80, 8.82810306549072270000e+000) (81, 7.45239615440368650000e-001) (82, -1.18953607976436610000e-001) (83, 2.03600332140922550000e-001) (84, 1.03243291378021240000e-002) (85, 2.04744502902030940000e-001) (86, 2.72485435009002690000e-001) (87, 8.93382644653320310000e+000) (88, 7.82732009887695310000e-001) (89, 8.88360786437988280000e+000) (90, 9.35998821258544920000e+000) (91, 9.05384254455566410000e+000) (92, 9.41081523895263670000e+000) (93, 9.47811412811279300000e+000) (94, 9.07489776611328120000e+000) (95, 9.12421798706054690000e+000) (96, 8.82448101043701170000e+000) (97, 9.00106048583984370000e+000) (98, 1.48363387584686280000e+000) (99, 9.28381252288818360000e+000) (100, -2.38783329725265500000e-001) (0, 9.37158966064453130000e+000) (1, 1.73151767253875730000e+000) (2, 1.38259887695312500000e-001) (3, 1.42711186408996580000e+000) (4, 7.82003998756408690000e-001) (5, 7.21311628818511960000e-001) (6, 8.08800160884857180000e-001) (7, 4.27807897329330440000e-001) (8, 1.01032793521881100000e+000) (9, -1.44282802939414980000e-001) (10, 7.92229413986206050000e-001) (11, 6.49940252304077150000e-001) (12, 1.03859770298004150000e+000) (13, 4.47115600109100340000e-001) (14, 3.63793134689331050000e-001) (15, 3.40687274932861330000e-001) (16, 1.41268745064735410000e-001) (17, 8.84685039520263670000e+000) (18, 7.51707911491394040000e-001) (19, 6.47312402725219730000e-001) (20, 9.33630561828613280000e+000) (21, 9.06986618041992190000e+000) (22, 4.65670883655548100000e-001) (23, 1.13349080085754390000e-001) (24, 1.64293944835662840000e+000) (25, 1.10764019191265110000e-001) (26, -8.81884321570396420000e-002) (27, 9.64680957794189450000e+000) (28, 1.11938405036926270000e+000) (29, 8.37223529815673830000e-001) (30, 8.65450382232666020000e+000) (31, 9.60248851776123050000e+000) (32, 5.52230060100555420000e-001) (33, 4.61704939603805540000e-001) (34, 5.03854930400848390000e-001) (35, 1.36999696493148800000e-001) (36, 4.54551547765731810000e-001) (37, 4.64341580867767330000e-001) (38, 7.49945282936096190000e-001) (39, 2.75694310665130620000e-001) (40, -9.49623137712478640000e-002) (41, 3.74579876661300660000e-001) (42, 7.81169116497039790000e-001) (43, 3.88315141201019290000e-001) (44, -2.61802405118942260000e-001) (45, 2.65242218971252440000e-001) (46, 1.11522376537323000000e-001) (47, 9.29371452331542970000e+000) (48, 7.30460703372955320000e-001) (49, 9.37402534484863280000e+000) (50, 9.14453601837158200000e+000) (51, 9.56662750244140620000e+000) (52, 6.32154107093811040000e-001) (53, -3.60435098409652710000e-001) (54, 5.17402768135070800000e-001) (55, 9.85050499439239500000e-002) (56, -5.59223294258117680000e-001) (57, 8.90514373779296870000e+000) (58, -2.22724199295043950000e+000) (59, 9.30989837646484370000e+000) (60, 8.77484035491943360000e+000) (61, 9.48753547668457030000e+000) (62, 4.55991238355636600000e-001) (63, 9.04458045959472660000e+000) (64, 1.20700275897979740000e+000) (65, 5.32232642173767090000e-001) (66, -1.41533702611923220000e-001) (67, -1.31271421909332280000e+000) (68, -1.34498560428619380000e+000) (69, 8.24725151062011720000e-001) (70, -1.25375032424926760000e-001) (71, 1.97275087237358090000e-001) (72, 5.74523806571960450000e-001) (73, 6.66477978229522710000e-001) (74, 3.88356707990169530000e-002) (75, 4.20740842819213870000e-001) (76, -1.21491938829422000000e-001) (77, 8.88456916809082030000e+000) (78, -3.13390791416168210000e-001) (79, 9.19725322723388670000e+000) (80, 9.14261245727539060000e+000) (81, 1.57195508480072020000e+000) (82, 1.24960303306579590000e+000) (83, 9.90566372871398930000e-001) (84, 1.44118058681488040000e+000) (85, 5.33012390136718750000e-001) (86, 9.64469090104103090000e-003) (87, 8.84617710113525390000e+000) (88, -8.08250159025192260000e-002) (89, 8.80060672760009770000e+000) (90, 9.56986427307128910000e+000) (91, 9.65270614624023440000e+000) (92, 9.52124881744384770000e+000) (93, 9.22535800933837890000e+000) (94, 9.52512741088867190000e+000) (95, 9.43959331512451170000e+000) (96, 9.58024787902832030000e+000) (97, 9.35575771331787110000e+000) (98, -5.81036098301410680000e-002) (99, 8.94007492065429690000e+000) (100, -1.23386633396148680000e+000) (0, 9.40052795410156250000e+000) (1, 4.63277846574783330000e-001) (2, -7.28424370288848880000e-001) (3, 9.59541350603103640000e-002) (4, -4.01320546865463260000e-001) (5, 6.64453685283660890000e-001) (6, 3.38727086782455440000e-001) (7, 2.60926812887191770000e-001) (8, 6.35108590126037600000e-001) (9, 8.41053664684295650000e-001) (10, 6.25857412815093990000e-001) (11, 1.74185693264007570000e-001) (12, -4.91736710071563720000e-001) (13, 2.31281340122222900000e-001) (14, -4.42147761583328250000e-001) (15, -2.93778210878372190000e-001) (16, -5.76154813170433040000e-002) (17, 9.33236408233642580000e+000) (18, 4.55741047859191890000e-001) (19, 6.34285748004913330000e-001) (20, 8.90075302124023440000e+000) (21, 8.73215389251708980000e+000) (22, -4.01843488216400150000e-001) (23, 2.22866728901863100000e-001) (24, 5.21507501602172850000e-001) (25, 9.14490878582000730000e-001) (26, 5.50958752632141110000e-001) (27, 8.65104198455810550000e+000) (28, 6.71610236167907710000e-001) (29, 6.56302154064178470000e-001) (30, 8.66863632202148440000e+000) (31, 9.64889240264892580000e+000) (32, 1.70870080590248110000e-001) (33, 8.15106451511383060000e-001) (34, -1.30758196115493770000e-001) (35, -3.00805300474166870000e-001) (36, 1.26030549407005310000e-001) (37, 8.26686143875122070000e-001) (38, 6.22225701808929440000e-001) (39, -1.75255805253982540000e-001) (40, 9.49332118034362790000e-002) (41, -9.68638956546783450000e-001) (42, -1.19667959213256840000e+000) (43, -2.34673589468002320000e-001) (44, -4.27534252405166630000e-001) (45, 2.64082700014114380000e-001) (46, -1.88324637711048130000e-002) (47, 9.54980278015136720000e+000) (48, 6.00657939910888670000e-001) (49, 8.73048686981201170000e+000) (50, 8.92315387725830080000e+000) (51, 8.83290958404541020000e+000) (52, 6.39765799045562740000e-001) (53, -1.36477351188659670000e-001) (54, 5.74047327041625980000e-001) (55, 9.66150760650634770000e-001) (56, 4.68956291675567630000e-001) (57, 9.09880447387695310000e+000) (58, 6.37238442897796630000e-001) (59, 9.60752010345458980000e+000) (60, 9.36854457855224610000e+000) (61, 8.81050872802734370000e+000) (62, 8.39899957180023190000e-001) (63, 9.23180007934570310000e+000) (64, 1.27121698856353760000e+000) (65, 5.00404119491577150000e-001) (66, 7.53729581832885740000e-001) (67, -7.61298015713691710000e-002) (68, 5.29271841049194340000e-001) (69, 3.11830267310142520000e-003) (70, 7.72376716136932370000e-001) (71, 4.84369486570358280000e-001) (72, -6.26818478107452390000e-001) (73, -6.16267979145050050000e-001) (74, -3.40045720338821410000e-001) (75, -5.82234084606170650000e-001) (76, 7.34210014343261720000e-001) (77, 9.38129997253417970000e+000) (78, 5.71933865547180180000e-001) (79, 9.09438228607177730000e+000) (80, 9.28387641906738280000e+000) (81, 1.16065466403961180000e+000) (82, -3.97987693548202510000e-001) (83, 1.71183049678802490000e-002) (84, -7.06266388297080990000e-002) (85, 3.37300747632980350000e-001) (86, 2.48476937413215640000e-002) (87, 8.95016956329345700000e+000) (88, 8.93077850341796880000e-001) (89, 8.64508152008056640000e+000) (90, 8.94683742523193360000e+000) (91, 8.69251155853271480000e+000) (92, 9.25567531585693360000e+000) (93, 8.68212795257568360000e+000) (94, 9.18122959136962890000e+000) (95, 8.64479351043701170000e+000) (96, 8.65690708160400390000e+000) (97, 9.03064060211181640000e+000) (98, 4.38233494758605960000e-001) (99, 9.40398883819580080000e+000) (100, -5.74951171875000000000e-001) (0, 8.78374958038330080000e+000) (1, -4.85995262861251830000e-001) (2, 6.27385973930358890000e-002) (3, 7.09143877029418950000e-001) (4, 9.15527105331420900000e-001) (5, 9.17706370353698730000e-001) (6, 2.23790630698204040000e-001) (7, 2.60093331336975100000e-001) (8, 8.14411878585815430000e-001) (9, 8.88798058032989500000e-001) (10, -5.45401126146316530000e-002) (11, 6.88695967197418210000e-001) (12, -4.98700946569442750000e-001) (13, 2.10077926516532900000e-001) (14, 8.69818091392517090000e-001) (15, 5.45675098896026610000e-001) (16, 7.77660489082336430000e-001) (17, 9.01939201354980470000e+000) (18, 4.02799010276794430000e-001) (19, 6.49313926696777340000e-002) (20, 9.33024883270263670000e+000) (21, 9.07262229919433590000e+000) (22, 3.97000879049301150000e-001) (23, 1.55984210968017580000e+000) (24, 4.52728062868118290000e-001) (25, 1.32539242506027220000e-001) (26, 1.09479856491088870000e+000) (27, 9.01365566253662110000e+000) (28, 2.01126635074615480000e-001) (29, 8.23261737823486330000e-001) (30, 9.15597629547119140000e+000) (31, 9.26250076293945310000e+000) (32, -2.80474632978439330000e-001) (33, -5.68953514099121090000e-001) (34, 9.19502973556518550000e-002) (35, 5.88088631629943850000e-001) (36, 1.07627534866333010000e+000) (37, 7.56695032119750980000e-001) (38, 7.07855284214019780000e-001) (39, 7.68208801746368410000e-002) (40, -1.27511352300643920000e-001) (41, -5.00057876110076900000e-001) (42, -2.38170742988586430000e-001) (43, -6.63243234157562260000e-002) (44, -3.31706032156944270000e-002) (45, 5.65431356430053710000e-001) (46, -1.25095903873443600000e+000) (47, 9.62604331970214840000e+000) (48, 8.26974272727966310000e-001) (49, 9.46567916870117190000e+000) (50, 9.55268764495849610000e+000) (51, 9.42385864257812500000e+000) (52, 5.54816424846649170000e-003) (53, 1.02407884597778320000e+000) (54, -6.18872761726379390000e-001) (55, 2.05298170447349550000e-001) (56, -1.10674715042114260000e+000) (57, 9.00936126708984380000e+000) (58, 3.35513651371002200000e-001) (59, 8.87969875335693360000e+000) (60, 9.30124568939208980000e+000) (61, 9.53320312500000000000e+000) (62, 6.28928124904632570000e-001) (63, 9.12655735015869140000e+000) (64, 7.83859640359878540000e-002) (65, 4.25866305828094480000e-001) (66, 2.88160651922225950000e-001) (67, 1.61850452423095700000e-001) (68, 3.57722282409667970000e-001) (69, 3.20871174335479740000e-003) (70, 3.13937276601791380000e-001) (71, 2.68398374319076540000e-001) (72, 3.28903287649154660000e-001) (73, 4.75235611200332640000e-001) (74, 1.28088191151618960000e-001) (75, 8.60153138637542720000e-001) (76, -1.33332002162933350000e+000) (77, 8.98080730438232420000e+000) (78, 8.78330111503601070000e-001) (79, 9.15453433990478520000e+000) (80, 8.76089954376220700000e+000) (81, 5.60491830110549930000e-002) (82, 7.14623928070068360000e-001) (83, 3.51241916418075560000e-001) (84, 1.07758927345275880000e+000) (85, 7.46126174926757810000e-001) (86, -8.92063677310943600000e-001) (87, 9.51362228393554690000e+000) (88, 5.77760457992553710000e-001) (89, 8.66177845001220700000e+000) (90, 9.02551269531250000000e+000) (91, 9.32496070861816410000e+000) (92, 8.86470031738281250000e+000) (93, 9.27746677398681640000e+000) (94, 9.37988948822021480000e+000) (95, 9.21561622619628910000e+000) (96, 8.86046981811523440000e+000) (97, 9.00090026855468750000e+000) (98, 1.44556391239166260000e+000) (99, 8.80473995208740230000e+000) (100, -1.43583214282989500000e+000) (0, 9.54137516021728520000e+000) (1, 2.82129317522048950000e-001) (2, -3.87253314256668090000e-001) (3, 1.10582208633422850000e+000) (4, 7.02894032001495360000e-001) (5, 8.84376704692840580000e-001) (6, 2.77148395776748660000e-001) (7, 8.47224652767181400000e-001) (8, 7.03749835491180420000e-001) (9, -6.67328983545303340000e-002) (10, 5.89877590537071230000e-002) (11, -8.23877573013305660000e-001) (12, -2.87228554487228390000e-001) (13, -8.99720788002014160000e-002) (14, -1.36086359620094300000e-001) (15, 7.73408591747283940000e-001) (16, 9.56162214279174800000e-001) (17, 9.58915710449218750000e+000) (18, 1.30716443061828610000e+000) (19, -7.06104516983032230000e-001) (20, 9.67286396026611330000e+000) (21, 8.85261821746826170000e+000) (22, 3.67163181304931640000e-001) (23, 2.02069818973541260000e-001) (24, 9.37876939773559570000e-001) (25, 2.27745532989501950000e-001) (26, 9.34754729270935060000e-001) (27, 9.60341835021972660000e+000) (28, 9.27182078361511230000e-001) (29, -2.43504703044891360000e-001) (30, 9.08364582061767580000e+000) (31, 8.77522468566894530000e+000) (32, 2.81661540269851680000e-001) (33, 7.53233075141906740000e-001) (34, -8.69435966014862060000e-002) (35, -1.69527046382427220000e-002) (36, 1.01657092571258540000e+000) (37, 1.11081182956695560000e+000) (38, 7.85373747348785400000e-001) (39, -5.79069793224334720000e-001) (40, -4.49182897806167600000e-001) (41, -6.09412938356399540000e-002) (42, -9.95970889925956730000e-003) (43, 4.77955430746078490000e-001) (44, 2.46285900473594670000e-001) (45, 4.45138156414031980000e-001) (46, 4.35106784105300900000e-001) (47, 9.60854530334472660000e+000) (48, 1.05075562000274660000e+000) (49, 8.82073211669921870000e+000) (50, 9.63360595703125000000e+000) (51, 9.41155242919921870000e+000) (52, -7.26326227188110350000e-001) (53, 4.59472060203552250000e-001) (54, 4.96540784835815430000e-001) (55, -7.27575421333312990000e-002) (56, 5.05289912223815920000e-001) (57, 8.96840476989746090000e+000) (58, 6.27616524696350100000e-001) (59, 9.33335685729980470000e+000) (60, 9.17747974395751950000e+000) (61, 9.65251445770263670000e+000) (62, -2.19277068972587590000e-001) (63, 8.76099586486816410000e+000) (64, 2.32232019305229190000e-001) (65, 4.00112003087997440000e-001) (66, 6.07141733169555660000e-001) (67, 2.44782030582427980000e-001) (68, 2.55799181759357450000e-002) (69, -5.68942904472351070000e-001) (70, -4.94433403015136720000e-001) (71, -7.37512260675430300000e-002) (72, 1.07047639787197110000e-001) (73, 4.62840199470520020000e-001) (74, 6.29262268543243410000e-001) (75, 7.53411233425140380000e-001) (76, 1.04746270179748540000e+000) (77, 8.87703895568847660000e+000) (78, 1.41564220190048220000e-001) (79, 9.00432968139648440000e+000) (80, 9.18183803558349610000e+000) (81, 2.35372647643089290000e-001) (82, 1.04704773426055910000e+000) (83, 1.09454154968261720000e+000) (84, 6.26974463462829590000e-001) (85, 4.32512700557708740000e-001) (86, 1.96259841322898860000e-001) (87, 9.64334869384765620000e+000) (88, 2.07036375999450680000e-001) (89, 9.65719318389892580000e+000) (90, 9.20090675354003910000e+000) (91, 9.25859165191650390000e+000) (92, 8.82829475402832030000e+000) (93, 9.28656864166259770000e+000) (94, 9.44718837738037110000e+000) (95, 8.82156467437744140000e+000) (96, 8.76843070983886720000e+000) (97, 8.67501354217529300000e+000) (98, -1.80944316089153290000e-002) (99, 8.93590927124023440000e+000) (100, -7.03870952129364010000e-001) (0, 8.75586891174316410000e+000) (1, 1.23357450962066650000e+000) (2, -3.92424553632736210000e-001) (3, 6.26054465770721440000e-001) (4, 6.49448871612548830000e-001) (5, 2.15762481093406680000e-003) (6, 7.69589304924011230000e-001) (7, 9.07423496246337890000e-001) (8, 5.00104844570159910000e-001) (9, 5.06829679012298580000e-001) (10, -3.38220119476318360000e-001) (11, 1.91690810024738310000e-002) (12, 3.33466269075870510000e-002) (13, -3.38651269674301150000e-001) (14, 3.62517535686492920000e-001) (15, -1.99759125709533690000e-001) (16, 7.92753815650939940000e-001) (17, 9.25269412994384770000e+000) (18, 6.94919168949127200000e-001) (19, -1.35810717940330510000e-001) (20, 9.03932476043701170000e+000) (21, 8.98465251922607420000e+000) (22, -1.07955622673034670000e+000) (23, 2.36956059932708740000e-001) (24, 1.58009982109069820000e+000) (25, 6.17609620094299320000e-001) (26, -6.10768236219882970000e-002) (27, 9.40950107574462890000e+000) (28, 7.12192595005035400000e-001) (29, -3.73984634876251220000e-001) (30, 9.63302993774414060000e+000) (31, 9.60578918457031250000e+000) (32, -5.17033517360687260000e-001) (33, 3.35386425256729130000e-001) (34, 5.82891464233398440000e-001) (35, 5.05337357521057130000e-001) (36, -6.35709762573242190000e-002) (37, 6.49796783924102780000e-001) (38, -6.78016245365142820000e-002) (39, 4.15303170680999760000e-001) (40, -3.27324151992797850000e-001) (41, -3.53972196578979490000e-001) (42, -1.46759033203125000000e+000) (43, -9.73232612013816830000e-002) (44, -1.83495759963989260000e-001) (45, -2.55863547325134280000e-001) (46, -2.95080766081810000000e-002) (47, 9.60893058776855470000e+000) (48, 7.24979341030120850000e-001) (49, 9.05050945281982420000e+000) (50, 9.02980709075927730000e+000) (51, 9.06678962707519530000e+000) (52, -1.99936896562576290000e-001) (53, -4.58561897277832030000e-001) (54, -2.20805257558822630000e-001) (55, -8.41895490884780880000e-002) (56, 6.14415854215621950000e-002) (57, 9.33322906494140620000e+000) (58, 1.01648008823394780000e+000) (59, 9.43693351745605470000e+000) (60, 9.69045829772949220000e+000) (61, 9.33364582061767580000e+000) (62, -4.19812023639678960000e-001) (63, 8.85553455352783200000e+000) (64, 1.50283420085906980000e+000) (65, 7.93867766857147220000e-001) (66, 1.12881086766719820000e-001) (67, 9.02392566204071040000e-001) (68, 4.42548871040344240000e-001) (69, 2.80128538608551030000e-001) (70, -7.98884779214859010000e-002) (71, 4.82698142528533940000e-001) (72, -1.04398226737976070000e+000) (73, 2.04194486141204830000e-001) (74, 6.89094886183738710000e-003) (75, 1.39331176877021790000e-001) (76, -2.63163477182388310000e-001) (77, 9.15011215209960940000e+000) (78, 4.35819834470748900000e-001) (79, 8.76099586486816410000e+000) (80, 9.06957721710205080000e+000) (81, 8.90606522560119630000e-001) (82, 8.35482180118560790000e-001) (83, 7.81931519508361820000e-001) (84, 3.01641732454299930000e-001) (85, 5.09277321398258210000e-002) (86, -1.70226842164993290000e-001) (87, 8.70449733734130860000e+000) (88, 7.15398669242858890000e-001) (89, 9.46648120880126950000e+000) (90, 9.30307292938232420000e+000) (91, 9.62729263305664060000e+000) (92, 9.47622299194335940000e+000) (93, 9.11918640136718750000e+000) (94, 9.23237705230712890000e+000) (95, 8.80650329589843750000e+000) (96, 9.24715042114257810000e+000) (97, 8.99775981903076170000e+000) (98, 7.14020669460296630000e-001) (99, 9.54784870147705080000e+000) (100, -1.07551729679107670000e+000) (0, 9.37742233276367190000e+000) (1, 5.14919817447662350000e-001) (2, 2.97338396310806270000e-001) (3, 1.61036565899848940000e-001) (4, 3.73797237873077390000e-001) (5, 2.18276590108871460000e-001) (6, 1.96356385946273800000e-001) (7, 1.32611763477325440000e+000) (8, 1.73635256290435790000e+000) (9, -3.44299435615539550000e-001) (10, -5.75396046042442320000e-003) (11, -5.06265401840209960000e-001) (12, -1.34981542825698850000e-001) (13, 3.14446032047271730000e-001) (14, 1.25342154502868650000e+000) (15, 3.81232172250747680000e-001) (16, -4.77142371237277980000e-002) (17, 9.31771850585937500000e+000) (18, 2.17001390457153320000e+000) (19, -1.17085531353950500000e-001) (20, 8.83406352996826170000e+000) (21, 8.75894546508789060000e+000) (22, -3.28888863325119020000e-001) (23, 1.46600604057312010000e-003) (24, 1.22735869884490970000e+000) (25, -4.78371270000934600000e-002) (26, 5.59260584414005280000e-002) (27, 9.35646343231201170000e+000) (28, 1.90418314933776860000e+000) (29, -5.18699645996093750000e-001) (30, 9.12924957275390620000e+000) (31, 9.42209529876708980000e+000) (32, -2.73158997297286990000e-001) (33, 8.58520150184631350000e-001) (34, 6.66751086711883540000e-001) (35, 8.40948462486267090000e-001) (36, 7.76408791542053220000e-001) (37, 1.48282802104949950000e+000) (38, 1.22709214687347410000e+000) (39, 9.78222489356994630000e-002) (40, 2.82830178737640380000e-001) (41, -6.67160972952842710000e-002) (42, -1.18602943420410160000e+000) (43, 3.47402989864349370000e-002) (44, 7.09482729434967040000e-001) (45, 5.37817537784576420000e-001) (46, -3.02319258451461790000e-001) (47, 9.32399940490722660000e+000) (48, 1.66972661018371580000e+000) (49, 8.88392829895019530000e+000) (50, 9.12559604644775390000e+000) (51, 8.85668849945068360000e+000) (52, -1.96914836764335630000e-001) (53, 4.58297401666641240000e-001) (54, 9.60949659347534180000e-001) (55, 1.36194360256195070000e+000) (56, 6.37974321842193600000e-001) (57, 8.89322280883789060000e+000) (58, 9.49545264244079590000e-001) (59, 9.19420814514160160000e+000) (60, 8.71029758453369140000e+000) (61, 9.66446781158447270000e+000) (62, -4.31275188922882080000e-001) (63, 9.09595203399658200000e+000) (64, 1.12942278385162350000e+000) (65, 1.32001996040344240000e+000) (66, 3.98826926946640010000e-001) (67, 1.10250604152679440000e+000) (68, 1.48229598999023440000e+000) (69, 1.60060338675975800000e-002) (70, -4.93382453918457030000e-001) (71, -3.82371336221694950000e-001) (72, 8.73611867427825930000e-002) (73, 7.84160196781158450000e-001) (74, 1.32978975772857670000e+000) (75, 9.60162818431854250000e-001) (76, -2.44185775518417360000e-001) (77, 9.50894355773925780000e+000) (78, 2.98165231943130490000e-001) (79, 9.24045276641845700000e+000) (80, 9.08088970184326170000e+000) (81, 3.98396611213684080000e-001) (82, 4.10266816616058350000e-001) (83, 8.15854847431182860000e-001) (84, 7.89031386375427250000e-001) (85, 8.66236746311187740000e-001) (86, -6.54592812061309810000e-002) (87, 9.06630897521972660000e+000) (88, 1.28155365586280820000e-001) (89, 9.49493885040283200000e+000) (90, 9.67991447448730470000e+000) (91, 9.56874275207519530000e+000) (92, 9.03612041473388670000e+000) (93, 9.21189880371093750000e+000) (94, 8.73539066314697270000e+000) (95, 9.53195285797119140000e+000) (96, 8.90738677978515620000e+000) (97, 9.56262207031250000000e+000) (98, 1.05754464864730830000e-001) (99, 9.57752418518066410000e+000) (100, -1.36610293388366700000e+000) (0, 9.02499961853027340000e+000) (1, 1.10254335403442380000e+000) (2, 1.20739847421646120000e-001) (3, 1.88744962215423580000e-002) (4, 6.50458574295043950000e-001) (5, 7.24053502082824710000e-001) (6, 6.35443329811096190000e-001) (7, 1.11383986473083500000e+000) (8, 9.31395947933197020000e-001) (9, 2.02593505382537840000e-001) (10, 4.66084659099578860000e-001) (11, 2.43068963289260860000e-001) (12, 6.58336877822875980000e-001) (13, -1.82992494106292720000e+000) (14, -4.16622698307037350000e-001) (15, -1.82300269603729250000e+000) (16, 3.33880066871643070000e-001) (17, 8.74545288085937500000e+000) (18, 1.00228404998779300000e+000) (19, 4.84319508075714110000e-001) (20, 9.02782058715820310000e+000) (21, 8.88796615600585940000e+000) (22, -2.19504863023757930000e-001) (23, 1.54051184654235840000e-003) (24, 1.02322685718536380000e+000) (25, 5.86690008640289310000e-003) (26, 2.76323467493057250000e-001) (27, 9.35521316528320310000e+000) (28, 7.58950531482696530000e-001) (29, 3.66834819316864010000e-001) (30, 9.64293193817138670000e+000) (31, 8.89335060119628910000e+000) (32, -1.10208189487457280000e+000) (33, -1.01839089393615720000e+000) (34, 5.54045617580413820000e-001) (35, 6.79527699947357180000e-001) (36, 1.05532419681549070000e+000) (37, 8.74736726284027100000e-001) (38, 5.18244802951812740000e-001) (39, 9.03966426849365230000e-002) (40, 1.84518963098526000000e-001) (41, 1.94020532071590420000e-002) (42, -2.05675810575485230000e-001) (43, -3.64504545927047730000e-001) (44, -9.39087092876434330000e-001) (45, -3.23783010244369510000e-001) (46, 5.32076060771942140000e-001) (47, 9.67462635040283200000e+000) (48, 1.08775353431701660000e+000) (49, 8.89588260650634770000e+000) (50, 9.26852607727050780000e+000) (51, 9.61376953125000000000e+000) (52, 4.53041493892669680000e-001) (53, 2.77081340551376340000e-001) (54, 1.01134270429611210000e-001) (55, -8.66440236568450930000e-001) (56, 5.52105426788330080000e-001) (57, 8.85909175872802730000e+000) (58, 7.93110489845275880000e-001) (59, 9.60899448394775390000e+000) (60, 8.78080081939697270000e+000) (61, 9.11338615417480470000e+000) (62, 9.70986604690551760000e-001) (63, 9.25285530090332030000e+000) (64, 1.42220348119735720000e-001) (65, 1.07788994908332820000e-001) (66, 3.96378666162490840000e-001) (67, 7.29208588600158690000e-001) (68, 9.10595118999481200000e-001) (69, 3.73244225978851320000e-001) (70, 6.42503917217254640000e-001) (71, -3.15746143460273740000e-002) (72, -5.68508386611938480000e-001) (73, -2.19410800933837890000e+000) (74, -8.72075915336608890000e-001) (75, -2.18907666206359860000e+000) (76, 1.85486748814582820000e-001) (77, 8.97148132324218750000e+000) (78, 6.10126972198486330000e-001) (79, 8.84886932373046870000e+000) (80, 9.66482067108154300000e+000) (81, 7.16504216194152830000e-001) (82, -1.02359734475612640000e-001) (83, 2.80570983886718750000e-001) (84, 6.56194984912872310000e-001) (85, 2.45782613754272460000e-001) (86, 4.98106092214584350000e-001) (87, 8.74856185913085940000e+000) (88, 7.67510235309600830000e-001) (89, 9.21052074432373050000e+000) (90, 9.22984504699707030000e+000) (91, 8.65892601013183590000e+000) (92, 9.22731304168701170000e+000) (93, 9.02881336212158200000e+000) (94, 9.30839252471923830000e+000) (95, 8.88142871856689450000e+000) (96, 8.95943164825439450000e+000) (97, 9.61200618743896480000e+000) (98, 8.23047816753387450000e-001) (99, 9.27423000335693360000e+000) (100, -8.47850501537323000000e-001) (0, 9.19276618957519530000e+000) (1, 2.88181304931640630000e-001) (2, 5.15373408794403080000e-001) (3, 2.76342004537582400000e-001) (4, -1.12421236932277680000e-001) (5, 6.12912714481353760000e-001) (6, 6.60438597202301030000e-001) (7, 1.38823640346527100000e+000) (8, 6.94769561290740970000e-001) (9, -1.98832109570503230000e-001) (10, 9.50396880507469180000e-002) (11, -6.79730832576751710000e-001) (12, -4.29725140333175660000e-001) (13, 3.66677463054656980000e-001) (14, 1.62647292017936710000e-003) (15, -8.56672227382659910000e-002) (16, 4.55529451370239260000e-001) (17, 8.67898750305175780000e+000) (18, 6.12889230251312260000e-001) (19, -2.12163701653480530000e-001) (20, 8.82146930694580080000e+000) (21, 9.18943405151367190000e+000) (22, -1.58798724412918090000e-001) (23, 5.75528204441070560000e-001) (24, 7.66452074050903320000e-001) (25, 2.77867972850799560000e-001) (26, -1.70574516057968140000e-001) (27, 8.98356342315673830000e+000) (28, 1.25850987434387210000e+000) (29, -4.92607802152633670000e-001) (30, 8.79230594635009770000e+000) (31, 9.04240131378173830000e+000) (32, 7.19083100557327270000e-002) (33, 6.91900670528411870000e-001) (34, 5.20162343978881840000e-001) (35, 6.92939341068267820000e-001) (36, -5.70316538214683530000e-002) (37, 1.28433978557586670000e+000) (38, 7.19093263149261470000e-001) (39, -2.92794167995452880000e-001) (40, -6.18628412485122680000e-002) (41, -1.64463058114051820000e-001) (42, -2.33065374195575710000e-002) (43, -8.06470930576324460000e-001) (44, -2.77888178825378420000e-001) (45, 6.20936572551727290000e-001) (46, 3.67718249559402470000e-001) (47, 8.69193458557128910000e+000) (48, 4.76304441690444950000e-001) (49, 9.39091396331787110000e+000) (50, 9.39011287689208980000e+000) (51, 8.90181064605712890000e+000) (52, -6.58227264881134030000e-001) (53, 9.72046911716461180000e-001) (54, 2.60791964828968050000e-002) (55, -7.75522768497467040000e-001) (56, 4.25018459558486940000e-001) (57, 9.54204750061035160000e+000) (58, 9.71846878528594970000e-001) (59, 9.06598854064941410000e+000) (60, 9.38264560699462890000e+000) (61, 9.41065502166748050000e+000) (62, -4.64182019233703610000e-001) (63, 8.64883136749267580000e+000) (64, 4.78733301162719730000e-001) (65, -1.35374873876571660000e-001) (66, -6.09427504241466520000e-002) (67, 1.15230405330657960000e+000) (68, 1.11035454273223880000e+000) (69, -8.60155940055847170000e-001) (70, -2.58343577384948730000e-001) (71, -5.18662154674530030000e-001) (72, -6.54269158840179440000e-002) (73, -7.97705948352813720000e-002) (74, 6.09559834003448490000e-001) (75, 8.60411077737808230000e-002) (76, -3.94041031599044800000e-001) (77, 9.26788520812988280000e+000) (78, 6.43925905227661130000e-001) (79, 8.75650978088378910000e+000) (80, 8.84906101226806640000e+000) (81, 2.73023009300231930000e-001) (82, 2.04139053821563720000e-002) (83, 7.91627228260040280000e-001) (84, 6.90710961818695070000e-001) (85, 2.54946708679199220000e-001) (86, -4.06667560338974000000e-001) (87, 9.67805576324462890000e+000) (88, 7.62660324573516850000e-001) (89, 9.55467414855957030000e+000) (90, 9.43642044067382810000e+000) (91, 9.10643196105957030000e+000) (92, 8.70648384094238280000e+000) (93, 9.18199825286865230000e+000) (94, 9.38460063934326170000e+000) (95, 9.19677257537841800000e+000) (96, 8.85466957092285160000e+000) (97, 8.90959835052490230000e+000) (98, 9.89778101444244380000e-001) (99, 9.58790683746337890000e+000) (100, -1.12353456020355220000e+000) (0, 8.68421077728271480000e+000) (1, 1.15200471878051760000e+000) (2, 2.79663383960723880000e-001) (3, 1.07257485389709470000e+000) (4, 1.50386464595794680000e+000) (5, 6.74452364444732670000e-001) (6, 1.04975566267967220000e-001) (7, 2.51056283712387080000e-001) (8, -6.07297718524932860000e-002) (9, 5.74212968349456790000e-001) (10, 7.55439341068267820000e-001) (11, 1.97983160614967350000e-002) (12, 6.39733910560607910000e-001) (13, 3.51172775030136110000e-001) (14, 5.07261872291564940000e-001) (15, 4.79553371667861940000e-001) (16, 5.69417834281921390000e-001) (17, 9.21257209777832030000e+000) (18, 4.70578849315643310000e-001) (19, -4.82055917382240300000e-002) (20, 9.13174915313720700000e+000) (21, 8.94744586944580080000e+000) (22, 1.01548004150390620000e+000) (23, 2.08141028881073000000e-001) (24, 6.99724197387695310000e-001) (25, 1.16156861186027530000e-001) (26, -2.92858704924583440000e-002) (27, 9.00458621978759770000e+000) (28, 2.65573590993881230000e-001) (29, 4.74610596895217900000e-001) (30, 9.27679443359375000000e+000) (31, 9.56278228759765620000e+000) (32, 5.47688603401184080000e-001) (33, 3.71335834264755250000e-001) (34, -5.51616437733173370000e-002) (35, -3.67372930049896240000e-001) (36, 1.09237894415855410000e-001) (37, 3.16624730825424190000e-001) (38, 5.20438998937606810000e-002) (39, 8.24212372303009030000e-001) (40, -8.94791632890701290000e-003) (41, 1.21107071638107300000e-001) (42, 5.83027362823486330000e-001) (43, 