FANN_FLO_2.1
num_layers=6
learning_rate=0.700000
connection_rate=1.000000
network_type=0
learning_momentum=0.000000
training_algorithm=2
train_error_function=1
train_stop_function=0
cascade_output_change_fraction=0.010000
quickprop_decay=-0.000100
quickprop_mu=1.750000
rprop_increase_factor=1.200000
rprop_decrease_factor=0.500000
rprop_delta_min=0.000000
rprop_delta_max=50.000000
rprop_delta_zero=0.100000
cascade_output_stagnation_epochs=12
cascade_candidate_change_fraction=0.010000
cascade_candidate_stagnation_epochs=12
cascade_max_out_epochs=150
cascade_min_out_epochs=50
cascade_max_cand_epochs=150
cascade_min_cand_epochs=50
cascade_num_candidate_groups=2
bit_fail_limit=3.49999994039535520000e-001
cascade_candidate_limit=1.00000000000000000000e+003
cascade_weight_multiplier=4.00000005960464480000e-001
cascade_activation_functions_count=10
cascade_activation_functions=3 5 7 8 10 11 14 15 16 17 
cascade_activation_steepnesses_count=4
cascade_activation_steepnesses=2.50000000000000000000e-001 5.00000000000000000000e-001 7.50000000000000000000e-001 1.00000000000000000000e+000 
layer_sizes=101 81 61 41 11 4 
scale_included=0
neurons (num_inputs, activation_function, activation_steepness)=(0, 0, 0.00000000000000000000e+000) (0, 0, 0.00000000000000000000e+000) (0, 0, 0.00000000000000000000e+000) (0, 0, 0.00000000000000000000e+000) (0, 0, 0.00000000000000000000e+000) (0, 0, 0.00000000000000000000e+000) (0, 0, 0.00000000000000000000e+000) (0, 0, 0.00000000000000000000e+000) (0, 0, 0.00000000000000000000e+000) (0, 0, 0.00000000000000000000e+000) (0, 0, 0.00000000000000000000e+000) (0, 0, 0.00000000000000000000e+000) (0, 0, 0.00000000000000000000e+000) (0, 0, 0.00000000000000000000e+000) (0, 0, 0.00000000000000000000e+000) (0, 0, 0.00000000000000000000e+000) (0, 0, 0.00000000000000000000e+000) (0, 0, 0.00000000000000000000e+000) (0, 0, 0.00000000000000000000e+000) (0, 0, 0.00000000000000000000e+000) (0, 0, 0.00000000000000000000e+000) (0, 0, 0.00000000000000000000e+000) (0, 0, 0.00000000000000000000e+000) (0, 0, 0.00000000000000000000e+000) (0, 0, 0.00000000000000000000e+000) (0, 0, 0.00000000000000000000e+000) (0, 0, 0.00000000000000000000e+000) (0, 0, 0.00000000000000000000e+000) (0, 0, 0.00000000000000000000e+000) (0, 0, 0.00000000000000000000e+000) (0, 0, 0.00000000000000000000e+000) (0, 0, 0.00000000000000000000e+000) (0, 0, 0.00000000000000000000e+000) (0, 0, 0.00000000000000000000e+000) (0, 0, 0.00000000000000000000e+000) (0, 0, 0.00000000000000000000e+000) (0, 0, 0.00000000000000000000e+000) (0, 0, 0.00000000000000000000e+000) (0, 0, 0.00000000000000000000e+000) (0, 0, 0.00000000000000000000e+000) (0, 0, 0.00000000000000000000e+000) (0, 0, 0.00000000000000000000e+000) (0, 0, 0.00000000000000000000e+000) (0, 0, 0.00000000000000000000e+000) (0, 0, 0.00000000000000000000e+000) (0, 0, 0.00000000000000000000e+000) (0, 0, 0.00000000000000000000e+000) (0, 0, 0.00000000000000000000e+000) (0, 0, 0.00000000000000000000e+000) (0, 0, 0.00000000000000000000e+000) (0, 0, 0.00000000000000000000e+000) (0, 0, 0.00000000000000000000e+000) (0, 0, 0.00000000000000000000e+000) (0, 0, 0.00000000000000000000e+000) (0, 0, 0.00000000000000000000e+000) (0, 0, 0.00000000000000000000e+000) (0, 0, 0.00000000000000000000e+000) (0, 0, 0.00000000000000000000e+000) (0, 0, 0.00000000000000000000e+000) (0, 0, 0.00000000000000000000e+000) (0, 0, 0.00000000000000000000e+000) (0, 0, 0.00000000000000000000e+000) (0, 0, 0.00000000000000000000e+000) (0, 0, 0.00000000000000000000e+000) (0, 0, 0.00000000000000000000e+000) (0, 0, 0.00000000000000000000e+000) (0, 0, 0.00000000000000000000e+000) (0, 0, 0.00000000000000000000e+000) (0, 0, 0.00000000000000000000e+000) (0, 0, 0.00000000000000000000e+000) (0, 0, 0.00000000000000000000e+000) (0, 0, 0.00000000000000000000e+000) (0, 0, 0.00000000000000000000e+000) (0, 0, 0.00000000000000000000e+000) (0, 0, 0.00000000000000000000e+000) (0, 0, 0.00000000000000000000e+000) (0, 0, 0.00000000000000000000e+000) (0, 0, 0.00000000000000000000e+000) (0, 0, 0.00000000000000000000e+000) (0, 0, 0.00000000000000000000e+000) (0, 0, 0.00000000000000000000e+000) (0, 0, 0.00000000000000000000e+000) (0, 0, 0.00000000000000000000e+000) (0, 0, 0.00000000000000000000e+000) (0, 0, 0.00000000000000000000e+000) (0, 0, 0.00000000000000000000e+000) (0, 0, 0.00000000000000000000e+000) (0, 0, 0.00000000000000000000e+000) (0, 0, 0.00000000000000000000e+000) (0, 0, 0.00000000000000000000e+000) (0, 0, 0.00000000000000000000e+000) (0, 0, 0.00000000000000000000e+000) (0, 0, 0.00000000000000000000e+000) (0, 0, 0.00000000000000000000e+000) (0, 0, 0.00000000000000000000e+000) (0, 0, 0.00000000000000000000e+000) (0, 0, 0.00000000000000000000e+000) (0, 0, 0.00000000000000000000e+000) (0, 0, 0.00000000000000000000e+000) (0, 0, 0.00000000000000000000e+000) (0, 0, 0.00000000000000000000e+000) (101, 6, 1.00000000000000000000e+000) (101, 6, 1.00000000000000000000e+000) (101, 6, 1.00000000000000000000e+000) (101, 6, 1.00000000000000000000e+000) (101, 6, 1.00000000000000000000e+000) (101, 6, 1.00000000000000000000e+000) (101, 6, 1.00000000000000000000e+000) (101, 6, 1.00000000000000000000e+000) (101, 6, 1.00000000000000000000e+000) (101, 6, 1.00000000000000000000e+000) (101, 6, 1.00000000000000000000e+000) (101, 6, 1.00000000000000000000e+000) (101, 6, 1.00000000000000000000e+000) (101, 6, 1.00000000000000000000e+000) (101, 6, 1.00000000000000000000e+000) (101, 6, 1.00000000000000000000e+000) (101, 6, 1.00000000000000000000e+000) (101, 6, 1.00000000000000000000e+000) (101, 6, 1.00000000000000000000e+000) (101, 6, 1.00000000000000000000e+000) (101, 6, 1.00000000000000000000e+000) (101, 6, 1.00000000000000000000e+000) (101, 6, 1.00000000000000000000e+000) (101, 6, 1.00000000000000000000e+000) (101, 6, 1.00000000000000000000e+000) (101, 6, 1.00000000000000000000e+000) (101, 6, 1.00000000000000000000e+000) (101, 6, 1.00000000000000000000e+000) (101, 6, 1.00000000000000000000e+000) (101, 6, 1.00000000000000000000e+000) (101, 6, 1.00000000000000000000e+000) (101, 6, 1.00000000000000000000e+000) (101, 6, 1.00000000000000000000e+000) (101, 6, 1.00000000000000000000e+000) (101, 6, 1.00000000000000000000e+000) (101, 6, 1.00000000000000000000e+000) (101, 6, 1.00000000000000000000e+000) (101, 6, 1.00000000000000000000e+000) (101, 6, 1.00000000000000000000e+000) (101, 6, 1.00000000000000000000e+000) (101, 6, 1.00000000000000000000e+000) (101, 6, 1.00000000000000000000e+000) (101, 6, 1.00000000000000000000e+000) (101, 6, 1.00000000000000000000e+000) (101, 6, 1.00000000000000000000e+000) (101, 6, 1.00000000000000000000e+000) (101, 6, 1.00000000000000000000e+000) (101, 6, 1.00000000000000000000e+000) (101, 6, 1.00000000000000000000e+000) (101, 6, 1.00000000000000000000e+000) (101, 6, 1.00000000000000000000e+000) (101, 6, 1.00000000000000000000e+000) (101, 6, 1.00000000000000000000e+000) (101, 6, 1.00000000000000000000e+000) (101, 6, 1.00000000000000000000e+000) (101, 6, 1.00000000000000000000e+000) (101, 6, 1.00000000000000000000e+000) (101, 6, 1.00000000000000000000e+000) (101, 6, 1.00000000000000000000e+000) (101, 6, 1.00000000000000000000e+000) (101, 6, 1.00000000000000000000e+000) (101, 6, 1.00000000000000000000e+000) (101, 6, 1.00000000000000000000e+000) (101, 6, 1.00000000000000000000e+000) (101, 6, 1.00000000000000000000e+000) (101, 6, 1.00000000000000000000e+000) (101, 6, 1.00000000000000000000e+000) (101, 6, 1.00000000000000000000e+000) (101, 6, 1.00000000000000000000e+000) (101, 6, 1.00000000000000000000e+000) (101, 6, 1.00000000000000000000e+000) (101, 6, 1.00000000000000000000e+000) (101, 6, 1.00000000000000000000e+000) (101, 6, 1.00000000000000000000e+000) (101, 6, 1.00000000000000000000e+000) (101, 6, 1.00000000000000000000e+000) (101, 6, 1.00000000000000000000e+000) (101, 6, 1.00000000000000000000e+000) (101, 6, 1.00000000000000000000e+000) (101, 6, 1.00000000000000000000e+000) (0, 6, 1.00000000000000000000e+000) (81, 6, 1.00000000000000000000e+000) (81, 6, 1.00000000000000000000e+000) (81, 6, 1.00000000000000000000e+000) (81, 6, 1.00000000000000000000e+000) (81, 6, 1.00000000000000000000e+000) (81, 6, 1.00000000000000000000e+000) (81, 6, 1.00000000000000000000e+000) (81, 6, 1.00000000000000000000e+000) (81, 6, 1.00000000000000000000e+000) (81, 6, 1.00000000000000000000e+000) (81, 6, 1.00000000000000000000e+000) (81, 6, 1.00000000000000000000e+000) (81, 6, 1.00000000000000000000e+000) (81, 6, 1.00000000000000000000e+000) (81, 6, 1.00000000000000000000e+000) (81, 6, 1.00000000000000000000e+000) (81, 6, 1.00000000000000000000e+000) (81, 6, 1.00000000000000000000e+000) (81, 6, 1.00000000000000000000e+000) (81, 6, 1.00000000000000000000e+000) (81, 6, 1.00000000000000000000e+000) (81, 6, 1.00000000000000000000e+000) (81, 6, 1.00000000000000000000e+000) (81, 6, 1.00000000000000000000e+000) (81, 6, 1.00000000000000000000e+000) (81, 6, 1.00000000000000000000e+000) (81, 6, 1.00000000000000000000e+000) (81, 6, 1.00000000000000000000e+000) (81, 6, 1.00000000000000000000e+000) (81, 6, 1.00000000000000000000e+000) (81, 6, 1.00000000000000000000e+000) (81, 6, 1.00000000000000000000e+000) (81, 6, 1.00000000000000000000e+000) (81, 6, 1.00000000000000000000e+000) (81, 6, 1.00000000000000000000e+000) (81, 6, 1.00000000000000000000e+000) (81, 6, 1.00000000000000000000e+000) (81, 6, 1.00000000000000000000e+000) (81, 6, 1.00000000000000000000e+000) (81, 6, 1.00000000000000000000e+000) (81, 6, 1.00000000000000000000e+000) (81, 6, 1.00000000000000000000e+000) (81, 6, 1.00000000000000000000e+000) (81, 6, 1.00000000000000000000e+000) (81, 6, 1.00000000000000000000e+000) (81, 6, 1.00000000000000000000e+000) (81, 6, 1.00000000000000000000e+000) (81, 6, 1.00000000000000000000e+000) (81, 6, 1.00000000000000000000e+000) (81, 6, 1.00000000000000000000e+000) (81, 6, 1.00000000000000000000e+000) (81, 6, 1.00000000000000000000e+000) (81, 6, 1.00000000000000000000e+000) (81, 6, 1.00000000000000000000e+000) (81, 6, 1.00000000000000000000e+000) (81, 6, 1.00000000000000000000e+000) (81, 6, 1.00000000000000000000e+000) (81, 6, 1.00000000000000000000e+000) (81, 6, 1.00000000000000000000e+000) (81, 6, 1.00000000000000000000e+000) (0, 6, 1.00000000000000000000e+000) (61, 6, 1.00000000000000000000e+000) (61, 6, 1.00000000000000000000e+000) (61, 6, 1.00000000000000000000e+000) (61, 6, 1.00000000000000000000e+000) (61, 6, 1.00000000000000000000e+000) (61, 6, 1.00000000000000000000e+000) (61, 6, 1.00000000000000000000e+000) (61, 6, 1.00000000000000000000e+000) (61, 6, 1.00000000000000000000e+000) (61, 6, 1.00000000000000000000e+000) (61, 6, 1.00000000000000000000e+000) (61, 6, 1.00000000000000000000e+000) (61, 6, 1.00000000000000000000e+000) (61, 6, 1.00000000000000000000e+000) (61, 6, 1.00000000000000000000e+000) (61, 6, 1.00000000000000000000e+000) (61, 6, 1.00000000000000000000e+000) (61, 6, 1.00000000000000000000e+000) (61, 6, 1.00000000000000000000e+000) (61, 6, 1.00000000000000000000e+000) (61, 6, 1.00000000000000000000e+000) (61, 6, 1.00000000000000000000e+000) (61, 6, 1.00000000000000000000e+000) (61, 6, 1.00000000000000000000e+000) (61, 6, 1.00000000000000000000e+000) (61, 6, 1.00000000000000000000e+000) (61, 6, 1.00000000000000000000e+000) (61, 6, 1.00000000000000000000e+000) (61, 6, 1.00000000000000000000e+000) (61, 6, 1.00000000000000000000e+000) (61, 6, 1.00000000000000000000e+000) (61, 6, 1.00000000000000000000e+000) (61, 6, 1.00000000000000000000e+000) (61, 6, 1.00000000000000000000e+000) (61, 6, 1.00000000000000000000e+000) (61, 6, 1.00000000000000000000e+000) (61, 6, 1.00000000000000000000e+000) (61, 6, 1.00000000000000000000e+000) (61, 6, 1.00000000000000000000e+000) (61, 6, 1.00000000000000000000e+000) (0, 6, 1.00000000000000000000e+000) (41, 6, 1.00000000000000000000e+000) (41, 6, 1.00000000000000000000e+000) (41, 6, 1.00000000000000000000e+000) (41, 6, 1.00000000000000000000e+000) (41, 6, 1.00000000000000000000e+000) (41, 6, 1.00000000000000000000e+000) (41, 6, 1.00000000000000000000e+000) (41, 6, 1.00000000000000000000e+000) (41, 6, 1.00000000000000000000e+000) (41, 6, 1.00000000000000000000e+000) (0, 6, 1.00000000000000000000e+000) (11, 4, 1.00000000000000000000e+000) (11, 4, 1.00000000000000000000e+000) (11, 4, 1.00000000000000000000e+000) (0, 4, 1.00000000000000000000e+000) 
connections (connected_to_neuron, weight)=(0, 1.09813299179077150000e+001) (1, -2.84521281719207760000e-003) (2, -1.04376327991485600000e+000) (3, -2.33315303921699520000e-001) (4, -7.89608061313629150000e-003) (5, -2.34223440289497380000e-001) (6, -4.80618290603160860000e-002) (7, 1.63731381297111510000e-001) (8, 1.12071506679058070000e-001) (9, 1.43146455287933350000e-001) (10, 2.19162166118621830000e-001) (11, 5.09829223155975340000e-001) (12, 8.11803698539733890000e-001) (13, -6.42161250114440920000e-001) (14, -1.96940839290618900000e-001) (15, -3.64152610301971440000e-001) (16, -5.75643062591552730000e-001) (17, 1.05397205352783200000e+001) (18, 2.03758195042610170000e-001) (19, 9.44932639598846440000e-001) (20, 1.09878349304199220000e+001) (21, 1.07944946289062500000e+001) (22, 1.47274303436279300000e+000) (23, 1.94184526801109310000e-001) (24, -1.82981923222541810000e-001) (25, 1.45012104511260990000e+000) (26, -9.70302999019622800000e-001) (27, 1.07550125122070310000e+001) (28, -1.64302632212638850000e-001) (29, 6.99708282947540280000e-001) (30, 1.10183763504028320000e+001) (31, 1.13262519836425780000e+001) (32, 1.43348538875579830000e+000) (33, 1.73094975948333740000e+000) (34, -4.99576538801193240000e-001) (35, 3.68735119700431820000e-002) (36, -5.44086694717407230000e-001) (37, 1.60590782761573790000e-001) (38, 7.13595449924468990000e-001) (39, 8.56066048145294190000e-001) (40, 7.48900592327117920000e-001) (41, -2.48004242777824400000e-001) (42, -3.67586016654968260000e-001) (43, 8.27493727207183840000e-001) (44, -9.70685899257659910000e-001) (45, 5.62866568565368650000e-001) (46, -1.35816529393196110000e-001) (47, 1.06526222229003910000e+001) (48, 3.27940702438354490000e-001) (49, 1.11806621551513670000e+001) (50, 1.13367958068847660000e+001) (51, 1.09012756347656250000e+001) (52, 1.06450045108795170000e+000) (53, 9.27646338939666750000e-001) (54, 2.18502789735794070000e-001) (55, 1.33470046520233150000e+000) (56, 2.68649816513061520000e-001) (57, 1.10933017730712890000e+001) (58, 3.00316154956817630000e-001) (59, 1.06630697250366210000e+001) (60, 1.11437759399414060000e+001) (61, 1.05577306747436520000e+001) (62, 2.40986227989196780000e-001) (63, 1.11413087844848630000e+001) (64, 3.84700238704681400000e-001) (65, 4.89905625581741330000e-001) (66, 6.85025095939636230000e-001) (67, 1.09828196465969090000e-001) (68, 2.49136909842491150000e-001) (69, 3.61835807561874390000e-001) (70, 2.06471502780914310000e-001) (71, 4.69674229621887210000e-001) (72, 4.15928274393081670000e-001) (73, -7.11062550544738770000e-001) (74, -8.79351556301116940000e-001) (75, 1.58667564392089840000e-004) (76, 5.27942776679992680000e-001) (77, 1.09873218536376950000e+001) (78, 1.73645818233489990000e+000) (79, 1.06926488876342770000e+001) (80, 1.04938287734985350000e+001) (81, 4.54210460186004640000e-001) (82, -3.44614863395690920000e-001) (83, -3.11926841735839840000e-001) (84, -6.91332340240478520000e-001) (85, -4.81392592191696170000e-001) (86, 1.22515037655830380000e-001) (87, 1.06103200912475590000e+001) (88, 1.58965039253234860000e+000) (89, 1.10870208740234380000e+001) (90, 1.05862207412719730000e+001) (91, 1.11489677429199220000e+001) (92, 1.10301694869995120000e+001) (93, 1.09519739151000980000e+001) (94, 1.06951169967651370000e+001) (95, 1.14996595382690430000e+001) (96, 1.06797981262207030000e+001) (97, 1.11468849182128910000e+001) (98, 1.24924623966217040000e+000) (99, 1.05657749176025390000e+001) (100, 1.01385749876499180000e-001) (0, 1.15042743682861330000e+001) (1, 1.75511360168457030000e-001) (2, -1.58662691712379460000e-001) (3, -2.36583161354064940000e+000) (4, -2.45524287223815920000e+000) (5, -2.70728802680969240000e+000) (6, -2.52356195449829100000e+000) (7, -3.96187841892242430000e-001) (8, -7.11306929588317870000e-001) (9, 1.38352084159851070000e+000) (10, 6.65762126445770260000e-001) (11, 8.23145389556884770000e-001) (12, 7.55352079868316650000e-001) (13, 9.12539660930633540000e-002) (14, 5.07343769073486330000e-001) (15, 4.45919126272201540000e-001) (16, -1.49805009365081790000e+000) (17, 1.11798295974731450000e+001) (18, -7.66716301441192630000e-001) (19, 4.61301773786544800000e-001) (20, 1.14371356964111330000e+001) (21, 1.09515895843505860000e+001) (22, 5.12664735317230220000e-001) (23, 3.80881816148757930000e-001) (24, -7.14755505323410030000e-002) (25, 1.25854229927062990000e+000) (26, -9.94430005550384520000e-001) (27, 1.12311363220214840000e+001) (28, -2.65019059181213380000e-001) (29, 9.16338264942169190000e-001) (30, 1.13138818740844730000e+001) (31, 1.14320402145385740000e+001) (32, 8.81526827812194820000e-001) (33, 1.06858038902282710000e+000) (34, 2.61057406663894650000e-001) (35, 1.05694687366485600000e+000) (36, -3.30890798568725590000e+000) (37, -8.42507660388946530000e-001) (38, -6.01866126060485840000e-001) (39, 1.10041689872741700000e+000) (40, 7.59115338325500490000e-001) (41, -7.82745331525802610000e-002) (42, -1.72026202082633970000e-001) (43, 1.71368718147277830000e-001) (44, -7.14637219905853270000e-001) (45, 1.73749074339866640000e-001) (46, 7.02368170022964480000e-002) (47, 1.07356243133544920000e+001) (48, -5.47065615653991700000e-001) (49, 1.12258167266845700000e+001) (50, 1.11838350296020510000e+001) (51, 1.14532871246337890000e+001) (52, 9.22427237033843990000e-001) (53, 5.00193119049072270000e-001) (54, 7.59114682674407960000e-001) (55, 1.07627165317535400000e+000) (56, 6.76087141036987300000e-001) (57, 1.08039169311523440000e+001) (58, 5.67415416240692140000e-001) (59, 1.14329690933227540000e+001) (60, 1.12446928024291990000e+001) (61, 1.11814956665039060000e+001) (62, 1.38307225704193120000e+000) (63, 1.11320466995239260000e+001) (64, 3.93495768308639530000e-001) (65, 3.81362199783325200000e-001) (66, 3.94895046949386600000e-001) (67, 4.59288418292999270000e-001) (68, 2.29030042886734010000e-001) (69, 7.48571813106536870000e-001) (70, 1.46126711368560790000e+000) (71, 1.42636787891387940000e+000) (72, -2.22998131066560750000e-002) (73, 8.42790305614471440000e-001) (74, 5.98004996776580810000e-001) (75, 3.80318731069564820000e-001) (76, -2.54175901412963870000e-001) (77, 1.13686504364013670000e+001) (78, 6.59125924110412600000e-001) (79, 1.13198108673095700000e+001) (80, 1.11726503372192380000e+001) (81, 4.31407421827316280000e-001) (82, -2.14454627037048340000e+000) (83, -2.70710086822509770000e+000) (84, -1.89925789833068850000e+000) (85, -8.44673871994018550000e-001) (86, 2.01341465115547180000e-001) (87, 1.08266057968139650000e+001) (88, 4.77066367864608760000e-001) (89, 1.10932703018188480000e+001) (90, 1.07093133926391600000e+001) (91, 1.06405725479125980000e+001) (92, 1.05375413894653320000e+001) (93, 1.05618009567260740000e+001) (94, 1.13060951232910160000e+001) (95, 1.14598245620727540000e+001) (96, 1.08526601791381840000e+001) (97, 1.14974155426025390000e+001) (98, 5.75450956821441650000e-001) (99, 1.09439306259155270000e+001) (100, 5.47084882855415340000e-002) (0, 1.14602088928222660000e+001) (1, -7.58631229400634770000e-001) (2, -2.09930196404457090000e-001) (3, 2.87312537431716920000e-001) (4, 3.22307974100112920000e-001) (5, -2.63687729835510250000e-001) (6, -6.24473989009857180000e-001) (7, -4.36072021722793580000e-001) (8, -4.50013093650341030000e-002) (9, 8.97646367549896240000e-001) (10, 7.24656224250793460000e-001) (11, 1.17430901527404790000e+000) (12, -1.89526960253715520000e-001) (13, -5.75417995452880860000e-001) (14, -6.72925651073455810000e-001) (15, -6.31019651889801030000e-001) (16, 1.04212537407875060000e-001) (17, 1.13940639495849610000e+001) (18, -7.45807051658630370000e-001) (19, 1.37252020835876460000e+000) (20, 1.12237653732299800000e+001) (21, 1.12989482879638670000e+001) (22, -5.17563521862030030000e-001) (23, -8.06628942489624020000e-001) (24, -3.07344019412994380000e-001) (25, -1.11652627587318420000e-001) (26, -5.14552593231201170000e-001) (27, 1.09219779968261720000e+001) (28, -4.77508872747421260000e-001) (29, 1.10851645469665530000e+000) (30, 1.07018785476684570000e+001) (31, 1.06297092437744140000e+001) (32, -5.78196585178375240000e-001) (33, -6.53764367103576660000e-001) (34, -8.78839790821075440000e-001) (35, 2.87896245718002320000e-002) (36, -3.15764307975769040000e-001) (37, -8.97711366415023800000e-002) (38, -6.19605779647827150000e-001) (39, 9.85872089862823490000e-001) (40, 8.45569908618927000000e-001) (41, -5.38988113403320310000e-001) (42, 1.11445926129817960000e-001) (43, -2.03823134303092960000e-001) (44, -2.83721745014190670000e-001) (45, -2.04349756240844730000e+000) (46, -5.88913798332214360000e-001) (47, 1.09181003570556640000e+001) (48, -3.78291040658950810000e-001) (49, 1.06628456115722660000e+001) (50, 1.06992187500000000000e+001) (51, 1.14878654479980470000e+001) (52, 1.17437314987182620000e+000) (53, -1.57322868704795840000e-001) (54, -9.04885351657867430000e-001) (55, -1.10982760787010190000e-001) (56, -2.74916321039199830000e-001) (57, 1.10995187759399410000e+001) (58, -1.83018427342176440000e-002) (59, 1.11165361404418950000e+001) (60, 1.06550264358520510000e+001) (61, 1.06733570098876950000e+001) (62, 5.98262667655944820000e-001) (63, 1.15102024078369140000e+001) (64, -1.42045125365257260000e-001) (65, -2.49617770314216610000e-001) (66, 1.17537960410118100000e-001) (67, -1.78793683648109440000e-001) (68, -6.64045065641403200000e-002) (69, 1.55675888061523440000e+000) (70, 1.58544111251831050000e+000) (71, 1.16764330863952640000e+000) (72, -4.63574498891830440000e-001) (73, -3.37468206882476810000e-001) (74, -9.96344745159149170000e-001) (75, -4.07843589782714840000e-001) (76, -6.30382776260375980000e-001) (77, 1.14195737838745120000e+001) (78, -1.26250123977661130000e+000) (79, 1.05045967102050780000e+001) (80, 1.12188949584960940000e+001) (81, -4.14733827114105220000e-001) (82, -9.31185632944107060000e-002) (83, -3.82567793130874630000e-001) (84, 2.13924691081047060000e-001) (85, -2.77340024709701540000e-001) (86, -7.91085809469223020000e-002) (87, 1.05881433486938480000e+001) (88, -8.52522850036621090000e-001) (89, 1.12299833297729490000e+001) (90, 1.08200044631958010000e+001) (91, 1.13566007614135740000e+001) (92, 1.05401697158813480000e+001) (93, 1.07935333251953130000e+001) (94, 1.13433332443237300000e+001) (95, 1.05713834762573240000e+001) (96, 1.10605497360229490000e+001) (97, 1.10813484191894530000e+001) (98, -1.53717708587646480000e+000) (99, 1.07111082077026370000e+001) (100, -2.47088819742202760000e-002) (0, 1.09672927856445310000e+001) (1, 3.92692899703979490000e+000) (2, 1.11876153945922850000e+000) (3, 2.07180666923522950000e+000) (4, 1.08671116828918460000e+000) (5, 1.76332443952560420000e-001) (6, -4.22146856784820560000e-001) (7, 2.90555030107498170000e-001) (8, 8.39154124259948730000e-002) (9, -3.64978611469268800000e-001) (10, -1.09231960773468020000e+000) (11, -6.31001532077789310000e-001) (12, 1.34533196687698360000e-001) (13, 1.07481718063354490000e+000) (14, 3.40358495712280270000e+000) (15, 4.10544931888580320000e-001) (16, 7.66067922115325930000e-001) (17, 1.12465190887451170000e+001) (18, -1.10866829752922060000e-001) (19, -8.13221335411071780000e-001) (20, 1.14837961196899410000e+001) (21, 1.07960329055786130000e+001) (22, 4.44167777895927430000e-002) (23, 1.08921396732330320000e+000) (24, 3.22371959686279300000e+000) (25, -2.16590657830238340000e-001) (26, 7.57126867771148680000e-001) (27, 1.08467636108398440000e+001) (28, 2.03483089804649350000e-001) (29, -1.00774729251861570000e+000) (30, 1.13407373428344730000e+001) (31, 1.09491224288940430000e+001) (32, 4.30776506662368770000e-001) (33, 2.76533842086791990000e-001) (34, 7.33619570732116700000e-001) (35, -5.64193278551101680000e-002) (36, -3.94874870777130130000e-001) (37, -3.98329108953475950000e-001) (38, -3.56924265623092650000e-001) (39, -5.86680352687835690000e-001) (40, -1.14865839481353760000e+000) (41, -2.09974303841590880000e-001) (42, 3.14300990104675290000e+000) (43, 3.31529521942138670000e+000) (44, 2.53094244003295900000e+000) (45, 4.82026070356369020000e-001) (46, 1.35756278038024900000e+000) (47, 1.09374570846557620000e+001) (48, 2.60623097419738770000e-001) (49, 1.08736515045166020000e+001) (50, 1.05926628112792970000e+001) (51, 1.11687088012695310000e+001) (52, -1.11170804500579830000e+000) (53, 5.02976477146148680000e-001) (54, 2.30990123748779300000e+000) (55, 4.55234676599502560000e-001) (56, 7.20017850399017330000e-001) (57, 1.05871820449829100000e+001) (58, 3.49221706390380860000e+000) (59, 1.05004625320434570000e+001) (60, 1.05310039520263670000e+001) (61, 1.10219335556030270000e+001) (62, -6.51383459568023680000e-001) (63, 1.13547744750976560000e+001) (64, 3.21215057373046870000e+000) (65, 5.30609428882598880000e-001) (66, 1.68737792968750000000e+000) (67, 3.27391242980957030000e+000) (68, 2.75599932670593260000e+000) (69, -1.22403299808502200000e+000) (70, -4.58684265613555910000e-001) (71, -8.62830281257629390000e-001) (72, 4.33338522911071780000e-001) (73, 6.80253207683563230000e-001) (74, 2.57138586044311520000e+000) (75, 5.59820294380187990000e-001) (76, 6.65922403335571290000e-001) (77, 1.14604015350341800000e+001) (78, 1.57710385322570800000e+000) (79, 1.10147867202758790000e+001) (80, 1.13655099868774410000e+001) (81, 3.92897987365722660000e+000) (82, 1.51364243030548100000e+000) (83, 1.66939139366149900000e+000) (84, 1.21483540534973140000e+000) (85, 4.04384344816207890000e-001) (86, 8.00648331642150880000e-001) (87, 1.11081714630126950000e+001) (88, 1.80630469322204590000e+000) (89, 1.06244850158691410000e+001) (90, 1.08497438430786130000e+001) (91, 1.08556728363037110000e+001) (92, 1.11671380996704100000e+001) (93, 1.10472183227539060000e+001) (94, 1.14324884414672850000e+001) (95, 1.06692552566528320000e+001) (96, 1.08987445831298830000e+001) (97, 1.11623954772949220000e+001) (98, 1.58133411407470700000e+000) (99, 1.12780218124389650000e+001) (100, -1.50031939148902890000e-001) (0, 1.07317790985107420000e+001) (1, -1.90597081184387210000e+000) (2, 2.47924983501434330000e-001) (3, -5.68658781051635740000e+000) (4, -4.76952791213989260000e+000) (5, -2.82709598541259770000e+000) (6, -2.78703737258911130000e+000) (7, -2.95716762542724610000e+000) (8, -2.23223018646240230000e+000) (9, 3.48499345779418950000e+000) (10, 3.48079538345336910000e+000) (11, 4.36561536788940430000e+000) (12, 1.40346562862396240000e+000) (13, 8.17633450031280520000e-001) (14, 5.75171262025833130000e-002) (15, 3.36638540029525760000e-001) (16, -1.52251958847045900000e+000) (17, 1.06192932128906250000e+001) (18, -2.21893072128295900000e+000) (19, 3.64010143280029300000e+000) (20, 1.05602626800537110000e+001) (21, 1.06391305923461910000e+001) (22, 7.14517176151275630000e-001) (23, 1.80872827768325810000e-001) (24, -2.26412916183471680000e+000) (25, 6.40016913414001460000e-001) (26, -1.33385825157165530000e+000) (27, 1.05659675598144530000e+001) (28, -2.20534276962280270000e+000) (29, 4.06434059143066410000e+000) (30, 1.09660749435424800000e+001) (31, 1.09176197052001950000e+001) (32, 9.99768257141113280000e-001) (33, 4.23360854387283330000e-001) (34, -5.79865984618663790000e-002) (35, -3.21740150451660160000e-001) (36, -3.34315061569213870000e+000) (37, -3.20377016067504880000e+000) (38, -2.27059078216552730000e+000) (39, 4.50203990936279300000e+000) (40, 4.12183332443237300000e+000) (41, -2.26113311946392060000e-002) (42, -5.87236694991588590000e-002) (43, 2.90578335523605350000e-001) (44, -8.58416557312011720000e-001) (45, 5.20671546459198000000e-001) (46, -2.78875857591629030000e-001) (47, 1.14078445434570310000e+001) (48, -2.66364812850952150000e+000) (49, 1.14332256317138670000e+001) (50, 1.12428016662597660000e+001) (51, 1.06957254409790040000e+001) (52, 4.10276508331298830000e+000) (53, 2.61311024427413940000e-001) (54, 3.24187427759170530000e-001) (55, 1.39756047725677490000e+000) (56, 3.33223611116409300000e-001) (57, 1.15362892150878910000e+001) (58, -5.44859468936920170000e-003) (59, 1.07281255722045900000e+001) (60, 1.10833673477172850000e+001) (61, 1.13293933868408200000e+001) (62, 3.89019680023193360000e+000) (63, 1.14671955108642580000e+001) (64, -1.62104034423828130000e+000) (65, -2.79696732759475710000e-001) (66, -4.27609756588935850000e-002) (67, -7.10035860538482670000e-001) (68, -7.24136650562286380000e-001) (69, 4.14067697525024410000e+000) (70, 4.25325822830200200000e+000) (71, 3.52479600906372070000e+000) (72, 1.05776500701904300000e+000) (73, 1.65314808487892150000e-001) (74, 1.34269893169403080000e-001) (75, 3.14077407121658330000e-001) (76, -4.73946481943130490000e-001) (77, 1.13267974853515630000e+001) (78, 1.27755010128021240000e+000) (79, 1.12485704421997070000e+001) (80, 1.10767974853515620000e+001) (81, -1.97330188751220700000e+000) (82, -5.15518236160278320000e+000) (83, -5.55170106887817380000e+000) (84, -5.41998815536499020000e+000) (85, -1.05001711845397950000e+000) (86, 1.87088862061500550000e-001) (87, 1.14733486175537110000e+001) (88, 1.59984767436981200000e+000) (89, 1.06960144042968750000e+001) (90, 1.07419052124023440000e+001) (91, 1.08399057388305660000e+001) (92, 1.07140569686889650000e+001) (93, 1.05866374969482420000e+001) (94, 1.09101533889770510000e+001) (95, 1.11611776351928710000e+001) (96, 1.14829301834106450000e+001) (97, 1.14521970748901370000e+001) (98, 1.56216037273406980000e+000) (99, 1.11628122329711910000e+001) (100, 7.54311263561248780000e-001) (0, 1.12144079208374020000e+001) (1, -7.56024003028869630000e-001) (2, -8.17140221595764160000e-001) (3, -1.36356878280639650000e+000) (4, -1.22887492179870610000e+000) (5, -2.33808636665344240000e+000) (6, -2.52959966659545900000e+000) (7, -1.05439674854278560000e+000) (8, -3.18723738193511960000e-001) (9, 1.78288161754608150000e-001) (10, -9.53619927167892460000e-002) (11, -2.49572619795799260000e-001) (12, 4.34464544057846070000e-001) (13, 4.78470996022224430000e-002) (14, 1.79605558514595030000e-001) (15, -2.42852151393890380000e-001) (16, -2.17955565452575680000e+000) (17, 1.08669538497924800000e+001) (18, -9.37008321285247800000e-001) (19, -3.03315550088882450000e-001) (20, 1.12111072540283200000e+001) (21, 1.08566026687622070000e+001) (22, 1.16415575146675110000e-001) (23, 6.90167903900146480000e-001) (24, 5.04091382026672360000e-002) (25, 9.98159527778625490000e-001) (26, -2.31819128990173340000e+000) (27, 1.08816633224487300000e+001) (28, -9.82451140880584720000e-001) (29, 3.01605373620986940000e-001) (30, 1.07973146438598630000e+001) (31, 1.10260992050170900000e+001) (32, 7.82001733779907230000e-001) (33, 8.63337397575378420000e-001) (34, -2.53025535494089130000e-002) (35, 6.97891235351562500000e-001) (36, -2.52645921707153320000e+000) (37, -9.76714670658111570000e-001) (38, -6.86752617359161380000e-001) (39, 2.58886575698852540000e-001) (40, -3.31997722387313840000e-001) (41, 1.09081134200096130000e-001) (42, -4.88709896802902220000e-001) (43, 1.20594315230846410000e-001) (44, 1.90469518303871150000e-001) (45, 4.05288010835647580000e-001) (46, 1.01454865932464600000e+000) (47, 1.12257843017578120000e+001) (48, -9.85495626926422120000e-001) (49, 1.05360994338989260000e+001) (50, 1.10011987686157230000e+001) (51, 1.12602033615112300000e+001) (52, 2.68976688385009770000e-002) (53, 1.90361484885215760000e-001) (54, 3.75820547342300420000e-001) (55, 7.61347770690917970000e-001) (56, 6.59082233905792240000e-001) (57, 1.12208175659179690000e+001) (58, 1.08107829093933110000e+000) (59, 1.06572370529174800000e+001) (60, 1.06160249710083010000e+001) (61, 1.09764585494995120000e+001) (62, 2.57925152778625490000e-001) (63, 1.07556219100952150000e+001) (64, -1.51423498988151550000e-001) (65, 3.01028460264205930000e-001) (66, 3.10863610357046130000e-002) (67, 3.04801702499389650000e-001) (68, 9.46063876152038570000e-001) (69, -1.38593539595603940000e-001) (70, -5.08865535259246830000e-001) (71, -4.07212167978286740000e-001) (72, 1.87689587473869320000e-001) (73, -4.63912904262542720000e-001) (74, 9.66677293181419370000e-002) (75, 1.24824166297912600000e-001) (76, 8.34540009498596190000e-001) (77, 1.13138179779052730000e+001) (78, 4.65838640928268430000e-001) (79, 1.08846111297607420000e+001) (80, 1.06343240737915040000e+001) (81, -7.71062523126602170000e-002) (82, -1.76803505420684810000e+000) (83, -1.20663428306579590000e+000) (84, -1.99502468109130860000e+000) (85, -1.85966169834136960000e+000) (86, 4.32893902063369750000e-001) (87, 1.08208694458007810000e+001) (88, 8.94628763198852540000e-001) (89, 1.12276115417480470000e+001) (90, 1.13798351287841800000e+001) (91, 1.11042623519897460000e+001) (92, 1.08865985870361330000e+001) (93, 1.14500503540039060000e+001) (94, 1.07704277038574220000e+001) (95, 1.12265214920043950000e+001) (96, 1.07829580307006840000e+001) (97, 1.08341054916381840000e+001) (98, 4.27894920110702510000e-001) (99, 1.15430507659912110000e+001) (100, 7.07139909267425540000e-001) (0, 1.13983583450317380000e+001) (1, 3.69174808263778690000e-001) (2, 7.32839703559875490000e-001) (3, 3.95504891872406010000e-001) (4, 1.95659264922142030000e-001) (5, -8.27130138874053960000e-001) (6, -3.30720692873001100000e-001) (7, -8.72362434864044190000e-001) (8, -1.37303400039672850000e+000) (9, 3.78309696912765500000e-001) (10, 9.30929780006408690000e-001) (11, 1.13705229014158250000e-002) (12, 6.22231245040893550000e-001) (13, 5.49307644367218020000e-001) (14, 1.22074577957391740000e-002) (15, 4.17241603136062620000e-001) (16, 4.01478022336959840000e-001) (17, 1.06080446243286130000e+001) (18, -4.54821050167083740000e-001) (19, 4.80892449617385860000e-001) (20, 1.06284265518188480000e+001) (21, 1.13292970657348630000e+001) (22, -7.81338289380073550000e-002) (23, 8.71797144412994380000e-001) (24, 1.69649586081504820000e-001) (25, 1.11539416015148160000e-001) (26, 7.97183811664581300000e-003) (27, 1.07499494552612300000e+001) (28, -6.96584224700927730000e-001) (29, -1.12782604992389680000e-003) (30, 1.13615999221801760000e+001) (31, 1.06215047836303710000e+001) (32, 5.61654388904571530000e-001) (33, 1.49153202772140500000e-001) (34, 4.82950955629348750000e-001) (35, 7.02254533767700200000e-001) (36, -7.92551338672637940000e-001) (37, -8.45795512199401860000e-001) (38, -5.93008041381835940000e-001) (39, 9.09618496894836430000e-001) (40, 6.23950660228729250000e-001) (41, 4.57846879959106450000e-001) (42, 8.59993755817413330000e-001) (43, 9.03519570827484130000e-001) (44, 9.92009818553924560000e-001) (45, 1.26021611690521240000e+000) (46, 6.54804229736328130000e-001) (47, 1.11855335235595700000e+001) (48, -1.01365804672241210000e+000) (49, 1.09189338684082030000e+001) (50, 1.08219909667968750000e+001) (51, 1.10162286758422850000e+001) (52, 9.31346416473388670000e-001) (53, 6.39583945274353030000e-001) (54, 1.08100211620330810000e+000) (55, -2.24378123879432680000e-001) (56, 1.27071726322174070000e+000) (57, 1.04971942901611330000e+001) (58, 4.22725945711135860000e-001) (59, 1.05423803329467770000e+001) (60, 1.10995512008666990000e+001) (61, 1.06407327651977540000e+001) (62, 6.83141708374023440000e-001) (63, 1.13975248336791990000e+001) (64, -4.76003140211105350000e-001) (65, 7.71764636039733890000e-001) (66, 1.18292242288589480000e-001) (67, 6.65931224822998050000e-001) (68, 1.41895562410354610000e-002) (69, 1.61447048187255860000e-001) (70, 7.00166821479797360000e-002) (71, 5.95813274383544920000e-001) (72, 3.08394104242324830000e-001) (73, 3.37155908346176150000e-001) (74, 9.16319966316223140000e-001) (75, 1.81407049298286440000e-001) (76, 1.24540007114410400000e+000) (77, 1.13964357376098630000e+001) (78, 6.25520110130310060000e-001) (79, 1.05460662841796870000e+001) (80, 1.13789377212524410000e+001) (81, -5.17600297927856450000e-001) (82, 9.46468636393547060000e-002) (83, 4.02298867702484130000e-001) (84, 1.10259199142456050000e+000) (85, 1.36544749140739440000e-001) (86, 9.92452383041381840000e-001) (87, 1.05096282958984370000e+001) (88, 9.42754328250885010000e-001) (89, 1.11610174179077150000e+001) (90, 1.07214593887329100000e+001) (91, 1.12659721374511720000e+001) (92, 1.06274976730346680000e+001) (93, 1.09149599075317380000e+001) (94, 1.13898658752441410000e+001) (95, 1.08178577423095700000e+001) (96, 1.06088142395019530000e+001) (97, 1.14358854293823240000e+001) (98, 1.02566003799438480000e+000) (99, 1.10820217132568360000e+001) (100, 5.37287473678588870000e-001) (0, 1.05605831146240230000e+001) (1, -5.72248339653015140000e-001) (2, 7.80780911445617680000e-002) (3, -1.42099094390869140000e+000) (4, -2.10103011131286620000e+000) (5, -6.25294399261474610000e+000) (6, -5.90141868591308590000e+000) (7, -3.10387492179870610000e-001) (8, -2.83275723457336430000e-001) (9, 6.85103297233581540000e-001) (10, 9.52888786792755130000e-001) (11, 1.14603674411773680000e+000) (12, 2.81853944063186650000e-001) (13, -1.95816885679960250000e-002) (14, -4.07550632953643800000e-002) (15, 1.44523251801729200000e-002) (16, -9.35325682163238530000e-001) (17, 1.06327533721923830000e+001) (18, -4.06400680541992190000e-001) (19, 1.21727740764617920000e+000) (20, 1.05375413894653320000e+001) (21, 1.08438158035278320000e+001) (22, -3.18417161703109740000e-001) (23, 8.11313807964324950000e-001) (24, -3.65672707557678220000e-001) (25, 6.85992300510406490000e-001) (26, -8.84402930736541750000e-001) (27, 1.12595300674438480000e+001) (28, -7.92318880558013920000e-002) (29, 9.77308690547943120000e-001) (30, 1.10929813385009770000e+001) (31, 1.08411235809326170000e+001) (32, 6.39726877212524410000e-001) (33, 8.58373418450355530000e-002) (34, 1.00380206108093260000e+000) (35, -4.20726597309112550000e-001) (36, -6.49310493469238280000e+000) (37, -6.17687165737152100000e-001) (38, -4.12906289100646970000e-001) (39, 9.21226322650909420000e-001) (40, 1.17375743389129640000e+000) (41, -9.78972762823104860000e-002) (42, 2.65113115310668950000e-002) (43, -2.38273903727531430000e-001) (44, -3.01776140928268430000e-001) (45, -7.14854836463928220000e-001) (46, 7.20435380935668950000e-001) (47, 1.05823431015014650000e+001) (48, -2.78596878051757810000e-001) (49, 1.13408021926879880000e+001) (50, 1.10137290954589840000e+001) (51, 1.08064165115356450000e+001) (52, 7.69323050975799560000e-001) (53, 8.50827872753143310000e-001) (54, -2.17085584998130800000e-001) (55, 8.58182832598686220000e-002) (56, 7.43028581142425540000e-001) (57, 1.14532546997070310000e+001) (58, -5.09012937545776370000e-001) (59, 1.09199590682983400000e+001) (60, 1.09407901763916020000e+001) (61, 1.09757213592529300000e+001) (62, 1.02614855766296390000e+000) (63, 1.13391990661621090000e+001) (64, -6.42111003398895260000e-001) (65, -1.02080821990966800000e+000) (66, 3.54949802160263060000e-001) (67, -4.13031876087188720000e-001) (68, 2.11245447397232060000e-001) (69, 9.56317842006683350000e-001) (70, 1.14440226554870610000e+000) (71, 5.81238746643066410000e-001) (72, 6.36958897113800050000e-001) (73, 9.57237333059310910000e-002) (74, 3.28570976853370670000e-002) (75, -4.77831512689590450000e-002) (76, 4.87164676189422610000e-001) (77, 1.12878923416137700000e+001) (78, -2.12044283747673030000e-001) (79, 1.06603460311889650000e+001) (80, 1.11964292526245120000e+001) (81, -3.40996444225311280000e-001) (82, -1.65753054618835450000e+000) (83, -1.31193470954895020000e+000) (84, -1.77107334136962890000e+000) (85, -1.76063442230224610000e+000) (86, 4.40824687480926510000e-001) (87, 1.05322217941284180000e+001) (88, 1.45607069134712220000e-002) (89, 1.13731374740600590000e+001) (90, 1.06652173995971680000e+001) (91, 1.06086540222167970000e+001) (92, 1.07596921920776370000e+001) (93, 1.06144866943359380000e+001) (94, 1.09462060928344730000e+001) (95, 1.14783477783203130000e+001) (96, 1.05787858963012700000e+001) (97, 1.05771837234497070000e+001) (98, -3.54397386312484740000e-001) (99, 1.05620899200439450000e+001) (100, -7.52020776271820070000e-001) (0, 1.14549856185913090000e+001) (1, -1.03915739059448240000e+000) (2, 2.88087457418441770000e-001) (3, -2.96169853210449220000e+000) (4, -3.29005336761474610000e+000) (5, -9.34136509895324710000e-001) (6, -3.40848654508590700000e-001) (7, 4.30583357810974120000e-001) (8, -2.73779690265655520000e-001) (9, -1.94821767508983610000e-002) (10, 6.82124793529510500000e-001) (11, 1.51008397340774540000e-001) (12, 4.56512957811355590000e-001) (13, -1.68487682938575740000e-001) (14, 2.66323443502187730000e-002) (15, -1.78870961070060730000e-001) (16, -1.22410380840301510000e+000) (17, 1.09005708694458010000e+001) (18, 1.43537566065788270000e-001) (19, 7.55374208092689510000e-002) (20, 1.06923933029174800000e+001) (21, 1.10031213760375980000e+001) (22, 5.54550290107727050000e-001) (23, 2.52509188652038570000e+000) (24, -6.67282819747924800000e-001) (25, 9.79185700416564940000e-001) (26, -1.20381796360015870000e+000) (27, 1.08722410202026370000e+001) (28, -4.95737820863723750000e-001) (29, 7.95475304126739500000e-001) (30, 1.06876497268676760000e+001) (31, 1.09689588546752930000e+001) (32, 4.54691588878631590000e-001) (33, 2.09287047386169430000e+000) (34, 6.01932585239410400000e-001) (35, 5.86289823055267330000e-001) (36, -1.20076823234558110000e+000) (37, -2.74196326732635500000e-001) (38, 1.66611418128013610000e-001) (39, 4.60038483142852780000e-001) (40, 3.54475349187850950000e-001) (41, 1.30736187100410460000e-001) (42, 5.72120249271392820000e-001) (43, -2.34006673097610470000e-001) (44, 2.64581978321075440000e-001) (45, 5.74625074863433840000e-001) (46, 8.03682804107666020000e-001) (47, 1.11734514236450200000e+001) (48, -4.49910491704940800000e-001) (49, 1.07810993194580080000e+001) (50, 1.14920320510864260000e+001) (51, 1.09612684249877930000e+001) (52, 6.90681397914886470000e-001) (53, 1.82499098777771000000e+000) (54, 1.79543808102607730000e-001) (55, 6.96147680282592770000e-001) (56, 7.40261554718017580000e-001) (57, 1.09454050064086910000e+001) (58, 3.10075998306274410000e-001) (59, 1.11457633972167970000e+001) (60, 1.07553014755249020000e+001) (61, 1.14855260848999020000e+001) (62, 7.68043041229248050000e-001) (63, 1.06159610748291020000e+001) (64, -8.18993806838989260000e-001) (65, -1.03780090808868410000e-001) (66, -2.38069463521242140000e-002) (67, 5.47448754310607910000e-001) (68, 4.68004107475280760000e-001) (69, 1.61423712968826290000e-001) (70, 2.36702293157577510000e-001) (71, 3.56590479612350460000e-001) (72, 3.29860031604766850000e-001) (73, 6.84702038764953610000e-001) (74, 3.82963925600051880000e-001) (75, 8.15037548542022710000e-001) (76, 7.03183054924011230000e-001) (77, 1.07348871231079100000e+001) (78, 1.55545309185981750000e-001) (79, 1.06599292755126950000e+001) (80, 1.08488788604736330000e+001) (81, -1.15103363990783690000e+000) (82, -3.82761144638061520000e+000) (83, -3.01643514633178710000e+000) (84, -3.49214220046997070000e+000) (85, -6.18413686752319340000e-001) (86, 3.10593619942665100000e-002) (87, 1.06655378341674800000e+001) (88, -6.07405416667461400000e-002) (89, 1.05727615356445310000e+001) (90, 1.09445714950561520000e+001) (91, 1.06283626556396480000e+001) (92, 1.15230531692504880000e+001) (93, 1.08954429626464840000e+001) (94, 1.09012441635131840000e+001) (95, 1.15141124725341800000e+001) (96, 1.07110767364501950000e+001) (97, 1.12105941772460940000e+001) (98, 7.21496939659118650000e-001) (99, 1.06228828430175780000e+001) (100, 4.93593424558639530000e-001) (0, 1.12622222900390630000e+001) (1, 1.25953030586242680000e+000) (2, -1.85123048722743990000e-002) (3, 4.81724470853805540000e-001) (4, 8.17449867725372310000e-001) (5, 2.57917307317256930000e-003) (6, 4.81907486915588380000e-001) (7, 7.83390522003173830000e-001) (8, 6.92344725131988530000e-001) (9, 5.34253716468811040000e-001) (10, 3.16397547721862790000e-001) (11, -5.50282262265682220000e-002) (12, 7.09916651248931880000e-002) (13, 6.97773337364196780000e-001) (14, 1.44806420803070070000e+000) (15, 8.92203032970428470000e-001) (16, 7.68774509429931640000e-001) (17, 1.06892204284667970000e+001) (18, 7.53099843859672550000e-002) (19, 4.64455217123031620000e-001) (20, 1.06824579238891600000e+001) (21, 1.10144662857055660000e+001) (22, -1.87098771333694460000e-001) (23, -6.51911199092864990000e-001) (24, 1.13656556606292720000e+000) (25, -6.55262529850006100000e-001) (26, 1.17189466953277590000e+000) (27, 1.14452753067016600000e+001) (28, 1.73310011625289920000e-001) (29, -2.12219223380088810000e-001) (30, 1.05142755508422850000e+001) (31, 1.13506078720092770000e+001) (32, 6.97336971759796140000e-001) (33, -9.86350715160369870000e-001) (34, 6.93825721740722660000e-001) (35, -1.28028547763824460000e+000) (36, 1.54193937778472900000e-001) (37, 2.85212919116020200000e-002) (38, -5.45768886804580690000e-002) (39, -2.68045216798782350000e-001) (40, -2.20839902758598330000e-001) (41, 1.43849337100982670000e+000) (42, 1.61271262168884280000e+000) (43, 6.68675661087036130000e-001) (44, 9.79311227798461910000e-001) (45, -2.44244977831840520000e-001) (46, 4.60125029087066650000e-001) (47, 1.11363735198974610000e+001) (48, 9.07829344272613530000e-001) (49, 1.06698322296142580000e+001) (50, 1.05613203048706050000e+001) (51, 1.10080251693725590000e+001) (52, 1.11328229308128360000e-001) (53, -1.25922232866287230000e-001) (54, 2.50343739986419680000e-001) (55, 1.79071307182312010000e-001) (56, 7.77070224285125730000e-002) (57, 1.12046337127685550000e+001) (58, 6.84410214424133300000e-001) (59, 1.12978267669677730000e+001) (60, 1.10087614059448240000e+001) (61, 1.05686588287353520000e+001) (62, 2.31216326355934140000e-001) (63, 1.08012571334838870000e+001) (64, 1.81615626811981200000e+000) (65, 4.95513707399368290000e-001) (66, -6.27359390258789060000e-001) (67, 3.32020431756973270000e-001) (68, 4.79725539684295650000e-001) (69, -2.58110642433166500000e-001) (70, -2.07796737551689150000e-001) (71, 1.03636905550956730000e-001) (72, -6.00991062819957730000e-002) (73, 6.83608472347259520000e-001) (74, 1.24716103076934810000e+000) (75, 7.38280832767486570000e-001) (76, 2.50536352396011350000e-002) (77, 1.11914939880371090000e+001) (78, 1.17149281501770020000e+000) (79, 1.11409883499145510000e+001) (80, 1.11755027770996090000e+001) (81, 1.13060474395751950000e+000) (82, 6.66155517101287840000e-001) (83, 6.13598287105560300000e-001) (84, 7.43965804576873780000e-001) (85, 4.56956267356872560000e-001) (86, -1.89470164477825160000e-002) (87, 1.09203119277954100000e+001) (88, 1.00523245334625240000e+000) (89, 1.06466293334960940000e+001) (90, 1.06346759796142580000e+001) (91, 1.13057746887207030000e+001) (92, 1.12749452590942380000e+001) (93, 1.10822458267211910000e+001) (94, 1.07557497024536130000e+001) (95, 1.08038530349731450000e+001) (96, 1.12627668380737300000e+001) (97, 1.09739265441894530000e+001) (98, 6.88671290874481200000e-001) (99, 1.05672168731689450000e+001) (100, -2.15851470828056340000e-001) (0, 1.15252971649169920000e+001) (1, 9.71733748912811280000e-001) (2, 4.51607048511505130000e-001) (3, 9.19780135154724120000e-001) (4, 2.71339207887649540000e-001) (5, 1.13387584686279300000e+000) (6, 4.23936545848846440000e-001) (7, 1.94615095853805540000e-001) (8, 5.00792980194091800000e-001) (9, 8.22193086147308350000e-001) (10, 8.19308876991271970000e-001) (11, 7.76654243469238280000e-001) (12, 1.01832616329193120000e+000) (13, -3.94050419330596920000e-001) (14, -2.83425480127334590000e-001) (15, 3.09607565402984620000e-001) (16, 6.25758051872253420000e-001) (17, 1.11892194747924800000e+001) (18, 5.53638637065887450000e-001) (19, 5.24828135967254640000e-001) (20, 1.07548522949218750000e+001) (21, 1.07398862838745120000e+001) (22, 4.83175069093704220000e-001) (23, 3.48676592111587520000e-001) (24, 1.07327550649642940000e-001) (25, -3.98170292377471920000e-001) (26, 1.61940440535545350000e-001) (27, 1.06097431182861330000e+001) (28, 2.35475108027458190000e-001) (29, 1.10321426391601560000e+000) (30, 1.08830413818359380000e+001) (31, 1.09601144790649410000e+001) (32, 4.25169825553894040000e-001) (33, -1.02015590667724610000e+000) (34, -6.73142552375793460000e-001) (35, 4.27647799253463750000e-001) (36, 1.32570970058441160000e+000) (37, 3.04152071475982670000e-001) (38, 7.02176988124847410000e-001) (39, 1.10895061492919920000e+000) (40, 3.45460712909698490000e-001) (41, 2.66547709703445430000e-001) (42, 3.37360680103302000000e-001) (43, 3.34634810686111450000e-001) (44, 3.47351551055908200000e-001) (45, -1.88495621085166930000e-001) (46, -1.44146516919136050000e-001) (47, 1.14128437042236330000e+001) (48, 3.63345220685005190000e-002) (49, 1.06099996566772460000e+001) (50, 1.14199256896972660000e+001) (51, 1.05801639556884770000e+001) (52, 3.90166342258453370000e-001) (53, -3.23062509298324580000e-001) (54, -5.77581524848937990000e-001) (55, -2.72708296775817870000e-001) (56, -2.40287795662879940000e-001) (57, 1.13699007034301760000e+001) (58, -1.28556683659553530000e-001) (59, 1.10477628707885740000e+001) (60, 1.12902631759643550000e+001) (61, 1.09798555374145510000e+001) (62, 1.07565355300903320000e+000) (63, 1.09968404769897460000e+001) (64, 5.09999215602874760000e-001) (65, 7.97685086727142330000e-001) (66, -5.33047437667846680000e-001) (67, 5.61192989349365230000e-001) (68, 3.66731226444244380000e-001) (69, 5.35275459289550780000e-001) (70, 8.72410833835601810000e-001) (71, 4.13047969341278080000e-001) (72, 1.29604935646057130000e+000) (73, -5.73417961597442630000e-001) (74, 1.61099791526794430000e-001) (75, -3.84340107440948490000e-001) (76, 1.11973933875560760000e-001) (77, 1.14471664428710940000e+001) (78, -2.13484063744544980000e-001) (79, 1.05271902084350590000e+001) (80, 1.14136447906494140000e+001) (81, 3.89502137899398800000e-001) (82, 4.71345096826553340000e-001) (83, 8.86675477027893070000e-001) (84, 9.40770983695983890000e-001) (85, 3.70278596878051760000e-001) (86, -2.96754717826843260000e-001) (87, 1.06982259750366210000e+001) (88, -4.20668363571166990000e-001) (89, 1.10954494476318360000e+001) (90, 1.11127223968505860000e+001) (91, 1.12583446502685550000e+001) (92, 1.13546781539916990000e+001) (93, 1.08150691986083980000e+001) (94, 1.07136077880859380000e+001) (95, 1.15183429718017580000e+001) (96, 1.05581159591674800000e+001) (97, 1.12380590438842770000e+001) (98, -5.96222400665283200000e-001) (99, 1.05484056472778320000e+001) (100, 1.15773403644561770000e+000) (0, 1.09166584014892580000e+001) (1, -7.68924236297607420000e-001) (2, 8.68640720844268800000e-001) (3, -8.29622298479080200000e-002) (4, -6.31250888109207150000e-002) (5, -4.58105415105819700000e-001) (6, -7.75141566991806030000e-002) (7, -1.16781401634216310000e+000) (8, -1.68556690216064450000e+000) (9, -7.51341581344604490000e-002) (10, 3.33626508712768550000e-001) (11, 4.81748163700103760000e-001) (12, 1.66973328590393070000e+000) (13, 7.39483416080474850000e-001) (14, 5.86485803127288820000e-001) (15, 5.82260370254516600000e-001) (16, 7.01162993907928470000e-001) (17, 1.08907966613769530000e+001) (18, -1.62445306777954100000e+000) (19, 9.89776849746704100000e-002) (20, 1.11117935180664060000e+001) (21, 1.07391815185546880000e+001) (22, 2.13655281066894530000e+000) (23, 1.05217151343822480000e-001) (24, -8.43209385871887210000e-001) (25, 1.71239078044891360000e+000) (26, 9.94233667850494380000e-001) (27, 1.11032047271728520000e+001) (28, -1.36794805526733400000e+000) (29, -1.05867326259613040000e-001) (30, 1.07962894439697270000e+001) (31, 1.11338415145874020000e+001) (32, 2.13338017463684080000e+000) (33, 9.47287857532501220000e-001) (34, -6.91775605082511900000e-003) (35, 5.12397229671478270000e-001) (36, 1.10506147146224980000e-001) (37, -1.91685056686401370000e+000) (38, -2.06359410285949710000e+000) (39, 6.22627198696136470000e-001) (40, 3.31895947456359860000e-001) (41, -3.77915233373641970000e-001) (42, 6.80433213710784910000e-001) (43, 7.22974479198455810000e-001) (44, 2.84410059452056880000e-001) (45, 1.34609758853912350000e+000) (46, 1.34930694103240970000e+000) (47, 1.10497179031372070000e+001) (48, -2.05599904060363770000e+000) (49, 1.07904891967773440000e+001) (50, 1.14796295166015620000e+001) (51, 1.07015266418457030000e+001) (52, 2.86068618297576900000e-001) (53, 6.69790744781494140000e-001) (54, -8.58020633459091190000e-002) (55, 2.02284955978393550000e+000) (56, 1.00992834568023680000e+000) (57, 1.14890518188476560000e+001) (58, 1.28697550296783450000e+000) (59, 1.10518007278442380000e+001) (60, 1.13956661224365230000e+001) (61, 1.11803417205810550000e+001) (62, 6.39355778694152830000e-001) (63, 1.09137744903564450000e+001) (64, -3.88140738010406490000e-001) (65, 7.07339644432067870000e-001) (66, 6.20678424835205080000e-001) (67, 9.58011984825134280000e-001) (68, 1.03248941898345950000e+000) (69, 8.02507519721984860000e-001) (70, 7.26990699768066410000e-002) (71, 6.85087025165557860000e-001) (72, 5.66084742546081540000e-001) (73, 6.08186483383178710000e-001) (74, 6.70160830020904540000e-001) (75, 4.14942532777786250000e-001) (76, 6.15813136100769040000e-001) (77, 1.11224966049194340000e+001) (78, 1.51186203956604000000e+000) (79, 1.13824949264526370000e+001) (80, 1.12505254745483400000e+001) (81, -1.72527924180030820000e-001) (82, 4.77413356304168700000e-001) (83, 2.72183656692504880000e-001) (84, 3.48007082939147950000e-001) (85, 3.85947823524475100000e-001) (86, 1.19580149650573730000e+000) (87, 1.13522109985351560000e+001) (88, 1.10050559043884280000e+000) (89, 1.10744581222534180000e+001) (90, 1.05260686874389650000e+001) (91, 1.08851566314697270000e+001) (92, 1.06424312591552730000e+001) (93, 1.11123380661010740000e+001) (94, 1.05669927597045900000e+001) (95, 1.09157295227050780000e+001) (96, 1.13887767791748050000e+001) (97, 1.08650302886962890000e+001) (98, 7.34014868736267090000e-001) (99, 1.07880859375000000000e+001) (100, -8.16993117332458500000e-002) (0, 1.10511598587036130000e+001) (1, 3.19867491722106930000e-001) (2, 3.89079362154006960000e-001) (3, 1.78621387481689450000e+000) (4, 1.56829357147216800000e+000) (5, 7.41606295108795170000e-001) (6, 1.17491507530212400000e+000) (7, 6.89946353435516360000e-001) (8, 1.38732314109802250000e+000) (9, -3.43484973907470700000e+000) (10, -4.08710384368896480000e+000) (11, -3.89841079711914060000e+000) (12, 5.02736032009124760000e-001) (13, 2.50089894980192180000e-002) (14, 3.92525911331176760000e-001) (15, -3.32155883312225340000e-001) (16, 6.03955626487731930000e-001) (17, 1.12502365112304690000e+001) (18, 5.68423807621002200000e-001) (19, -3.57877349853515620000e+000) (20, 1.09388990402221680000e+001) (21, 1.09669084548950200000e+001) (22, 9.04502570629119870000e-002) (23, -1.68406412005424500000e-001) (24, 9.89074826240539550000e-001) (25, -1.73820585012435910000e-001) (26, 4.89964157342910770000e-001) (27, 1.05818948745727540000e+001) (28, 1.12184512615203860000e+000) (29, -3.18847179412841800000e+000) (30, 1.05292730331420900000e+001) (31, 1.12257204055786130000e+001) (32, 3.83296579122543330000e-001) (33, 6.56747400760650630000e-001) (34, -2.12060019373893740000e-001) (35, 2.76887208223342900000e-001) (36, 1.37552976608276370000e+000) (37, 1.04727149009704590000e+000) (38, 5.95247209072113040000e-001) (39, -4.02028560638427730000e+000) (40, -3.88245105743408200000e+000) (41, 9.24969613552093510000e-001) (42, 5.10426223278045650000e-001) (43, 9.07695889472961430000e-001) (44, 1.68676078319549560000e-001) (45, 2.45351597666740420000e-001) (46, 1.53541967272758480000e-001) (47, 1.08747730255126950000e+001) (48, 4.62892711162567140000e-001) (49, 1.09897575378417970000e+001) (50, 1.05932712554931640000e+001) (51, 1.05319013595581050000e+001) (52, -4.10251903533935550000e+000) (53, 1.98084101080894470000e-001) (54, 5.24198710918426510000e-001) (55, 1.39612331986427310000e-001) (56, 3.85402679443359380000e-001) (57, 1.14319114685058590000e+001) (58, -1.45443126559257510000e-001) (59, 1.14003772735595700000e+001) (60, 1.07900085449218750000e+001) (61, 1.13586196899414060000e+001) (62, -3.78925895690917970000e+000) (63, 1.11788034439086910000e+001) (64, 5.28365790843963620000e-001) (65, 7.61848688125610350000e-001) (66, -2.18895077705383300000e-001) (67, 4.26148772239685060000e-001) (68, 4.45729553699493410000e-001) (69, -3.50657129287719730000e+000) (70, -3.68138837814331050000e+000) (71, -3.93363094329833980000e+000) (72, 1.89513608813285830000e-001) (73, 7.24707245826721190000e-002) (74, 6.15157008171081540000e-001) (75, 2.82026678323745730000e-001) (76, -5.38026988506317140000e-002) (77, 1.05780172348022460000e+001) (78, 3.94693017005920410000e-001) (79, 1.06509237289428710000e+001) (80, 1.13098440170288090000e+001) (81, 9.03605222702026370000e-001) (82, 2.47650837898254390000e+000) (83, 1.97272801399230960000e+000) (84, 2.51768898963928220000e+000) (85, 1.12183666229248050000e+000) (86, 7.68853500485420230000e-002) (87, 1.14565877914428710000e+001) (88, -5.08256182074546810000e-002) (89, 1.05124483108520510000e+001) (90, 1.13641958236694340000e+001) (91, 1.08130826950073240000e+001) (92, 1.06602172851562500000e+001) (93, 1.07449502944946290000e+001) (94, 1.06131725311279300000e+001) (95, 1.10139532089233400000e+001) (96, 1.13021850585937500000e+001) (97, 1.14207916259765630000e+001) (98, 3.20503950119018550000e-001) (99, 1.13149394989013670000e+001) (100, -2.01284602284431460000e-001) (0, 1.11960773468017580000e+001) (1, 7.66725718975067140000e-001) (2, 2.79148221015930180000e-001) (3, -5.89965701103210450000e-001) (4, 2.32554987072944640000e-001) (5, -1.86967206001281740000e+000) (6, -2.00032806396484370000e+000) (7, -6.08181059360504150000e-001) (8, -1.00117444992065430000e+000) (9, 8.51987421512603760000e-001) (10, 9.97865796089172360000e-001) (11, 9.22875583171844480000e-001) (12, 4.18315112590789790000e-001) (13, 1.58165823668241500000e-002) (14, 7.96774804592132570000e-001) (15, -2.65396654605865480000e-001) (16, 4.85702246427536010000e-001) (17, 1.14379682540893550000e+001) (18, -1.00521230697631840000e+000) (19, 1.22347736358642580000e+000) (20, 1.14404678344726560000e+001) (21, 1.10036983489990230000e+001) (22, 1.19533753395080570000e+000) (23, -3.86031061410903930000e-001) (24, 2.76757627725601200000e-001) (25, 1.35083794593811040000e+000) (26, -2.03534528613090520000e-001) (27, 1.14737014770507810000e+001) (28, -1.17663216590881350000e+000) (29, 1.50901699066162110000e+000) (30, 1.14842128753662110000e+001) (31, 1.06786766052246090000e+001) (32, 4.80366766452789310000e-001) (33, 2.28209689259529110000e-001) (34, 6.77910268306732180000e-001) (35, 5.06623983383178710000e-002) (36, -1.85823142528533940000e+000) (37, -1.22704243659973140000e+000) (38, -7.05123484134674070000e-001) (39, 5.58660447597503660000e-001) (40, 8.01865756511688230000e-001) (41, 1.27913523465394970000e-002) (42, 1.82531103491783140000e-001) (43, -2.44304031133651730000e-001) (44, 9.68371778726577760000e-002) (45, 7.83354938030242920000e-001) (46, 1.42423018813133240000e-001) (47, 1.09565248489379880000e+001) (48, -9.15448486804962160000e-001) (49, 1.06609544754028320000e+001) (50, 1.05764141082763670000e+001) (51, 1.14423913955688480000e+001) (52, 1.19864094257354740000e+000) (53, -4.44356709718704220000e-001) (54, -1.25091627240180970000e-001) (55, 8.88958156108856200000e-001) (56, -5.91102838516235350000e-001) (57, 1.08567304611206050000e+001) (58, -6.53645992279052730000e-001) (59, 1.06130762100219730000e+001) (60, 1.11645431518554690000e+001) (61, 1.12045698165893550000e+001) (62, 1.35326814651489260000e+000) (63, 1.11047430038452150000e+001) (64, 6.69879436492919920000e-001) (65, 1.51713025569915770000e+000) (66, -5.89070081710815430000e-001) (67, 2.29443624615669250000e-001) (68, 2.00540572404861450000e-003) (69, 7.16107726097106930000e-001) (70, 1.48501372337341310000e+000) (71, 7.55205214023590090000e-001) (72, 4.03619557619094850000e-001) (73, 1.53266578912734990000e-001) (74, -7.83031582832336430000e-002) (75, -2.65621006488800050000e-001) (76, 2.18470796942710880000e-001) (77, 1.12222595214843750000e+001) (78, -1.68036334216594700000e-002) (79, 1.11586141586303710000e+001) (80, 1.12969932556152340000e+001) (81, 5.93511223793029790000e-001) (82, -6.50214195251464840000e-001) (83, -5.80800175666809080000e-001) (84, 4.73227873444557190000e-002) (85, -1.05021819472312930000e-001) (86, 8.32961574196815490000e-002) (87, 1.05650377273559570000e+001) (88, -1.79987385869026180000e-001) (89, 1.09205684661865230000e+001) (90, 1.14386091232299800000e+001) (91, 1.13530759811401370000e+001) (92, 1.11494169235229490000e+001) (93, 1.12804250717163090000e+001) (94, 1.10838804244995120000e+001) (95, 1.11390333175659180000e+001) (96, 1.08372459411621090000e+001) (97, 1.05452327728271480000e+001) (98, 1.99322000145912170000e-001) (99, 1.05588846206665040000e+001) (100, 5.81875026226043700000e-001) (0, 1.11911735534667970000e+001) (1, 5.85099309682846070000e-002) (2, -5.51512464880943300000e-004) (3, 5.43754324316978450000e-002) (4, -1.45181760191917420000e-001) (5, -7.51264631748199460000e-001) (6, -7.39599525928497310000e-001) (7, -6.28356993198394780000e-001) (8, -2.27704152464866640000e-001) (9, -3.20785135030746460000e-001) (10, -2.67971545457839970000e-001) (11, 7.83934295177459720000e-002) (12, 6.53308331966400150000e-001) (13, 4.81059461832046510000e-001) (14, -9.26744788885116580000e-002) (15, 2.80540734529495240000e-001) (16, 2.84364283084869380000e-001) (17, 1.06718511581420900000e+001) (18, -2.72249639034271240000e-001) (19, -3.13991159200668330000e-001) (20, 1.13686504364013670000e+001) (21, 1.08865337371826170000e+001) (22, 1.92776143550872800000e+000) (23, -4.51821535825729370000e-001) (24, 6.89773559570312500000e-001) (25, 4.15033161640167240000e-001) (26, -4.66755479574203490000e-001) (27, 1.10693626403808590000e+001) (28, -2.40362748503685000000e-001) (29, 5.45255541801452640000e-001) (30, 1.09440269470214840000e+001) (31, 1.05998086929321290000e+001) (32, 1.17407774925231930000e+000) (33, 3.95696580410003660000e-001) (34, 8.60487759113311770000e-001) (35, 2.42229014635086060000e-001) (36, -8.71986091136932370000e-001) (37, -5.20037829875946040000e-001) (38, -8.35797786712646480000e-001) (39, 5.51056027412414550000e-001) (40, 1.28707423806190490000e-001) (41, 4.86677214503288270000e-002) (42, -1.77645877003669740000e-001) (43, -2.61607080698013310000e-001) (44, -2.57084481418132780000e-002) (45, 7.07661032676696780000e-001) (46, -1.41605660319328310000e-001) (47, 1.10627288818359380000e+001) (48, -3.68326902389526370000e-001) (49, 1.13743867874145510000e+001) (50, 1.12559413909912110000e+001) (51, 1.07329969406127930000e+001) (52, 5.71462213993072510000e-002) (53, -2.79055565595626830000e-001) (54, -4.87861365079879760000e-001) (55, -7.49930441379547120000e-002) (56, 4.33767825365066530000e-001) (57, 1.11932573318481450000e+001) (58, 2.84333199262619020000e-001) (59, 1.13267335891723630000e+001) (60, 1.05904512405395510000e+001) (61, 1.09884757995605470000e+001) (62, 2.11773455142974850000e-001) (63, 1.10443658828735350000e+001) (64, 6.14751279354095460000e-001) (65, 5.13443529605865480000e-001) (66, 5.36486804485321040000e-001) (67, 4.47170659899711610000e-002) (68, 2.56388098001480100000e-001) (69, 1.89981400966644290000e-001) (70, -2.06537231802940370000e-001) (71, 6.59911930561065670000e-002) (72, 6.22741878032684330000e-001) (73, 6.84879004955291750000e-001) (74, 8.91587734222412110000e-001) (75, -4.48012948036193850000e-002) (76, -5.11909842491149900000e-001) (77, 1.05491104125976560000e+001) (78, 3.69695931673049930000e-001) (79, 1.12536334991455080000e+001) (80, 1.09554033279418950000e+001) (81, 2.39447787404060360000e-001) (82, 2.28711649775505070000e-001) (83, 1.41992211341857910000e-001) (84, -5.45898675918579100000e-001) (85, -2.52039879560470580000e-001) (86, -2.16275379061698910000e-001) (87, 1.05993919372558590000e+001) (88, 7.92268812656402590000e-001) (89, 1.07116527557373050000e+001) (90, 1.14678363800048830000e+001) (91, 1.05573787689208980000e+001) (92, 1.10864114761352540000e+001) (93, 1.10151710510253910000e+001) (94, 1.09283876419067380000e+001) (95, 1.14252138137817380000e+001) (96, 1.06954050064086910000e+001) (97, 1.09182929992675780000e+001) (98, 8.44473540782928470000e-001) (99, 1.08027629852294920000e+001) (100, -2.27959811687469480000e-001) (0, 1.07872838973999020000e+001) (1, 7.42074728012084960000e-001) (2, -1.34756612777709960000e+000) (3, -1.23268529772758480000e-001) (4, -8.26734244823455810000e-001) (5, -4.25521993637084960000e+000) (6, -4.21650695800781250000e+000) (7, -1.05806708335876460000e+000) (8, -1.15375971794128420000e+000) (9, 5.22974908351898190000e-001) (10, 7.47785151004791260000e-001) (11, 7.31248915195465090000e-001) (12, 3.83052766323089600000e-001) (13, 4.87658053636550900000e-001) (14, -7.88441747426986690000e-002) (15, 7.82811880111694340000e-001) (16, 4.21098291873931880000e-001) (17, 1.14018516540527340000e+001) (18, -1.91660833358764650000e+000) (19, 6.27929151058197020000e-001) (20, 1.13878145217895510000e+001) (21, 1.13630428314208980000e+001) (22, -4.04825031757354740000e-001) (23, -1.94474980235099790000e-001) (24, 1.47152319550514220000e-001) (25, 2.31969594955444340000e+000) (26, -4.01935219764709470000e-001) (27, 1.12018136978149410000e+001) (28, -1.85639202594757080000e+000) (29, 4.06611859798431400000e-001) (30, 1.08536863327026370000e+001) (31, 1.10680170059204100000e+001) (32, 5.94884037971496580000e-001) (33, -8.45486104488372800000e-001) (34, -3.99284362792968750000e-001) (35, 1.81246173381805420000e+000) (36, -3.96346330642700200000e+000) (37, -1.80643069744110110000e+000) (38, -1.41568064689636230000e+000) (39, 5.01439273357391360000e-001) (40, -1.34631469845771790000e-001) (41, 7.02431857585906980000e-001) (42, -2.39445582032203670000e-001) (43, -1.00773143768310550000e+000) (44, 2.08618268370628360000e-001) (45, 7.62586832046508790000e-001) (46, 3.36691915988922120000e-001) (47, 1.10071277618408200000e+001) (48, -1.25060606002807620000e+000) (49, 1.11664333343505860000e+001) (50, 1.12462949752807620000e+001) (51, 1.09517498016357420000e+001) (52, 4.63014841079711910000e-001) (53, -1.25349387526512150000e-001) (54, -5.29064476490020750000e-001) (55, 1.19991704821586610000e-001) (56, 1.58798560500144960000e-001) (57, 1.09645690917968750000e+001) (58, 3.66986483335495000000e-001) (59, 1.14527425765991210000e+001) (60, 1.06730690002441410000e+001) (61, 1.13352260589599610000e+001) (62, 5.57393491268157960000e-001) (63, 1.10300092697143550000e+001) (64, -2.46482059359550480000e-001) (65, 5.91102838516235350000e-001) (66, -2.73661732673645020000e-001) (67, 4.33428883552551270000e-002) (68, 1.82042717933654790000e-001) (69, 4.58271861076354980000e-001) (70, 4.32505905628204350000e-001) (71, 1.26424178481101990000e-001) (72, 6.06616854667663570000e-001) (73, 5.75050473213195800000e-001) (74, 6.88180327415466310000e-003) (75, 4.57607582211494450000e-002) (76, 5.59066772460937500000e-001) (77, 1.13589086532592770000e+001) (78, 7.15014278888702390000e-001) (79, 1.15291423797607420000e+001) (80, 1.14266881942749020000e+001) (81, 6.62373542785644530000e-001) (82, -4.09705460071563720000e-001) (83, -7.83385038375854490000e-002) (84, -8.62050116062164310000e-001) (85, -6.40946328639984130000e-002) (86, 5.24712264537811280000e-001) (87, 1.08242349624633790000e+001) (88, 1.64088702201843260000e+000) (89, 1.12093763351440430000e+001) (90, 1.10927572250366210000e+001) (91, 1.06701202392578130000e+001) (92, 1.14859428405761720000e+001) (93, 1.08269910812377930000e+001) (94, 1.08672094345092770000e+001) (95, 1.09956541061401370000e+001) (96, 1.13186893463134770000e+001) (97, 1.06831312179565430000e+001) (98, 1.21139192581176760000e+000) (99, 1.05000143051147460000e+001) (100, -9.76015985012054440000e-001) (0, 1.12221632003784180000e+001) (1, -1.34163454174995420000e-001) (2, 1.89513295888900760000e-001) (3, 1.07449315488338470000e-001) (4, 5.66684186458587650000e-001) (5, -4.53931659460067750000e-001) (6, -7.79978752136230470000e-001) (7, 4.40399676561355590000e-001) (8, -7.40202367305755620000e-002) (9, 1.67000055313110350000e+000) (10, 1.69496512413024900000e+000) (11, 2.08840703964233400000e+000) (12, 2.34027698636054990000e-001) (13, 1.29908293485641480000e-001) (14, -4.07818794250488280000e-001) (15, -2.54015922546386720000e-001) (16, 1.35957896709442140000e-001) (17, 1.07958412170410160000e+001) (18, 6.59294277429580690000e-002) (19, 2.22422266006469730000e+000) (20, 1.10463848114013670000e+001) (21, 1.09464626312255860000e+001) (22, -2.54238605499267580000e-001) (23, -2.62948423624038700000e-001) (24, 5.07002770900726320000e-001) (25, -8.84383618831634520000e-001) (26, -4.32494431734085080000e-002) (27, 1.09696321487426760000e+001) (28, -8.87939035892486570000e-002) (29, 1.66343069076538090000e+000) (30, 1.13786497116088870000e+001) (31, 1.15235023498535160000e+001) (32, -3.27177762985229490000e-001) (33, -7.73817300796508790000e-002) (34, 6.15906417369842530000e-001) (35, -9.72315669059753420000e-002) (36, -8.45899581909179690000e-001) (37, 6.21017098426818850000e-001) (38, 2.13762640953063960000e-001) (39, 2.28325343132019040000e+000) (40, 1.38058304786682130000e+000) (41, 1.67363300919532780000e-001) (42, 4.20977056026458740000e-001) (43, 1.98986917734146120000e-001) (44, 7.76411414146423340000e-001) (45, -1.08287587761878970000e-001) (46, -1.41265645623207090000e-001) (47, 1.08591976165771480000e+001) (48, -3.53073179721832280000e-002) (49, 1.11340017318725590000e+001) (50, 1.13615360260009770000e+001) (51, 1.08203248977661130000e+001) (52, 1.50704097747802730000e+000) (53, 2.96882212162017820000e-001) (54, 1.10387869179248810000e-001) (55, -3.35000574588775630000e-001) (56, 2.88402959704399110000e-002) (57, 1.07511348724365230000e+001) (58, 1.41183778643608090000e-001) (59, 1.06450271606445310000e+001) (60, 1.06872978210449220000e+001) (61, 1.05465145111083980000e+001) (62, 1.77367281913757320000e+000) (63, 1.15147857666015620000e+001) (64, 5.06650209426879880000e-001) (65, 8.10392200946807860000e-003) (66, -1.04812920093536380000e+000) (67, -8.13191682100296020000e-002) (68, 1.91497743129730220000e-001) (69, 2.12019777297973630000e+000) (70, 2.30546212196350100000e+000) (71, 1.34510707855224610000e+000) (72, 8.45206856727600100000e-001) (73, -3.67751121520996090000e-001) (74, 3.38493943214416500000e-001) (75, -5.33915221691131590000e-001) (76, 3.98645326495170590000e-002) (77, 1.07502059936523440000e+001) (78, 1.03621631860733030000e-001) (79, 1.15238866806030270000e+001) (80, 1.15060043334960940000e+001) (81, 4.33711022138595580000e-001) (82, 6.10941171646118160000e-001) (83, 4.27462384104728700000e-002) (84, 4.00131195783615110000e-003) (85, 2.32644021511077880000e-001) (86, -1.49039737880229950000e-002) (87, 1.11228494644165040000e+001) (88, 5.07094442844390870000e-001) (89, 1.08615055084228520000e+001) (90, 1.12143115997314450000e+001) (91, 1.14198617935180660000e+001) (92, 1.13732976913452150000e+001) (93, 1.08934240341186520000e+001) (94, 1.14449872970581050000e+001) (95, 1.07188634872436520000e+001) (96, 1.05929832458496090000e+001) (97, 1.06632299423217770000e+001) (98, 4.80815857648849490000e-001) (99, 1.11861743927001950000e+001) (100, -8.31096649169921880000e-001) (0, 1.13448076248168950000e+001) (1, 4.56374406814575200000e-001) (2, 2.62622237205505370000e-002) (3, 8.14935445785522460000e-001) (4, 5.96887052059173580000e-001) (5, 4.62215870618820190000e-001) (6, 8.39762568473815920000e-001) (7, -5.48973441123962400000e-001) (8, -7.40871429443359380000e-001) (9, 7.04877257347106930000e-001) (10, 2.62800455093383790000e-002) (11, -1.50331497192382810000e-001) (12, -6.85404688119888310000e-002) (13, 4.31614786386489870000e-001) (14, 3.68175804615020750000e-001) (15, 2.58143872022628780000e-001) (16, 1.27385604381561280000e+000) (17, 1.06186523437500000000e+001) (18, -6.70880675315856930000e-001) (19, 5.40187239646911620000e-001) (20, 1.06879701614379880000e+001) (21, 1.06084299087524410000e+001) (22, -2.55896747112274170000e-001) (23, 8.10935139656066890000e-001) (24, -3.20126712322235110000e-001) (25, 9.42196190357208250000e-001) (26, 3.49714159965515140000e-001) (27, 1.08466358184814450000e+001) (28, -3.90276312828063960000e-001) (29, 9.48739051818847660000e-003) (30, 1.11836423873901370000e+001) (31, 1.07996549606323240000e+001) (32, 1.89070999622344970000e-002) (33, 9.42614525556564330000e-002) (34, 2.16369360685348510000e-001) (35, -6.93082511425018310000e-002) (36, 3.17202776670455930000e-001) (37, -1.52390614151954650000e-001) (38, 1.87727734446525570000e-002) (39, 4.19754326343536380000e-001) (40, -2.72783577442169190000e-001) (41, -2.77355313301086430000e-002) (42, 1.33320212364196780000e+000) (43, 7.17866063117980960000e-001) (44, 6.76813721656799320000e-001) (45, -3.53213846683502200000e-001) (46, 5.17821431159973140000e-001) (47, 1.07972831726074220000e+001) (48, -3.32879781723022460000e-001) (49, 1.14721946716308590000e+001) (50, 1.05749721527099610000e+001) (51, 1.14534797668457030000e+001) (52, 4.84072864055633540000e-001) (53, 1.30240952968597410000e+000) (54, 9.19813811779022220000e-001) (55, 3.80228847265243530000e-001) (56, 6.32646262645721440000e-001) (57, 1.10701637268066410000e+001) (58, -4.98175680637359620000e-001) (59, 1.10996150970458980000e+001) (60, 1.05919895172119140000e+001) (61, 1.06896686553955080000e+001) (62, 1.56295120716094970000e-001) (63, 1.14626445770263670000e+001) (64, -4.16620492935180660000e-001) (65, -8.52455615997314450000e-001) (66, 5.64782083034515380000e-001) (67, 5.66876456141471860000e-002) (68, -5.81786572933197020000e-001) (69, 2.50032961368560790000e-001) (70, 4.61287319660186770000e-001) (71, 3.38611066341400150000e-001) (72, 7.45431721210479740000e-001) (73, 8.12430322170257570000e-001) (74, 9.11983013153076170000e-001) (75, 1.53798535466194150000e-001) (76, 1.23001292347908020000e-001) (77, 1.12606840133666990000e+001) (78, -2.98451352864503860000e-002) (79, 1.13897380828857420000e+001) (80, 1.14638309478759770000e+001) (81, -3.00364010035991670000e-002) (82, 3.67782413959503170000e-001) (83, 1.09143769741058350000e+000) (84, 1.21571648120880130000e+000) (85, 5.96637010574340820000e-001) (86, 3.07400256395339970000e-001) (87, 1.13009347915649410000e+001) (88, 3.75614672899246220000e-001) (89, 1.11265993118286130000e+001) (90, 1.12485065460205080000e+001) (91, 1.11829700469970700000e+001) (92, 1.12005958557128910000e+001) (93, 1.10953855514526370000e+001) (94, 1.07102108001708980000e+001) (95, 1.07660694122314450000e+001) (96, 1.14273929595947270000e+001) (97, 1.06912069320678710000e+001) (98, 4.03111070394515990000e-001) (99, 1.11792201995849610000e+001) (100, -7.89381504058837890000e-001) (0, 1.14616832733154300000e+001) (1, 8.70130240917205810000e-001) (2, -2.52223789691925050000e-001) (3, 6.37518242001533510000e-004) (4, 3.46074327826499940000e-002) (5, -4.52792614698410030000e-001) (6, -2.30033323168754580000e-001) (7, 5.15462398529052730000e-001) (8, 3.35037380456924440000e-001) (9, 6.03334248065948490000e-001) (10, 1.02667641639709470000e+000) (11, 1.00462794303894040000e+000) (12, 9.05200958251953130000e-001) (13, -4.79048401117324830000e-001) (14, -1.30284979939460750000e-001) (15, -1.85849532485008240000e-001) (16, 6.80985331535339360000e-001) (17, 1.10140819549560550000e+001) (18, 5.23922801017761230000e-001) (19, 1.14550709724426270000e+000) (20, 1.07894954681396480000e+001) (21, 1.07766771316528320000e+001) (22, -2.21988454461097720000e-001) (23, 1.22486460208892820000e+000) (24, 5.24181902408599850000e-001) (25, 3.80089968442916870000e-001) (26, 8.70351612567901610000e-001) (27, 1.12498197555541990000e+001) (28, 1.01414024829864500000e-001) (29, 8.21703135967254640000e-001) (30, 1.13962116241455080000e+001) (31, 1.07654285430908200000e+001) (32, -4.08534616231918330000e-001) (33, 1.01053929328918460000e+000) (34, -1.77426561713218690000e-001) (35, -4.83797751367092130000e-002) (36, -4.65611428022384640000e-001) (37, 5.57412028312683110000e-001) (38, 1.18783533573150630000e-001) (39, 1.47716224193573000000e+000) (40, 1.01882481575012210000e+000) (41, 4.12774831056594850000e-001) (42, 2.08069190382957460000e-001) (43, 2.24779650568962100000e-001) (44, -9.43847119808197020000e-001) (45, -1.00472247600555420000e+000) (46, 1.29848837852478030000e+000) (47, 1.09255037307739260000e+001) (48, 1.50350034236907960000e-001) (49, 1.10631456375122070000e+001) (50, 1.09792461395263670000e+001) (51, 1.06432971954345700000e+001) (52, 9.11659300327301030000e-001) (53, 1.35843694210052490000e+000) (54, -1.58077764511108400000e+000) (55, -3.94005358219146730000e-001) (56, 1.02442157268524170000e+000) (57, 1.08281764984130860000e+001) (58, -7.83172369003295900000e-001) (59, 1.07602043151855470000e+001) (60, 1.05438222885131840000e+001) (61, 1.06506671905517580000e+001) (62, 8.29009830951690670000e-001) (63, 1.09872264862060550000e+001) (64, 1.96644458919763570000e-002) (65, -1.96661666035652160000e-001) (66, 3.67364466190338130000e-001) (67, -2.33083948493003850000e-001) (68, -1.07098710536956790000e+000) (69, 1.52472019195556640000e+000) (70, 1.51888751983642580000e+000) (71, 7.17614173889160160000e-001) (72, 1.66907310485839840000e+000) (73, -8.04422557353973390000e-001) (74, -6.20567314326763150000e-002) (75, -5.23914337158203130000e-001) (76, 1.61851060390472410000e+000) (77, 1.13895778656005860000e+001) (78, -4.89378094673156740000e-001) (79, 1.11021795272827150000e+001) (80, 1.13200035095214840000e+001) (81, 7.68028199672698970000e-001) (82, 2.31889352202415470000e-001) (83, 5.43835759162902830000e-001) (84, -2.64712393283843990000e-001) (85, 8.50963115692138670000e-001) (86, 7.32216298580169680000e-001) (87, 1.10202989578247070000e+001) (88, -8.76356959342956540000e-002) (89, 1.09331626892089840000e+001) (90, 1.09139986038208010000e+001) (91, 1.08141393661499020000e+001) (92, 1.14478387832641600000e+001) (93, 1.05333108901977540000e+001) (94, 1.11759195327758790000e+001) (95, 1.13993196487426760000e+001) (96, 1.09551792144775390000e+001) (97, 1.09976091384887700000e+001) (98, -7.56009876728057860000e-001) (99, 1.13504161834716800000e+001) (100, -8.42754840850830080000e-001) (0, 1.05202999114990230000e+001) (1, 5.52602231502532960000e-001) (2, -1.23654678463935850000e-001) (3, 1.11280715465545650000e+000) (4, 1.64139199256896970000e+000) (5, 1.87752687931060790000e+000) (6, 1.46536922454833980000e+000) (7, 3.05932879447937010000e-001) (8, 4.25276249647140500000e-001) (9, -2.52134859561920170000e-001) (10, 1.66143715381622310000e-001) (11, 2.83243834972381590000e-001) (12, -2.85837411880493160000e+000) (13, -5.14740109443664550000e-001) (14, -2.41050682961940770000e-002) (15, -4.49748635292053220000e-001) (16, 5.21563887596130370000e-001) (17, 1.10025768280029300000e+001) (18, 3.74609827995300290000e-001) (19, 2.20976293087005620000e-001) (20, 1.14082612991333010000e+001) (21, 1.14003448486328120000e+001) (22, -2.66836690902709960000e+000) (23, -3.82927626371383670000e-001) (24, 2.18447223305702210000e-001) (25, -5.78745245933532710000e-001) (26, 2.28461161255836490000e-001) (27, 1.08666973114013670000e+001) (28, 6.78544342517852780000e-001) (29, -3.82662653923034670000e-001) (30, 1.12540178298950200000e+001) (31, 1.14302453994750980000e+001) (32, -3.47659444808959960000e+000) (33, -1.57320761680603030000e+000) (34, -7.11417376995086670000e-001) (35, 1.56207188963890080000e-001) (36, 1.10919773578643800000e+000) (37, 2.52734690904617310000e-001) (38, 8.68295252323150630000e-001) (39, 5.12732982635498050000e-001) (40, 6.09066486358642580000e-001) (41, 4.32520359754562380000e-001) (42, -6.56877458095550540000e-001) (43, -2.50037044286727910000e-001) (44, -2.61381715536117550000e-001) (45, -2.73737859725952150000e+000) (46, 2.45173662900924680000e-001) (47, 1.10767335891723630000e+001) (48, 3.05035561323165890000e-001) (49, 1.12148885726928710000e+001) (50, 1.14911346435546870000e+001) (51, 1.10504550933837890000e+001) (52, -9.02329981327056880000e-002) (53, -6.33535981178283690000e-001) (54, -6.99953079223632810000e-001) (55, -1.86227262020111080000e+000) (56, 1.60184770822525020000e-001) (57, 1.07070703506469730000e+001) (58, -2.81311810016632080000e-001) (59, 1.06879062652587890000e+001) (60, 1.09082298278808590000e+001) (61, 1.10178632736206050000e+001) (62, -2.83893525600433350000e-001) (63, 1.10976285934448240000e+001) (64, 5.20458996295928960000e-001) (65, 2.13667690753936770000e-001) (66, 1.02619707584381100000e+000) (67, -7.07217633724212650000e-001) (68, 1.55009344220161440000e-001) (69, -2.28772550821304320000e-001) (70, -3.64203572273254390000e-001) (71, 5.37409186363220210000e-001) (72, -5.79697191715240480000e-002) (73, -1.04409083724021910000e-001) (74, -2.14528903365135190000e-001) (75, -4.99902307987213130000e-001) (76, 1.03301212191581730000e-001) (77, 1.12140235900878910000e+001) (78, -1.00801849365234370000e+000) (79, 1.10060052871704100000e+001) (80, 1.07655248641967770000e+001) (81, 2.16332122683525090000e-001) (82, 1.29047644138336180000e+000) (83, 1.69077658653259280000e+000) (84, 9.29049134254455570000e-001) (85, 9.16223764419555660000e-001) (86, 1.66458636522293090000e-002) (87, 1.13916921615600590000e+001) (88, -8.49994480609893800000e-001) (89, 1.13271179199218750000e+001) (90, 1.14127798080444340000e+001) (91, 1.08097496032714840000e+001) (92, 1.10108127593994140000e+001) (93, 1.10943593978881840000e+001) (94, 1.12195358276367190000e+001) (95, 1.13342323303222660000e+001) (96, 1.14919357299804690000e+001) (97, 1.14714899063110350000e+001) (98, -3.79126459360122680000e-001) (99, 1.10540447235107420000e+001) (100, -1.83678817749023440000e+000) (0, 1.11010894775390630000e+001) (1, -8.64736378192901610000e-001) (2, 5.35706102848052980000e-001) (3, 8.43710660934448240000e-001) (4, 7.90800929069519040000e-001) (5, 4.94359105825424190000e-001) (6, 1.18138468265533450000e+000) (7, 3.87867018580436710000e-002) (8, 1.05964672565460210000e+000) (9, 3.81221175193786620000e-001) (10, 9.50954258441925050000e-001) (11, 1.23011660575866700000e+000) (12, 7.15171992778778080000e-002) (13, 3.54440063238143920000e-001) (14, -6.84782445430755620000e-001) (15, -2.57627367973327640000e-001) (16, 9.19845104217529300000e-001) (17, 1.09651136398315430000e+001) (18, 3.20031881332397460000e-001) (19, 8.43372166156768800000e-001) (20, 1.06726522445678710000e+001) (21, 1.05169353485107420000e+001) (22, -1.04618275165557860000e+000) (23, -2.56552278995513920000e-001) (24, -5.84068000316619870000e-001) (25, -3.71213769912719730000e+000) (26, 4.11001354455947880000e-001) (27, 1.12678947448730470000e+001) (28, 7.70508572459220890000e-002) (29, 1.24290335178375240000e+000) (30, 1.07137365341186520000e+001) (31, 1.11714973449707030000e+001) (32, -9.81992542743682860000e-001) (33, -1.43086385726928710000e+000) (34, -1.11565694212913510000e-001) (35, -1.82183265686035160000e+000) (36, 3.07332307100296020000e-001) (37, 7.75100588798522950000e-001) (38, 5.44682025909423830000e-001) (39, 3.34015727043151860000e-001) (40, 6.50160253047943120000e-001) (41, -1.93951979279518130000e-001) (42, 7.59824693202972410000e-001) (43, -1.67830869555473330000e-001) (44, 9.56131637096405030000e-001) (45, -4.60893511772155760000e-001) (46, 7.32329845428466800000e-001) (47, 1.08127937316894530000e+001) (48, 3.49643409252166750000e-001) (49, 1.13100042343139650000e+001) (50, 1.14885711669921880000e+001) (51, 1.06336507797241210000e+001) (52, 1.34721660614013670000e+000) (53, -2.08513647317886350000e-001) (54, -4.48964685201644900000e-001) (55, -2.98695063591003420000e+000) (56, 5.81580281257629390000e-001) (57, 1.14990825653076170000e+001) (58, -8.11019659042358400000e-001) (59, 1.09220743179321290000e+001) (60, 1.13616647720336910000e+001) (61, 1.09086151123046880000e+001) (62, 1.22210478782653810000e+000) (63, 1.09258880615234380000e+001) (64, -1.39478728175163270000e-001) (65, -1.18065834045410160000e+000) (66, -5.36255389451980590000e-002) (67, -5.22916316986083980000e-001) (68, -1.06111720204353330000e-001) (69, 7.51108586788177490000e-001) (70, 9.10158336162567140000e-001) (71, 3.58948349952697750000e-001) (72, 2.18056112527847290000e-001) (73, -2.70926833152771000000e-001) (74, -2.34907902777194980000e-002) (75, 3.91928330063819890000e-002) (76, 5.37675857543945310000e-001) (77, 1.05115194320678710000e+001) (78, -1.88055181503295900000e+000) (79, 1.05170631408691410000e+001) (80, 1.15129270553588870000e+001) (81, -1.43420502543449400000e-001) (82, 7.13407278060913090000e-001) (83, 1.52390778064727780000e-001) (84, 5.90891242027282710000e-001) (85, 3.26268941164016720000e-001) (86, 8.36515069007873540000e-001) (87, 1.10574092864990230000e+001) (88, -1.94140911102294920000e+000) (89, 1.13604145050048830000e+001) (90, 1.07796249389648440000e+001) (91, 1.15007486343383790000e+001) (92, 1.10119981765747070000e+001) (93, 1.10965070724487300000e+001) (94, 1.08875913619995120000e+001) (95, 1.05554876327514650000e+001) (96, 1.11278171539306640000e+001) (97, 1.06084938049316410000e+001) (98, -1.11321604251861570000e+000) (99, 1.05471239089965820000e+001) (100, -8.88986527919769290000e-001) (0, 1.11413402557373050000e+001) (1, 6.29682391881942750000e-002) (2, 3.57473582029342650000e-001) (3, -5.91113626956939700000e-001) (4, -7.49522387981414790000e-001) (5, -6.40785980224609380000e+000) (6, -6.47192192077636720000e+000) (7, -2.42454481124877930000e+000) (8, -3.08705425262451170000e+000) (9, 1.20928823947906490000e+000) (10, 1.01873624324798580000e+000) (11, 1.05879509449005130000e+000) (12, -2.38756880164146420000e-001) (13, 4.39544975757598880000e-001) (14, 6.48822128772735600000e-001) (15, 5.34532606601715090000e-001) (16, -2.47978698462247850000e-002) (17, 1.06702480316162110000e+001) (18, -2.20370817184448240000e+000) (19, 1.27902269363403320000e+000) (20, 1.07328681945800780000e+001) (21, 1.14026851654052730000e+001) (22, 6.80113434791564940000e-002) (23, -5.50213694572448730000e-001) (24, 4.57845628261566160000e-003) (25, 1.52931779623031620000e-001) (26, -5.47774374485015870000e-001) (27, 1.05054626464843750000e+001) (28, -2.37282085418701170000e+000) (29, 1.41932487487792970000e+000) (30, 1.11354122161865230000e+001) (31, 1.06589040756225590000e+001) (32, -5.43222844600677490000e-001) (33, -6.08854889869689940000e-001) (34, 6.11281916499137880000e-002) (35, -3.70979607105255130000e-002) (36, -6.03233146667480470000e+000) (37, -3.08849668502807620000e+000) (38, -2.21171998977661130000e+000) (39, 1.48867475986480710000e+000) (40, 1.19736683368682860000e+000) (41, 3.24667304754257200000e-001) (42, 9.79131907224655150000e-002) (43, -7.09206014871597290000e-002) (44, 1.60789579153060910000e-001) (45, 1.15817598998546600000e-001) (46, -9.34348255395889280000e-002) (47, 1.09636716842651370000e+001) (48, -2.23601198196411130000e+000) (49, 1.09075889587402340000e+001) (50, 1.06437129974365230000e+001) (51, 1.08575639724731450000e+001) (52, 1.23409271240234370000e+000) (53, 1.36939868330955510000e-001) (54, 5.20683467388153080000e-001) (55, 3.08323856443166730000e-002) (56, -2.77320981025695800000e-001) (57, 1.09567813873291020000e+001) (58, 1.07438474893569950000e-001) (59, 1.12507171630859380000e+001) (60, 1.11700868606567380000e+001) (61, 1.07855854034423830000e+001) (62, 1.50751841068267820000e+000) (63, 1.12611007690429690000e+001) (64, 2.38682463765144350000e-001) (65, 6.96486234664916990000e-002) (66, 3.12491029500961300000e-001) (67, -2.92103402316570280000e-002) (68, -1.51021316647529600000e-001) (69, 7.42362141609191890000e-001) (70, 9.78837609291076660000e-001) (71, 1.45374345779418950000e+000) (72, 8.01864638924598690000e-002) (73, 5.01556098461151120000e-001) (74, 5.21627247333526610000e-001) (75, 5.97953796386718750000e-001) (76, 4.71940040588378910000e-001) (77, 1.11452503204345700000e+001) (78, 6.28200531005859380000e-001) (79, 1.07794332504272460000e+001) (80, 1.13545179367065430000e+001) (81, 2.59737402200698850000e-001) (82, -5.45927286148071290000e-001) (83, -5.43235361576080320000e-001) (84, -4.45555746555328370000e-001) (85, -4.48172003030776980000e-001) (86, 6.02980554103851320000e-001) (87, 1.07273559570312500000e+001) (88, 6.03364050388336180000e-001) (89, 1.13963069915771480000e+001) (90, 1.14545049667358400000e+001) (91, 1.12462310791015620000e+001) (92, 1.14384813308715820000e+001) (93, 1.11353483200073240000e+001) (94, 1.06203508377075200000e+001) (95, 1.14234189987182620000e+001) (96, 1.10589475631713870000e+001) (97, 1.12868022918701170000e+001) (98, -9.31154191493988040000e-002) (99, 1.11279125213623050000e+001) (100, 1.99853628873825070000e-001) (0, 1.06070833206176760000e+001) (1, -1.05512484908103940000e-001) (2, -8.47734391689300540000e-001) (3, 2.12009951472282410000e-001) (4, 2.68092393875122070000e-001) (5, 6.22511982917785640000e-001) (6, 7.40445196628570560000e-001) (7, 5.17907321453094480000e-001) (8, 1.22236657142639160000e+000) (9, 1.15416502952575680000e+000) (10, 8.90769779682159420000e-001) (11, 1.22367513179779050000e+000) (12, 8.37474763393402100000e-001) (13, 3.25845181941986080000e-001) (14, 1.27744480967521670000e-001) (15, -3.54066014289855960000e-001) (16, -2.70883470773696900000e-001) (17, 1.06118583679199220000e+001) (18, 1.02902650833129880000e+000) (19, 6.95827364921569820000e-001) (20, 1.13582029342651370000e+001) (21, 1.07514877319335940000e+001) (22, -5.07233679294586180000e-001) (23, 3.33998292684555050000e-001) (24, 6.06061220169067380000e-001) (25, 2.15873122215271000000e-002) (26, -5.52769720554351810000e-001) (27, 1.08899307250976560000e+001) (28, 3.44051867723464970000e-001) (29, 6.63363635540008540000e-001) (30, 1.10857706069946290000e+001) (31, 1.05216464996337890000e+001) (32, -7.07527995109558110000e-001) (33, 3.66250634193420410000e-001) (34, -5.88410615921020510000e-001) (35, -5.74616312980651860000e-001) (36, 1.22365140914916990000e+000) (37, 1.24322915077209470000e+000) (38, 7.90275633335113530000e-001) (39, 7.65914380550384520000e-001) (40, 6.67625904083251950000e-001) (41, -2.30677917599678040000e-001) (42, -1.82828918099403380000e-001) (43, 6.43619418144226070000e-001) (44, 1.77834689617156980000e-001) (45, -1.56809735298156740000e+000) (46, 1.26392200589179990000e-001) (47, 1.05999050140380860000e+001) (48, 6.11741244792938230000e-001) (49, 1.07345027923583980000e+001) (50, 1.06499948501586910000e+001) (51, 1.14519729614257810000e+001) (52, 6.58684790134429930000e-001) (53, 8.92611145973205570000e-001) (54, 1.57055330276489260000e+000) (55, 2.58590400218963620000e-001) (56, 5.85627198219299320000e-001) (57, 1.06245174407958980000e+001) (58, -2.90573894977569580000e-001) (59, 1.13663434982299800000e+001) (60, 1.07306890487670900000e+001) (61, 1.05983667373657230000e+001) (62, 6.53685450553894040000e-001) (63, 1.10013589859008790000e+001) (64, 6.46825134754180910000e-001) (65, -3.64701747894287110000e-002) (66, 1.39539861679077150000e+000) (67, -7.68780529499053960000e-001) (68, -3.38836848735809330000e-001) (69, 1.24806296825408940000e+000) (70, 1.17111790180206300000e+000) (71, 4.33682203292846680000e-001) (72, 3.57688903808593750000e-001) (73, 8.54920372366905210000e-002) (74, 5.21571278572082520000e-001) (75, -5.55898487567901610000e-001) (76, -2.96244859695434570000e-001) (77, 1.06221132278442380000e+001) (78, 5.13402700424194340000e-001) (79, 1.10002374649047850000e+001) (80, 1.06753120422363280000e+001) (81, 6.40447735786437990000e-001) (82, -7.61574059724807740000e-002) (83, 2.04735264182090760000e-001) (84, -8.45217257738113400000e-002) (85, -6.10166072845458980000e-001) (86, 6.66564330458641050000e-002) (87, 1.10733366012573240000e+001) (88, 1.89470663666725160000e-001) (89, 1.08362846374511720000e+001) (90, 1.08137235641479490000e+001) (91, 1.05913162231445310000e+001) (92, 1.14247655868530270000e+001) (93, 1.10629539489746090000e+001) (94, 1.09479684829711910000e+001) (95, 1.13248748779296880000e+001) (96, 1.08300352096557620000e+001) (97, 1.08371496200561520000e+001) (98, 6.54057383537292480000e-001) (99, 1.11190357208251950000e+001) (100, -1.38477623462677000000e+000) (0, 1.10575370788574220000e+001) (1, -1.38193464279174800000e+000) (2, 3.82249802350997920000e-001) (3, 7.46753334999084470000e-001) (4, -4.36561256647109990000e-002) (5, -2.72090792655944820000e+000) (6, -2.79237294197082520000e+000) (7, -9.19311344623565670000e-001) (8, -7.47090458869934080000e-001) (9, 1.06261622905731200000e+000) (10, 1.31854426860809330000e+000) (11, 1.04604780673980710000e+000) (12, 1.00574219226837160000e+000) (13, -1.63856074213981630000e-001) (14, 4.51080083847045900000e-001) (15, -3.23290288448333740000e-001) (16, 3.24917525053024290000e-001) (17, 1.05737228393554690000e+001) (18, -7.47955679893493650000e-001) (19, 1.03213942050933840000e+000) (20, 1.07889509201049800000e+001) (21, 1.06608266830444340000e+001) (22, 9.94345963001251220000e-001) (23, 6.91340982913970950000e-001) (24, -1.15071487426757810000e+000) (25, 1.21180510520935060000e+000) (26, 4.63264912366867070000e-001) (27, 1.10643959045410160000e+001) (28, -1.37553381919860840000e+000) (29, 1.24807274341583250000e+000) (30, 1.14916477203369140000e+001) (31, 1.12500762939453130000e+001) (32, 1.34144783020019530000e+000) (33, 3.20879364013671870000e+000) (34, 4.55386698246002200000e-001) (35, 4.56795454025268550000e-001) (36, -3.27666854858398440000e+000) (37, -3.78516972064971920000e-001) (38, -4.34278905391693120000e-001) (39, 9.21641051769256590000e-001) (40, 1.59180986881256100000e+000) (41, 1.75448998808860780000e-001) (42, 8.61465215682983400000e-001) (43, 4.35995727777481080000e-001) (44, 3.78180354833602910000e-001) (45, 1.14830029010772710000e+000) (46, 5.15686392784118650000e-001) (47, 1.12296943664550780000e+001) (48, -9.56934750080108640000e-001) (49, 1.05991039276123050000e+001) (50, 1.15020627975463870000e+001) (51, 1.14752073287963870000e+001) (52, 8.96259784698486330000e-001) (53, 6.21766805648803710000e-001) (54, -6.32489860057830810000e-001) (55, 1.53764224052429200000e+000) (56, 4.99342292547225950000e-001) (57, 1.06242933273315430000e+001) (58, 2.55981534719467160000e-001) (59, 1.12059154510498050000e+001) (60, 1.06010589599609370000e+001) (61, 1.13675613403320310000e+001) (62, 1.40683400630950930000e+000) (63, 1.07515201568603520000e+001) (64, -1.24823403358459470000e+000) (65, 1.21900355815887450000e+000) (66, 1.13772273063659670000e-001) (67, -4.33062575757503510000e-002) (68, -1.00478231906890870000e-001) (69, 1.09206748008728030000e+000) (70, 8.20564568042755130000e-001) (71, 8.87190461158752440000e-001) (72, 9.01410400867462160000e-001) (73, 6.46397545933723450000e-002) (74, 5.73179364204406740000e-001) (75, -2.51216411590576170000e-001) (76, -5.04596948623657230000e-001) (77, 1.13050689697265630000e+001) (78, 3.93767684698104860000e-001) (79, 1.05905475616455080000e+001) (80, 1.06883554458618160000e+001) (81, -1.77970314025878910000e+000) (82, 6.11033916473388670000e-001) (83, 4.83134090900421140000e-001) (84, 5.59822678565979000000e-001) (85, -9.66939479112625120000e-002) (86, 2.58036889135837550000e-003) (87, 1.05686912536621090000e+001) (88, 8.39286386966705320000e-001) (89, 1.06697998046875000000e+001) (90, 1.15289821624755860000e+001) (91, 1.10425395965576170000e+001) (92, 1.09247026443481450000e+001) (93, 1.08467321395874020000e+001) (94, 1.05369644165039060000e+001) (95, 1.07361373901367190000e+001) (96, 1.15368337631225590000e+001) (97, 1.09922256469726560000e+001) (98, 7.76730477809906010000e-001) (99, 1.12418079376220700000e+001) (100, 6.33170902729034420000e-001) (0, 1.05813179016113280000e+001) (1, 3.68236839771270750000e-001) (2, -5.85174083709716800000e-001) (3, 4.83383357524871830000e-001) (4, 7.20820188522338870000e-001) (5, 1.42413198947906490000e+000) (6, 1.55363440513610840000e+000) (7, 1.00450420379638670000e+000) (8, 1.12429618835449220000e+000) (9, 1.15053009986877440000e+000) (10, 1.09175562858581540000e+000) (11, 1.27669954299926760000e+000) (12, 5.45397162437438960000e-001) (13, 5.31068667769432070000e-002) (14, -1.86140105128288270000e-001) (15, 4.70520138740539550000e-001) (16, -4.27670001983642580000e-001) (17, 1.05609998703002930000e+001) (18, 5.03800570964813230000e-001) (19, 1.29669690132141110000e+000) (20, 1.09618444442749020000e+001) (21, 1.11687088012695310000e+001) (22, 3.88307899236679080000e-001) (23, 3.60574387013912200000e-003) (24, 2.49470338225364690000e-001) (25, 1.67705273628234860000e+000) (26, -6.12114816904067990000e-002) (27, 1.08804454803466800000e+001) (28, 7.66105890274047850000e-001) (29, 1.41850781440734860000e+000) (30, 1.09598903656005860000e+001) (31, 1.13157091140747070000e+001) (32, 2.96048298478126530000e-002) (33, 5.67398130893707280000e-001) (34, 8.44883918762207030000e-001) (35, 1.77727901935577390000e+000) (36, 9.82298731803894040000e-001) (37, 7.58286416530609130000e-001) (38, 8.75738978385925290000e-001) (39, 1.30845808982849120000e+000) (40, 1.47782707214355470000e+000) (41, 3.59745681285858150000e-001) (42, -6.86180293560028080000e-002) (43, 2.47837364673614500000e-001) (44, -1.08306869864463810000e-001) (45, 4.93364408612251280000e-002) (46, 1.07107639312744140000e-001) (47, 1.06879701614379880000e+001) (48, 1.32551991939544680000e+000) (49, 1.07458477020263670000e+001) (50, 1.09176521301269530000e+001) (51, 1.14841804504394530000e+001) (52, 1.46917438507080080000e+000) (53, 7.29504466056823730000e-001) (54, 5.21674931049346920000e-001) (55, -3.93673509359359740000e-001) (56, 3.39128583669662480000e-001) (57, 1.11214075088500980000e+001) (58, 1.03280141949653630000e-001) (59, 1.15174131393432620000e+001) (60, 1.06836118698120120000e+001) (61, 1.11713371276855470000e+001) (62, 1.32275104522705080000e+000) (63, 1.07243757247924800000e+001) (64, -1.34710252285003660000e-001) (65, 1.63849785923957820000e-001) (66, 1.17745816707611080000e+000) (67, -1.27138540148735050000e-001) (68, 1.90928891301155090000e-001) (69, 1.13976216316223140000e+000) (70, 1.51766157150268550000e+000) (71, 9.98658835887908940000e-001) (72, 2.40757659077644350000e-001) (73, -1.47443830966949460000e-001) (74, -5.00906705856323240000e-001) (75, 1.42101600766181950000e-001) (76, -2.60248035192489620000e-001) (77, 1.05180892944335940000e+001) (78, -1.61945238709449770000e-001) (79, 1.08871107101440430000e+001) (80, 1.10471858978271480000e+001) (81, -1.24487221240997310000e-001) (82, 8.55610251426696780000e-001) (83, 2.51041918992996220000e-001) (84, 6.39869213104248050000e-001) (85, -2.32997629791498180000e-002) (86, -5.51467947661876680000e-002) (87, 1.08924951553344730000e+001) (88, 4.19036537408828740000e-001) (89, 1.10141458511352540000e+001) (90, 1.14109849929809570000e+001) (91, 1.13805398941040040000e+001) (92, 1.06964950561523440000e+001) (93, 1.06359901428222660000e+001) (94, 1.10449752807617190000e+001) (95, 1.11900520324707030000e+001) (96, 1.15012617111206050000e+001) (97, 1.10680809020996090000e+001) (98, -2.97119885683059690000e-001) (99, 1.08440713882446290000e+001) (100, 2.32786387205123900000e-001) (0, 1.09356946945190430000e+001) (1, -3.00456881523132320000e-001) (2, -1.47878974676132200000e-002) (3, -3.75062525272369380000e-001) (4, -6.49577915668487550000e-001) (5, -1.54293084144592290000e+000) (6, -1.67054247856140140000e+000) (7, 9.49742376804351810000e-001) (8, 3.77285093069076540000e-001) (9, 2.14912080764770510000e+000) (10, 2.39251828193664550000e+000) (11, 2.12630319595336910000e+000) (12, 2.21127986907958980000e-001) (13, -5.99768906831741330000e-002) (14, -1.08206085860729220000e-002) (15, -1.60380408167839050000e-001) (16, -1.39842605590820310000e+000) (17, 1.10742015838623050000e+001) (18, 3.19376081228256230000e-001) (19, 2.17764258384704590000e+000) (20, 1.08678827285766600000e+001) (21, 1.13145227432250980000e+001) (22, 5.17403423786163330000e-001) (23, 7.72035658359527590000e-001) (24, -8.24010312557220460000e-001) (25, -7.03252494335174560000e-001) (26, -2.24232244491577150000e+000) (27, 1.13846740722656250000e+001) (28, 2.02916935086250310000e-001) (29, 1.87582325935363770000e+000) (30, 1.14967107772827150000e+001) (31, 1.06487131118774410000e+001) (32, -2.19102919101715090000e-001) (33, 7.06744268536567690000e-002) (34, 2.56502568721771240000e-001) (35, -7.90132343769073490000e-001) (36, -1.09154748916625980000e+000) (37, 4.73924577236175540000e-002) (38, 4.27599042654037480000e-001) (39, 2.02567553520202640000e+000) (40, 2.35521554946899410000e+000) (41, 