FANN_FLO_2.1
num_layers=6
learning_rate=0.700000
connection_rate=1.000000
network_type=0
learning_momentum=0.000000
training_algorithm=2
train_error_function=1
train_stop_function=0
cascade_output_change_fraction=0.010000
quickprop_decay=-0.000100
quickprop_mu=1.750000
rprop_increase_factor=1.200000
rprop_decrease_factor=0.500000
rprop_delta_min=0.000000
rprop_delta_max=50.000000
rprop_delta_zero=0.100000
cascade_output_stagnation_epochs=12
cascade_candidate_change_fraction=0.010000
cascade_candidate_stagnation_epochs=12
cascade_max_out_epochs=150
cascade_min_out_epochs=50
cascade_max_cand_epochs=150
cascade_min_cand_epochs=50
cascade_num_candidate_groups=2
bit_fail_limit=3.49999994039535520000e-001
cascade_candidate_limit=1.00000000000000000000e+003
cascade_weight_multiplier=4.00000005960464480000e-001
cascade_activation_functions_count=10
cascade_activation_functions=3 5 7 8 10 11 14 15 16 17 
cascade_activation_steepnesses_count=4
cascade_activation_steepnesses=2.50000000000000000000e-001 5.00000000000000000000e-001 7.50000000000000000000e-001 1.00000000000000000000e+000 
layer_sizes=101 81 61 41 11 4 
scale_included=0
neurons (num_inputs, activation_function, activation_steepness)=(0, 0, 0.00000000000000000000e+000) (0, 0, 0.00000000000000000000e+000) (0, 0, 0.00000000000000000000e+000) (0, 0, 0.00000000000000000000e+000) (0, 0, 0.00000000000000000000e+000) (0, 0, 0.00000000000000000000e+000) (0, 0, 0.00000000000000000000e+000) (0, 0, 0.00000000000000000000e+000) (0, 0, 0.00000000000000000000e+000) (0, 0, 0.00000000000000000000e+000) (0, 0, 0.00000000000000000000e+000) (0, 0, 0.00000000000000000000e+000) (0, 0, 0.00000000000000000000e+000) (0, 0, 0.00000000000000000000e+000) (0, 0, 0.00000000000000000000e+000) (0, 0, 0.00000000000000000000e+000) (0, 0, 0.00000000000000000000e+000) (0, 0, 0.00000000000000000000e+000) (0, 0, 0.00000000000000000000e+000) (0, 0, 0.00000000000000000000e+000) (0, 0, 0.00000000000000000000e+000) (0, 0, 0.00000000000000000000e+000) (0, 0, 0.00000000000000000000e+000) (0, 0, 0.00000000000000000000e+000) (0, 0, 0.00000000000000000000e+000) (0, 0, 0.00000000000000000000e+000) (0, 0, 0.00000000000000000000e+000) (0, 0, 0.00000000000000000000e+000) (0, 0, 0.00000000000000000000e+000) (0, 0, 0.00000000000000000000e+000) (0, 0, 0.00000000000000000000e+000) (0, 0, 0.00000000000000000000e+000) (0, 0, 0.00000000000000000000e+000) (0, 0, 0.00000000000000000000e+000) (0, 0, 0.00000000000000000000e+000) (0, 0, 0.00000000000000000000e+000) (0, 0, 0.00000000000000000000e+000) (0, 0, 0.00000000000000000000e+000) (0, 0, 0.00000000000000000000e+000) (0, 0, 0.00000000000000000000e+000) (0, 0, 0.00000000000000000000e+000) (0, 0, 0.00000000000000000000e+000) (0, 0, 0.00000000000000000000e+000) (0, 0, 0.00000000000000000000e+000) (0, 0, 0.00000000000000000000e+000) (0, 0, 0.00000000000000000000e+000) (0, 0, 0.00000000000000000000e+000) (0, 0, 0.00000000000000000000e+000) (0, 0, 0.00000000000000000000e+000) (0, 0, 0.00000000000000000000e+000) (0, 0, 0.00000000000000000000e+000) (0, 0, 0.00000000000000000000e+000) (0, 0, 0.00000000000000000000e+000) (0, 0, 0.00000000000000000000e+000) (0, 0, 0.00000000000000000000e+000) (0, 0, 0.00000000000000000000e+000) (0, 0, 0.00000000000000000000e+000) (0, 0, 0.00000000000000000000e+000) (0, 0, 0.00000000000000000000e+000) (0, 0, 0.00000000000000000000e+000) (0, 0, 0.00000000000000000000e+000) (0, 0, 0.00000000000000000000e+000) (0, 0, 0.00000000000000000000e+000) (0, 0, 0.00000000000000000000e+000) (0, 0, 0.00000000000000000000e+000) (0, 0, 0.00000000000000000000e+000) (0, 0, 0.00000000000000000000e+000) (0, 0, 0.00000000000000000000e+000) (0, 0, 0.00000000000000000000e+000) (0, 0, 0.00000000000000000000e+000) (0, 0, 0.00000000000000000000e+000) (0, 0, 0.00000000000000000000e+000) (0, 0, 0.00000000000000000000e+000) (0, 0, 0.00000000000000000000e+000) (0, 0, 0.00000000000000000000e+000) (0, 0, 0.00000000000000000000e+000) (0, 0, 0.00000000000000000000e+000) (0, 0, 0.00000000000000000000e+000) (0, 0, 0.00000000000000000000e+000) (0, 0, 0.00000000000000000000e+000) (0, 0, 0.00000000000000000000e+000) (0, 0, 0.00000000000000000000e+000) (0, 0, 0.00000000000000000000e+000) (0, 0, 0.00000000000000000000e+000) (0, 0, 0.00000000000000000000e+000) (0, 0, 0.00000000000000000000e+000) (0, 0, 0.00000000000000000000e+000) (0, 0, 0.00000000000000000000e+000) (0, 0, 0.00000000000000000000e+000) (0, 0, 0.00000000000000000000e+000) (0, 0, 0.00000000000000000000e+000) (0, 0, 0.00000000000000000000e+000) (0, 0, 0.00000000000000000000e+000) (0, 0, 0.00000000000000000000e+000) (0, 0, 0.00000000000000000000e+000) (0, 0, 0.00000000000000000000e+000) (0, 0, 0.00000000000000000000e+000) (0, 0, 0.00000000000000000000e+000) (0, 0, 0.00000000000000000000e+000) (0, 0, 0.00000000000000000000e+000) (0, 0, 0.00000000000000000000e+000) (101, 6, 1.00000000000000000000e+000) (101, 6, 1.00000000000000000000e+000) (101, 6, 1.00000000000000000000e+000) (101, 6, 1.00000000000000000000e+000) (101, 6, 1.00000000000000000000e+000) (101, 6, 1.00000000000000000000e+000) (101, 6, 1.00000000000000000000e+000) (101, 6, 1.00000000000000000000e+000) (101, 6, 1.00000000000000000000e+000) (101, 6, 1.00000000000000000000e+000) (101, 6, 1.00000000000000000000e+000) (101, 6, 1.00000000000000000000e+000) (101, 6, 1.00000000000000000000e+000) (101, 6, 1.00000000000000000000e+000) (101, 6, 1.00000000000000000000e+000) (101, 6, 1.00000000000000000000e+000) (101, 6, 1.00000000000000000000e+000) (101, 6, 1.00000000000000000000e+000) (101, 6, 1.00000000000000000000e+000) (101, 6, 1.00000000000000000000e+000) (101, 6, 1.00000000000000000000e+000) (101, 6, 1.00000000000000000000e+000) (101, 6, 1.00000000000000000000e+000) (101, 6, 1.00000000000000000000e+000) (101, 6, 1.00000000000000000000e+000) (101, 6, 1.00000000000000000000e+000) (101, 6, 1.00000000000000000000e+000) (101, 6, 1.00000000000000000000e+000) (101, 6, 1.00000000000000000000e+000) (101, 6, 1.00000000000000000000e+000) (101, 6, 1.00000000000000000000e+000) (101, 6, 1.00000000000000000000e+000) (101, 6, 1.00000000000000000000e+000) (101, 6, 1.00000000000000000000e+000) (101, 6, 1.00000000000000000000e+000) (101, 6, 1.00000000000000000000e+000) (101, 6, 1.00000000000000000000e+000) (101, 6, 1.00000000000000000000e+000) (101, 6, 1.00000000000000000000e+000) (101, 6, 1.00000000000000000000e+000) (101, 6, 1.00000000000000000000e+000) (101, 6, 1.00000000000000000000e+000) (101, 6, 1.00000000000000000000e+000) (101, 6, 1.00000000000000000000e+000) (101, 6, 1.00000000000000000000e+000) (101, 6, 1.00000000000000000000e+000) (101, 6, 1.00000000000000000000e+000) (101, 6, 1.00000000000000000000e+000) (101, 6, 1.00000000000000000000e+000) (101, 6, 1.00000000000000000000e+000) (101, 6, 1.00000000000000000000e+000) (101, 6, 1.00000000000000000000e+000) (101, 6, 1.00000000000000000000e+000) (101, 6, 1.00000000000000000000e+000) (101, 6, 1.00000000000000000000e+000) (101, 6, 1.00000000000000000000e+000) (101, 6, 1.00000000000000000000e+000) (101, 6, 1.00000000000000000000e+000) (101, 6, 1.00000000000000000000e+000) (101, 6, 1.00000000000000000000e+000) (101, 6, 1.00000000000000000000e+000) (101, 6, 1.00000000000000000000e+000) (101, 6, 1.00000000000000000000e+000) (101, 6, 1.00000000000000000000e+000) (101, 6, 1.00000000000000000000e+000) (101, 6, 1.00000000000000000000e+000) (101, 6, 1.00000000000000000000e+000) (101, 6, 1.00000000000000000000e+000) (101, 6, 1.00000000000000000000e+000) (101, 6, 1.00000000000000000000e+000) (101, 6, 1.00000000000000000000e+000) (101, 6, 1.00000000000000000000e+000) (101, 6, 1.00000000000000000000e+000) (101, 6, 1.00000000000000000000e+000) (101, 6, 1.00000000000000000000e+000) (101, 6, 1.00000000000000000000e+000) (101, 6, 1.00000000000000000000e+000) (101, 6, 1.00000000000000000000e+000) (101, 6, 1.00000000000000000000e+000) (101, 6, 1.00000000000000000000e+000) (0, 6, 1.00000000000000000000e+000) (81, 6, 1.00000000000000000000e+000) (81, 6, 1.00000000000000000000e+000) (81, 6, 1.00000000000000000000e+000) (81, 6, 1.00000000000000000000e+000) (81, 6, 1.00000000000000000000e+000) (81, 6, 1.00000000000000000000e+000) (81, 6, 1.00000000000000000000e+000) (81, 6, 1.00000000000000000000e+000) (81, 6, 1.00000000000000000000e+000) (81, 6, 1.00000000000000000000e+000) (81, 6, 1.00000000000000000000e+000) (81, 6, 1.00000000000000000000e+000) (81, 6, 1.00000000000000000000e+000) (81, 6, 1.00000000000000000000e+000) (81, 6, 1.00000000000000000000e+000) (81, 6, 1.00000000000000000000e+000) (81, 6, 1.00000000000000000000e+000) (81, 6, 1.00000000000000000000e+000) (81, 6, 1.00000000000000000000e+000) (81, 6, 1.00000000000000000000e+000) (81, 6, 1.00000000000000000000e+000) (81, 6, 1.00000000000000000000e+000) (81, 6, 1.00000000000000000000e+000) (81, 6, 1.00000000000000000000e+000) (81, 6, 1.00000000000000000000e+000) (81, 6, 1.00000000000000000000e+000) (81, 6, 1.00000000000000000000e+000) (81, 6, 1.00000000000000000000e+000) (81, 6, 1.00000000000000000000e+000) (81, 6, 1.00000000000000000000e+000) (81, 6, 1.00000000000000000000e+000) (81, 6, 1.00000000000000000000e+000) (81, 6, 1.00000000000000000000e+000) (81, 6, 1.00000000000000000000e+000) (81, 6, 1.00000000000000000000e+000) (81, 6, 1.00000000000000000000e+000) (81, 6, 1.00000000000000000000e+000) (81, 6, 1.00000000000000000000e+000) (81, 6, 1.00000000000000000000e+000) (81, 6, 1.00000000000000000000e+000) (81, 6, 1.00000000000000000000e+000) (81, 6, 1.00000000000000000000e+000) (81, 6, 1.00000000000000000000e+000) (81, 6, 1.00000000000000000000e+000) (81, 6, 1.00000000000000000000e+000) (81, 6, 1.00000000000000000000e+000) (81, 6, 1.00000000000000000000e+000) (81, 6, 1.00000000000000000000e+000) (81, 6, 1.00000000000000000000e+000) (81, 6, 1.00000000000000000000e+000) (81, 6, 1.00000000000000000000e+000) (81, 6, 1.00000000000000000000e+000) (81, 6, 1.00000000000000000000e+000) (81, 6, 1.00000000000000000000e+000) (81, 6, 1.00000000000000000000e+000) (81, 6, 1.00000000000000000000e+000) (81, 6, 1.00000000000000000000e+000) (81, 6, 1.00000000000000000000e+000) (81, 6, 1.00000000000000000000e+000) (81, 6, 1.00000000000000000000e+000) (0, 6, 1.00000000000000000000e+000) (61, 6, 1.00000000000000000000e+000) (61, 6, 1.00000000000000000000e+000) (61, 6, 1.00000000000000000000e+000) (61, 6, 1.00000000000000000000e+000) (61, 6, 1.00000000000000000000e+000) (61, 6, 1.00000000000000000000e+000) (61, 6, 1.00000000000000000000e+000) (61, 6, 1.00000000000000000000e+000) (61, 6, 1.00000000000000000000e+000) (61, 6, 1.00000000000000000000e+000) (61, 6, 1.00000000000000000000e+000) (61, 6, 1.00000000000000000000e+000) (61, 6, 1.00000000000000000000e+000) (61, 6, 1.00000000000000000000e+000) (61, 6, 1.00000000000000000000e+000) (61, 6, 1.00000000000000000000e+000) (61, 6, 1.00000000000000000000e+000) (61, 6, 1.00000000000000000000e+000) (61, 6, 1.00000000000000000000e+000) (61, 6, 1.00000000000000000000e+000) (61, 6, 1.00000000000000000000e+000) (61, 6, 1.00000000000000000000e+000) (61, 6, 1.00000000000000000000e+000) (61, 6, 1.00000000000000000000e+000) (61, 6, 1.00000000000000000000e+000) (61, 6, 1.00000000000000000000e+000) (61, 6, 1.00000000000000000000e+000) (61, 6, 1.00000000000000000000e+000) (61, 6, 1.00000000000000000000e+000) (61, 6, 1.00000000000000000000e+000) (61, 6, 1.00000000000000000000e+000) (61, 6, 1.00000000000000000000e+000) (61, 6, 1.00000000000000000000e+000) (61, 6, 1.00000000000000000000e+000) (61, 6, 1.00000000000000000000e+000) (61, 6, 1.00000000000000000000e+000) (61, 6, 1.00000000000000000000e+000) (61, 6, 1.00000000000000000000e+000) (61, 6, 1.00000000000000000000e+000) (61, 6, 1.00000000000000000000e+000) (0, 6, 1.00000000000000000000e+000) (41, 6, 1.00000000000000000000e+000) (41, 6, 1.00000000000000000000e+000) (41, 6, 1.00000000000000000000e+000) (41, 6, 1.00000000000000000000e+000) (41, 6, 1.00000000000000000000e+000) (41, 6, 1.00000000000000000000e+000) (41, 6, 1.00000000000000000000e+000) (41, 6, 1.00000000000000000000e+000) (41, 6, 1.00000000000000000000e+000) (41, 6, 1.00000000000000000000e+000) (0, 6, 1.00000000000000000000e+000) (11, 4, 1.00000000000000000000e+000) (11, 4, 1.00000000000000000000e+000) (11, 4, 1.00000000000000000000e+000) (0, 4, 1.00000000000000000000e+000) 
connections (connected_to_neuron, weight)=(0, -2.20211502164602280000e-002) (1, -1.30570828914642330000e-001) (2, 1.68095618486404420000e-001) (3, -6.28790020942687990000e-001) (4, -2.96730875968933110000e-001) (5, 1.35329484939575200000e-001) (6, 1.55358955264091490000e-001) (7, 1.66268914937973020000e-001) (8, 4.79465126991271970000e-001) (9, 3.28261642456054690000e+001) (10, -6.17205023765563960000e-001) (11, 1.85176342725753780000e-001) (12, -4.00072276592254640000e-001) (13, -7.28315472602844240000e-001) (14, -1.37520939111709590000e-001) (15, -1.04034841060638430000e+000) (16, -2.91848391294479370000e-001) (17, 3.28771514892578130000e+001) (18, 3.18492621183395390000e-001) (19, 3.31123123168945310000e+001) (20, -5.60449659824371340000e-001) (21, 3.26467018127441410000e+001) (22, 4.13438796997070310000e-001) (23, 5.99465429782867430000e-001) (24, -9.35372412204742430000e-002) (25, 4.75866556167602540000e-001) (26, -3.90778362751007080000e-001) (27, 3.29297409057617190000e+001) (28, 2.99841195344924930000e-001) (29, 3.35149536132812500000e+001) (30, 1.50226652622222900000e-001) (31, 3.26850280761718750000e+001) (32, 4.62086260318756100000e-001) (33, -6.34793043136596680000e-001) (34, 2.40805357694625850000e-001) (35, 5.45962512493133540000e-001) (36, 8.22915807366371150000e-002) (37, 6.14287316799163820000e-001) (38, 6.38322591781616210000e-001) (39, 3.28237953186035160000e+001) (40, -1.79826304316520690000e-001) (41, -1.03212738037109370000e+000) (42, -2.54178732633590700000e-001) (43, -6.42970681190490720000e-001) (44, -6.70682549476623540000e-001) (45, 8.68933796882629390000e-001) (46, 1.59385800361633300000e-001) (47, 3.29643554687500000000e+001) (48, 3.91015142202377320000e-001) (49, 3.33885955810546880000e+001) (50, 3.33881454467773440000e+001) (51, 3.29639663696289060000e+001) (52, 3.31148147583007810000e+001) (53, 6.08507394790649410000e-001) (54, -3.08728605508804320000e-001) (55, 1.00914907455444340000e+000) (56, 1.16666980087757110000e-001) (57, 3.34897308349609380000e+001) (58, 1.58747684955596920000e+000) (59, 3.34879379272460940000e+001) (60, 3.35477066040039060000e+001) (61, 3.25326156616210940000e+001) (62, 3.31561546325683590000e+001) (63, -5.35965681076049800000e-001) (64, -4.99221444129943850000e-001) (65, 1.14896047115325930000e+000) (66, -3.79755616188049320000e-001) (67, 1.86945927143096920000e+000) (68, 1.48069596290588380000e+000) (69, 3.26900939941406250000e+001) (70, -2.35217496752738950000e-001) (71, -4.23942744731903080000e-001) (72, 3.04263353347778320000e-001) (73, -4.80951011180877690000e-001) (74, 2.58388817310333250000e-001) (75, -1.04743087291717530000e+000) (76, 6.49161517620086670000e-001) (77, 3.34172134399414060000e+001) (78, 1.59443914890289310000e-001) (79, 3.29643554687500000000e+001) (80, 3.79750505089759830000e-004) (81, -5.45099973678588870000e-001) (82, -4.84353721141815190000e-001) (83, -6.43179178237915040000e-001) (84, 2.22656309604644780000e-001) (85, -7.54128217697143550000e-001) (86, 8.67693066596984860000e-001) (87, 3.33004951477050780000e+001) (88, 5.60064613819122310000e-001) (89, 3.26868247985839840000e+001) (90, 3.29352874755859370000e+001) (91, 3.30915794372558590000e+001) (92, 3.26879806518554690000e+001) (93, 3.32674865722656250000e+001) (94, 3.31535911560058590000e+001) (95, 3.31045265197753910000e+001) (96, 3.30513916015625000000e+001) (97, 3.32041931152343750000e+001) (98, 3.09167861938476560000e-001) (99, 3.25658149719238280000e+001) (100, -7.06985354423522950000e-001) (0, 9.38225761055946350000e-002) (1, -6.52544572949409480000e-002) (2, 5.23846924304962160000e-001) (3, -5.06871223449707030000e-001) (4, -1.59611511230468750000e+000) (5, -4.57702457904815670000e-001) (6, -2.13119119405746460000e-001) (7, 5.31288743019104000000e-001) (8, 2.08734691143035890000e-001) (9, 3.34728469848632810000e+001) (10, 3.52182120084762570000e-001) (11, -8.35296511650085450000e-001) (12, -2.03773394227027890000e-001) (13, -2.69555926322937010000e+000) (14, -4.90471541881561280000e-001) (15, -1.16618299484252930000e+000) (16, -2.28544324636459350000e-003) (17, 3.26405792236328120000e+001) (18, -3.71061325073242190000e-001) (19, 3.31344299316406250000e+001) (20, -1.17916569113731380000e-001) (21, 3.35154037475585940000e+001) (22, 1.23147249221801760000e+000) (23, 7.31119096279144290000e-001) (24, -2.45762005448341370000e-001) (25, 8.83588969707489010000e-001) (26, -2.21312373876571660000e-001) (27, 3.30124588012695310000e+001) (28, 4.13098990917205810000e-001) (29, 3.30454940795898440000e+001) (30, -7.76333659887313840000e-002) (31, 3.32834167480468750000e+001) (32, 1.48224091529846190000e+000) (33, 6.46926999092102050000e-001) (34, 2.92957603931427000000e-001) (35, 2.39857816696166990000e+000) (36, -4.53536331653594970000e-001) (37, -3.51352334022521970000e-001) (38, 2.95902788639068600000e-001) (39, 3.25570373535156250000e+001) (40, -3.81792336702346800000e-001) (41, 5.87686717510223390000e-001) (42, -8.17751526832580570000e-001) (43, 1.16395160555839540000e-001) (44, -1.76320838928222660000e+000) (45, -2.16919094324111940000e-001) (46, 3.78564774990081790000e-001) (47, 3.35682144165039060000e+001) (48, -4.40571427345275880000e-001) (49, 3.34957580566406250000e+001) (50, 3.28914489746093750000e+001) (51, 3.34614028930664060000e+001) (52, 3.33795547485351560000e+001) (53, 4.42452013492584230000e-001) (54, 3.71985226869583130000e-001) (55, 6.97276413440704350000e-001) (56, -5.82370981574058530000e-002) (57, 3.33992309570312500000e+001) (58, 1.16908383369445800000e+000) (59, 3.32454681396484380000e+001) (60, 3.29395141601562500000e+001) (61, 3.30187072753906250000e+001) (62, 3.33727302551269530000e+001) (63, -5.45264482498168950000e-001) (64, -2.72681534290313720000e-001) (65, 2.51035833358764650000e+000) (66, 7.06399530172348020000e-002) (67, 3.69060546159744260000e-001) (68, 1.26717996597290040000e+000) (69, 3.28637924194335940000e+001) (70, -1.13772499561309810000e+000) (71, -9.85276937484741210000e-001) (72, -5.27836859226226810000e-001) (73, -1.34985208511352540000e+000) (74, -7.90368318557739260000e-001) (75, -7.28772401809692380000e-001) (76, 5.12357801198959350000e-002) (77, 3.31327934265136720000e+001) (78, 9.79836463928222660000e-001) (79, 3.35620002746582030000e+001) (80, -7.12575018405914310000e-003) (81, 4.07985031604766850000e-001) (82, -1.10557520389556880000e+000) (83, -1.16290748119354250000e+000) (84, -1.28365576267242430000e+000) (85, -5.81104993820190430000e-001) (86, 5.66101849079132080000e-001) (87, 3.27418174743652340000e+001) (88, 5.10538876056671140000e-001) (89, 3.30100860595703130000e+001) (90, 3.27132339477539060000e+001) (91, 3.28676681518554690000e+001) (92, 3.35455589294433590000e+001) (93, 3.28644332885742190000e+001) (94, 3.27981872558593750000e+001) (95, 3.29569816589355470000e+001) (96, 3.33301391601562500000e+001) (97, 3.32489013671875000000e+001) (98, 4.84420567750930790000e-001) (99, 3.30795974731445310000e+001) (100, -1.22540247440338130000e+000) (0, 1.19412600994110110000e+000) (1, 3.35080623626708980000e-001) (2, -2.56712466478347780000e-001) (3, 4.35778200626373290000e-001) (4, -2.88428854942321780000e+000) (5, -1.28496205806732180000e+000) (6, -6.69882059097290040000e-001) (7, -3.09071063995361330000e-001) (8, -2.05623045563697810000e-001) (9, 3.32072067260742190000e+001) (10, 1.03819584846496580000e+000) (11, 8.84503126144409180000e-001) (12, 9.50461700558662410000e-002) (13, -1.01255446672439580000e-001) (14, 7.03127503395080570000e-001) (15, 4.28790956735610960000e-001) (16, 5.03316581249237060000e-001) (17, 3.26963729858398440000e+001) (18, -1.37362718582153320000e-001) (19, 3.34400939941406250000e+001) (20, 6.72346293926239010000e-001) (21, 3.27809486389160160000e+001) (22, -2.09322050213813780000e-002) (23, -3.65008443593978880000e-001) (24, -1.83617973327636720000e+000) (25, -2.12327867746353150000e-001) (26, -1.31496172398328780000e-002) (27, 3.26194953918457030000e+001) (28, -3.88708055019378660000e-001) (29, 3.27040672302246090000e+001) (30, 1.45701920986175540000e+000) (31, 3.34756622314453130000e+001) (32, -2.36512884497642520000e-001) (33, 5.86942076683044430000e-001) (34, -2.36783671379089360000e+000) (35, 4.77512896060943600000e-001) (36, -1.66138720512390140000e+000) (37, 1.11194588243961330000e-001) (38, 9.38090495765209200000e-003) (39, 3.30439605712890620000e+001) (40, 1.10703301429748540000e+000) (41, 5.32261431217193600000e-001) (42, 2.74262875318527220000e-001) (43, 8.93105328083038330000e-001) (44, 2.61787265539169310000e-001) (45, 3.82659435272216800000e-001) (46, 4.27639842033386230000e-001) (47, 3.30662612915039060000e+001) (48, -2.41483703255653380000e-001) (49, 3.34050979614257810000e+001) (50, 3.32741546630859380000e+001) (51, 3.31804466247558590000e+001) (52, 3.27484512329101560000e+001) (53, 6.47991299629211430000e-001) (54, 2.48388633131980900000e-001) (55, 8.41704487800598140000e-001) (56, 7.72049963474273680000e-001) (57, 3.25904922485351560000e+001) (58, 5.68307876586914060000e-001) (59, 3.31469573974609370000e+001) (60, 3.28277359008789060000e+001) (61, 3.27518157958984370000e+001) (62, 3.25254364013671880000e+001) (63, 1.04332339763641360000e+000) (64, -1.36111378669738770000e+000) (65, 8.18301618099212650000e-001) (66, 1.10866047441959380000e-001) (67, 3.99131238460540770000e-001) (68, 6.85311734676361080000e-001) (69, 3.34327239990234370000e+001) (70, 4.59366381168365480000e-001) (71, 4.45778429508209230000e-001) (72, 4.22576367855072020000e-001) (73, 5.45305848121643070000e-001) (74, -1.24519839882850650000e-002) (75, 3.64889055490493770000e-001) (76, 5.52687585353851320000e-001) (77, 3.28687591552734380000e+001) (78, 9.58136558532714840000e-001) (79, 3.35719337463378910000e+001) (80, 5.50780534744262700000e-001) (81, 4.16255950927734380000e-001) (82, 9.78416800498962400000e-002) (83, -4.20552253723144530000e-001) (84, -2.41822814941406250000e+000) (85, -2.63245105743408200000e-001) (86, -6.29759058356285100000e-002) (87, 3.31765060424804690000e+001) (88, 9.40927267074584960000e-001) (89, 3.34008331298828120000e+001) (90, 3.27856903076171880000e+001) (91, 3.27900161743164060000e+001) (92, 3.27642211914062500000e+001) (93, 3.32118530273437500000e+001) (94, 3.34382667541503910000e+001) (95, 3.31369934082031250000e+001) (96, 3.28757438659667970000e+001) (97, 3.35732154846191410000e+001) (98, 9.54707503318786620000e-001) (99, 3.29401550292968750000e+001) (100, -2.01356068253517150000e-001) (0, 1.94142699241638180000e-001) (1, 6.00742936134338380000e-001) (2, 4.54866856336593630000e-001) (3, 3.48010927438735960000e-001) (4, -8.15897643566131590000e-001) (5, 6.99302613735198970000e-001) (6, -3.53769063949584960000e-002) (7, -5.27698636054992680000e-001) (8, -5.83108007907867430000e-001) (9, 3.35067825317382810000e+001) (10, -5.15010058879852290000e-001) (11, 1.06990374624729160000e-001) (12, 1.30939796566963200000e-001) (13, 5.90154901146888730000e-002) (14, 7.20410466194152830000e-001) (15, -1.49069279432296750000e-001) (16, 3.06983590126037600000e-001) (17, 3.31584625244140630000e+001) (18, -4.08291161060333250000e-001) (19, 3.28521270751953120000e+001) (20, -2.59658873081207280000e-001) (21, 3.25479011535644530000e+001) (22, -5.23923262953758240000e-002) (23, 6.25946760177612300000e-001) (24, -2.11370491981506350000e+000) (25, 4.74493891000747680000e-001) (26, 7.28376626968383790000e-001) (27, 3.26770515441894530000e+001) (28, -1.20668470859527590000e-001) (29, 3.31261596679687500000e+001) (30, -6.43583059310913090000e-001) (31, 3.34405403137207030000e+001) (32, 1.32070720195770260000e-001) (33, -6.09757483005523680000e-001) (34, 2.02894791960716250000e-001) (35, 2.64086842536926270000e-001) (36, 9.66250598430633540000e-002) (37, -6.04867935180664060000e-001) (38, 4.03681397438049320000e-002) (39, 3.27155380249023440000e+001) (40, -7.93178915977478030000e-001) (41, -3.07862699031829830000e-001) (42, 3.14673036336898800000e-002) (43, -2.88495004177093510000e-001) (44, 7.17718482017517090000e-001) (45, 5.51311135292053220000e-001) (46, -4.22294020652771000000e-001) (47, 3.29531021118164060000e+001) (48, -5.09463846683502200000e-001) (49, 3.25989532470703130000e+001) (50, 3.32556610107421880000e+001) (51, 3.32322692871093750000e+001) (52, 3.30199203491210940000e+001) (53, 7.55854904651641850000e-001) (54, 1.06420612335205080000e+000) (55, 5.42586266994476320000e-001) (56, 6.00585043430328370000e-001) (57, 3.29431381225585940000e+001) (58, 5.06558120250701900000e-001) (59, 3.29236526489257810000e+001) (60, 3.27606964111328130000e+001) (61, 3.31780776977539060000e+001) (62, 3.28536605834960940000e+001) (63, -8.82237672805786130000e-001) (64, -1.78605556488037110000e+000) (65, -4.01682965457439420000e-002) (66, 2.00567901134490970000e-001) (67, -2.10014790296554570000e-001) (68, 6.97686970233917240000e-001) (69, 3.29669799804687500000e+001) (70, -5.10268807411193850000e-001) (71, -7.59851396083831790000e-001) (72, -4.35027629137039180000e-002) (73, -3.74353647232055660000e-001) (74, 5.12681245803833010000e-001) (75, -4.47107195854187010000e-001) (76, 9.77341979742050170000e-002) (77, 3.28969879150390630000e+001) (78, 4.75265622138977050000e-001) (79, 3.35401115417480470000e+001) (80, 5.57011961936950680000e-001) (81, -4.10001054406166080000e-002) (82, 2.44338512420654300000e-001) (83, -1.82111993432044980000e-001) (84, -7.97310292720794680000e-001) (85, 2.22545444965362550000e-001) (86, 1.06510543823242190000e+000) (87, 3.28817367553710940000e+001) (88, 5.62658011913299560000e-001) (89, 3.31662521362304690000e+001) (90, 3.34618530273437500000e+001) (91, 3.30959091186523440000e+001) (92, 3.33155250549316410000e+001) (93, 3.27125282287597660000e+001) (94, 3.31638793945312500000e+001) (95, 3.26274108886718750000e+001) (96, 3.26245574951171880000e+001) (97, 3.33734016418457030000e+001) (98, 8.25476169586181640000e-001) (99, 3.30926704406738280000e+001) (100, -1.62540280818939210000e+000) (0, 7.60305881500244140000e-001) (1, 1.14315128326416020000e+000) (2, -2.99805879592895510000e-001) (3, -1.17801710963249210000e-001) (4, 6.59562349319458010000e-002) (5, -4.96224820613861080000e-001) (6, 2.95466661453247070000e-001) (7, 3.64889532327651980000e-001) (8, 8.34187150001525880000e-001) (9, 3.28881759643554690000e+001) (10, 1.49766802787780760000e+000) (11, 4.87877035140991210000e+000) (12, 6.51795715093612670000e-002) (13, 2.85643517971038820000e-001) (14, 7.75859475135803220000e-001) (15, 4.61029231548309330000e-001) (16, -9.20949816703796390000e-001) (17, 3.30650444030761720000e+001) (18, 5.83482742309570310000e-001) (19, 3.32892150878906250000e+001) (20, 1.49205982685089110000e+000) (21, 3.35159454345703130000e+001) (22, -1.21499752998352050000e+000) (23, 6.86402797698974610000e-001) (24, 3.17371696233749390000e-001) (25, -6.74025297164916990000e-001) (26, -2.67367959022521970000e-001) (27, 3.25671920776367190000e+001) (28, 4.45936620235443120000e-001) (29, 3.30750732421875000000e+001) (30, 1.67376685142517090000e+000) (31, 3.29757308959960940000e+001) (32, -7.27881968021392820000e-001) (33, 5.88120162487030030000e-001) (34, -9.20192003250122070000e-001) (35, 4.79500293731689450000e-001) (36, -2.79009521007537840000e-001) (37, 4.50006604194641110000e-001) (38, 3.16081821918487550000e-001) (39, 3.29119873046875000000e+001) (40, 1.42235743999481200000e+000) (41, 7.75943577289581300000e-001) (42, -4.25374209880828860000e-001) (43, 2.17706024646759030000e-001) (44, -2.93676257133483890000e-001) (45, 2.27362170815467830000e-001) (46, 1.83102209120988850000e-002) (47, 3.29533615112304690000e+001) (48, 7.44230985641479490000e-001) (49, 3.26440124511718750000e+001) (50, 3.25897521972656250000e+001) (51, 3.35541801452636720000e+001) (52, 3.27081069946289060000e+001) (53, 9.77813065052032470000e-001) (54, 7.19079971313476560000e-001) (55, 5.91351628303527830000e-001) (56, 1.62169650197029110000e-001) (57, 3.27471389770507810000e+001) (58, 6.20557248592376710000e-001) (59, 3.32228469848632810000e+001) (60, 3.27833175659179690000e+001) (61, 3.28206558227539060000e+001) (62, 3.31575012207031250000e+001) (63, 1.24375903606414790000e+000) (64, 6.10698640346527100000e-001) (65, -2.04480886459350590000e-001) (66, 4.36124593019485470000e-001) (67, 7.73934602737426760000e-001) (68, 7.73614168167114260000e-001) (69, 3.35501747131347660000e+001) (70, 4.59409666061401370000e+000) (71, 4.84201288223266600000e+000) (72, 4.67450284957885740000e+000) (73, -1.27480467781424520000e-002) (74, 4.35743719339370730000e-001) (75, 4.80385661125183110000e-001) (76, 7.23378300666809080000e-001) (77, 3.25415878295898440000e+001) (78, -1.17726042866706850000e-001) (79, 3.27255058288574220000e+001) (80, 9.83513832092285160000e-001) (81, 1.91961705684661870000e-001) (82, -2.16090127825737000000e-001) (83, -7.59544789791107180000e-001) (84, 3.55114899575710300000e-002) (85, 1.46808654069900510000e-001) (86, -9.34157799929380420000e-003) (87, 3.29533920288085940000e+001) (88, 2.19729870557785030000e-001) (89, 3.30748825073242190000e+001) (90, 3.31023178100585940000e+001) (91, 3.32504692077636720000e+001) (92, 3.30720634460449220000e+001) (93, 3.25622901916503910000e+001) (94, 3.32408905029296880000e+001) (95, 3.25877685546875000000e+001) (96, 3.33829498291015630000e+001) (97, 3.34145202636718750000e+001) (98, 6.36605396866798400000e-002) (99, 3.30288619995117190000e+001) (100, -8.98961186408996580000e-001) (0, 5.90831458568573000000e-001) (1, 1.19769263267517090000e+000) (2, 6.93161725997924800000e-001) (3, 1.85145139694213870000e+000) (4, 5.91703605651855470000e+000) (5, 2.21202445030212400000e+000) (6, 2.23067593574523930000e+000) (7, 2.36940360069274900000e+000) (8, 1.94987511634826660000e+000) (9, 3.27133941650390630000e+001) (10, 1.10538937151432040000e-002) (11, -2.33361735939979550000e-001) (12, -5.21850883960723880000e-001) (13, -1.77335172891616820000e-001) (14, 8.59659433364868160000e-001) (15, -9.33226346969604490000e-001) (16, 6.16814851760864260000e-001) (17, 3.32474250793457030000e+001) (18, 2.81206989288330080000e+000) (19, 3.27811088562011720000e+001) (20, -3.68479847908020020000e-001) (21, 3.34025955200195310000e+001) (22, -3.80169302225112920000e-001) (23, -4.00310367345809940000e-001) (24, 6.00048422813415530000e-001) (25, 7.96019375324249270000e-001) (26, 2.06884717941284180000e+000) (27, 3.29525299072265630000e+001) (28, 2.07809567451477050000e+000) (29, 3.33139877319335940000e+001) (30, 5.63449680805206300000e-001) (31, 3.25449218750000000000e+001) (32, 3.41915726661682130000e-001) (33, 8.94246816635131840000e-001) (34, 2.20425188541412350000e-001) (35, 2.23644375801086430000e+000) (36, 1.79781579971313480000e+000) (37, 2.00669455528259280000e+000) (38, 2.53636884689331050000e+000) (39, 3.31632385253906250000e+001) (40, 4.21128451824188230000e-001) (41, 5.22321283817291260000e-001) (42, 4.15314555168151860000e-001) (43, 9.48428690433502200000e-001) (44, 1.67616450786590580000e+000) (45, 1.30070436000823970000e+000) (46, 1.03680992126464840000e+000) (47, 3.30834732055664060000e+001) (48, 2.87549114227294920000e+000) (49, 3.27020187377929690000e+001) (50, 3.29125671386718750000e+001) (51, 3.34411811828613280000e+001) (52, 3.34195480346679690000e+001) (53, 4.81537505984306340000e-002) (54, 5.97641348838806150000e-001) (55, 8.26079547405242920000e-001) (56, 1.48101472854614260000e+000) (57, 3.27899208068847660000e+001) (58, 1.44487881660461430000e+000) (59, 3.33306198120117190000e+001) (60, 3.35183830261230470000e+001) (61, 3.35065917968750000000e+001) (62, 3.31051368713378910000e+001) (63, 5.36882460117340090000e-001) (64, 4.97978478670120240000e-001) (65, 2.54085946083068850000e+000) (66, -1.66813075542449950000e-001) (67, 1.41693377494812010000e+000) (68, 5.06443798542022710000e-001) (69, 3.25899467468261720000e+001) (70, -3.37322533130645750000e-001) (71, -6.68208658695220950000e-001) (72, -5.22490620613098140000e-001) (73, -1.73700165748596190000e+000) (74, -8.82293283939361570000e-002) (75, -5.16934156417846680000e-001) (76, 7.39509105682373050000e-001) (77, 3.28631172180175780000e+001) (78, 3.05500775575637820000e-001) (79, 3.31902542114257810000e+001) (80, -5.45008033514022830000e-002) (81, 7.62525022029876710000e-001) (82, 1.23460876941680910000e+000) (83, 1.22073233127593990000e+000) (84, 6.38755130767822270000e+000) (85, 2.42803072929382320000e+000) (86, 1.91480255126953120000e+000) (87, 3.28023223876953130000e+001) (88, 1.63211762905120850000e-001) (89, 3.29062843322753910000e+001) (90, 3.35447578430175780000e+001) (91, 3.28674774169921880000e+001) (92, 3.28004646301269530000e+001) (93, 3.28759346008300780000e+001) (94, 3.28658409118652340000e+001) (95, 3.32536087036132810000e+001) (96, 3.27237434387207030000e+001) (97, 3.30709075927734370000e+001) (98, 7.07723855972290040000e-001) (99, 3.28303985595703130000e+001) (100, 1.15861892700195310000e+000) (0, 4.25130911171436310000e-002) (1, 1.73529952764511110000e-001) (2, -7.43251502513885500000e-001) (3, 4.44631248712539670000e-001) (4, 7.44868457317352290000e-001) (5, 9.15122628211975100000e-001) (6, 1.40352100133895870000e-001) (7, 7.66168534755706790000e-001) (8, 1.99768304824829100000e-001) (9, 3.25671920776367190000e+001) (10, 9.39789414405822750000e-001) (11, 5.61701595783233640000e-001) (12, 3.36066707968711850000e-002) (13, 4.28111165761947630000e-001) (14, 1.42260283231735230000e-001) (15, -4.59425568580627440000e-001) (16, -2.35716030001640320000e-001) (17, 3.30417480468750000000e+001) (18, 7.57483780384063720000e-001) (19, 3.26348800659179690000e+001) (20, 2.61416524648666380000e-001) (21, 3.32119178771972660000e+001) (22, 1.30164533853530880000e-001) (23, 1.50139570236206050000e-001) (24, 2.91858643293380740000e-001) (25, 6.90201222896575930000e-002) (26, 1.69496253132820130000e-001) (27, 3.26521186828613280000e+001) (28, 4.25379872322082520000e-001) (29, 3.27203788757324220000e+001) (30, 1.12636744976043700000e+000) (31, 3.31361579895019530000e+001) (32, -6.97099089622497560000e-001) (33, 2.24017813801765440000e-001) (34, 2.10474625229835510000e-001) (35, -3.60989183187484740000e-001) (36, 3.43498647212982180000e-001) (37, 5.70969700813293460000e-001) (38, 1.08404362201690670000e+000) (39, 3.27953681945800780000e+001) (40, 2.33920127153396610000e-001) (41, -3.09140324592590330000e-001) (42, 1.04077112674713130000e+000) (43, 2.53488063812255860000e-001) (44, 3.38872075080871580000e-001) (45, 2.92459845542907710000e-001) (46, 2.99506574869155880000e-001) (47, 3.28822174072265620000e+001) (48, 9.71109688282012940000e-001) (49, 3.31448440551757810000e+001) (50, 3.29397087097167970000e+001) (51, 3.34702491760253910000e+001) (52, 3.25451126098632810000e+001) (53, -4.19722497463226320000e-001) (54, -2.74172931909561160000e-001) (55, -8.17364037036895750000e-001) (56, 9.70444440841674800000e-001) (57, 3.27483558654785160000e+001) (58, 8.16387295722961430000e-001) (59, 3.30214614868164060000e+001) (60, 3.35416488647460940000e+001) (61, 3.35625457763671880000e+001) (62, 3.34947967529296880000e+001) (63, 1.94149702787399290000e-001) (64, -2.97295033931732180000e-001) (65, -4.12552982568740840000e-001) (66, 3.26392203569412230000e-001) (67, 1.12102699279785160000e+000) (68, 1.32853186130523680000e+000) (69, 3.30236091613769530000e+001) (70, 5.81827223300933840000e-001) (71, -3.73592853546142580000e-001) (72, -1.00038826465606690000e-001) (73, 5.11894285678863530000e-001) (74, 7.45578825473785400000e-001) (75, -3.32487076520919800000e-001) (76, 7.27110922336578370000e-001) (77, 3.33544616699218750000e+001) (78, 8.82524132728576660000e-001) (79, 3.33565750122070310000e+001) (80, -8.93606841564178470000e-002) (81, 2.84412831068038940000e-001) (82, 5.77562570571899410000e-001) (83, 5.73492586612701420000e-001) (84, 5.25474071502685550000e-001) (85, -3.29701304435729980000e-001) (86, 3.29653680324554440000e-001) (87, 3.27141304016113280000e+001) (88, 4.18674349784851070000e-001) (89, 3.32563018798828120000e+001) (90, 3.32602119445800780000e+001) (91, 3.27634201049804690000e+001) (92, 3.35446624755859380000e+001) (93, 3.29955978393554690000e+001) (94, 3.28822479248046880000e+001) (95, 3.34086532592773440000e+001) (96, 3.34294853210449220000e+001) (97, 3.31155204772949220000e+001) (98, 7.12514281272888180000e-001) (99, 3.31899337768554690000e+001) (100, -8.03829312324523930000e-001) (0, -1.85301676392555240000e-001) (1, 7.70142972469329830000e-002) (2, 7.17529475688934330000e-001) (3, 1.15614283084869380000e+000) (4, 2.71437525749206540000e+000) (5, 1.62972009181976320000e+000) (6, 8.59564542770385740000e-001) (7, 1.39026772975921630000e+000) (8, 1.27114880084991460000e+000) (9, 3.34559860229492190000e+001) (10, -6.93684279918670650000e-001) (11, -6.45270347595214840000e-002) (12, -4.89156037569046020000e-001) (13, 1.98096290230751040000e-001) (14, 4.62062507867813110000e-001) (15, 6.65012776851654050000e-001) (16, -5.22492825984954830000e-001) (17, 3.35478668212890630000e+001) (18, 8.52293372154235840000e-001) (19, 3.34677810668945310000e+001) (20, -7.83992946147918700000e-001) (21, 3.31646804809570310000e+001) (22, -6.52846097946166990000e-001) (23, -1.75326704978942870000e-001) (24, 8.46798062324523930000e-001) (25, -2.57438302040100100000e+000) (26, 1.37847602367401120000e+000) (27, 3.33047256469726560000e+001) (28, 7.17407107353210450000e-001) (29, 3.34267272949218750000e+001) (30, -7.09130942821502690000e-001) (31, 3.30407562255859380000e+001) (32, -4.50853407382965090000e-001) (33, -9.09899845719337460000e-002) (34, 1.58299371600151060000e-001) (35, -8.47472310066223140000e-001) (36, 1.67747032642364500000e+000) (37, 8.10055255889892580000e-001) (38, 1.54579234123229980000e+000) (39, 3.29680061340332030000e+001) (40, -6.53016507625579830000e-001) (41, 2.55302935838699340000e-002) (42, 2.66857206821441650000e-001) (43, -5.14777123928070070000e-001) (44, 9.23031717538833620000e-002) (45, -7.13754296302795410000e-001) (46, 1.67183578014373780000e-001) (47, 3.29211540222167970000e+001) (48, 8.94883871078491210000e-001) (49, 3.33710327148437500000e+001) (50, 3.35493736267089840000e+001) (51, 3.29240379333496090000e+001) (52, 3.32696342468261720000e+001) (53, -8.02045315504074100000e-002) (54, -2.05526217818260190000e-001) (55, -1.01038432121276860000e+000) (56, 1.91379129886627200000e-001) (57, 3.34392585754394530000e+001) (58, -3.24662506580352780000e-001) (59, 3.29961433410644530000e+001) (60, 3.31833000183105470000e+001) (61, 3.34869461059570310000e+001) (62, 3.35079345703125000000e+001) (63, -2.50120639801025390000e-001) (64, 4.94215905666351320000e-001) (65, -1.13914400339126590000e-001) (66, -5.05428016185760500000e-001) (67, -5.33801913261413570000e-001) (68, -6.59142434597015380000e-002) (69, 3.26245574951171880000e+001) (70, 5.91989636421203610000e-001) (71, 8.45880731940269470000e-002) (72, -2.23833128809928890000e-001) (73, -6.97318255901336670000e-001) (74, 3.75695556402206420000e-001) (75, 4.75101560354232790000e-001) (76, 3.34853917360305790000e-001) (77, 3.25534439086914060000e+001) (78, -3.51212739944458010000e-001) (79, 3.25514602661132810000e+001) (80, 3.92539441585540770000e-001) (81, -4.19363170862197880000e-001) (82, 6.57874524593353270000e-001) (83, 8.01381409168243410000e-001) (84, 1.74046397209167480000e+000) (85, 1.31825947761535640000e+000) (86, 9.87714529037475590000e-003) (87, 3.27216606140136720000e+001) (88, -2.78575848788022990000e-002) (89, 3.33930816650390630000e+001) (90, 3.33967971801757810000e+001) (91, 3.25624847412109380000e+001) (92, 3.26980743408203120000e+001) (93, 3.34263114929199220000e+001) (94, 3.26108398437500000000e+001) (95, 3.29036560058593750000e+001) (96, 3.31487503051757810000e+001) (97, 3.29781341552734380000e+001) (98, -2.88015902042388920000e-001) (99, 3.35369415283203130000e+001) (100, -2.34584784507751460000e+000) (0, -2.68061828613281250000e+000) (1, -3.87565165758132930000e-001) (2, 1.85879123210906980000e+000) (3, -3.02820444107055660000e-001) (4, 8.46608340740203860000e-001) (5, 1.86423349380493160000e+000) (6, 2.28119850158691410000e+000) (7, 7.19115734100341800000e-001) (8, 7.81319141387939450000e-001) (9, 3.35016250610351560000e+001) (10, -3.89645266532897950000e+000) (11, -5.45645952224731450000e-002) (12, -6.96702122688293460000e-001) (13, -6.04897379875183110000e-001) (14, -2.55020380020141600000e-001) (15, -2.76513174176216130000e-002) (16, 6.61174207925796510000e-002) (17, 3.34613418579101560000e+001) (18, 1.15437936782836910000e+000) (19, 3.30168762207031250000e+001) (20, -3.06854772567749020000e+000) (21, 3.31782989501953120000e+001) (22, -3.19759696722030640000e-001) (23, -7.39350438117980960000e-001) (24, 4.34553414583206180000e-001) (25, -3.85911881923675540000e-001) (26, 4.40995752811431880000e-001) (27, 3.26563491821289060000e+001) (28, 3.34326267242431640000e-001) (29, 3.25898818969726560000e+001) (30, -3.65513777732849120000e+000) (31, 3.32730636596679690000e+001) (32, -5.85760101675987240000e-002) (33, -1.16312396526336670000e+000) (34, 9.46100234985351560000e-001) (35, -2.16920733451843260000e-001) (36, 1.91586136817932130000e+000) (37, 7.19211876392364500000e-001) (38, 7.12225615978240970000e-001) (39, 3.34838371276855470000e+001) (40, -3.97259593009948730000e+000) (41, 4.33144569396972660000e-002) (42, -8.16983133554458620000e-002) (43, -1.58889293670654300000e-001) (44, 6.68637007474899290000e-002) (45, 8.56272652745246890000e-002) (46, 5.40874004364013670000e-001) (47, 3.29735488891601560000e+001) (48, 8.56854140758514400000e-001) (49, 3.29108047485351560000e+001) (50, 3.25671920776367190000e+001) (51, 3.26276664733886720000e+001) (52, 3.34022140502929690000e+001) (53, 2.83011049032211300000e-003) (54, 4.86236572265625000000e-001) (55, -2.17119798064231870000e-001) (56, -6.17395862936973570000e-002) (57, 3.34127883911132810000e+001) (58, 1.01638603210449220000e+000) (59, 3.31035003662109380000e+001) (60, 3.25716476440429690000e+001) (61, 3.25823822021484370000e+001) (62, 3.26874656677246090000e+001) (63, -3.89481806755065920000e+000) (64, 6.64074659347534180000e-001) (65, 3.28713059425354000000e-001) (66, 7.17028453946113590000e-002) (67, 1.15909171104431150000e+000) (68, 5.79744279384613040000e-001) (69, 3.29709854125976560000e+001) (70, -2.34797596931457520000e-001) (71, -9.17656779289245610000e-001) (72, -5.69363832473754880000e-002) (73, -4.02352541685104370000e-001) (74, -1.05777032673358920000e-001) (75, 3.26597183942794800000e-001) (76, -7.44302496314048770000e-002) (77, 3.33895225524902340000e+001) (78, -6.66602551937103270000e-002) (79, 3.32805328369140630000e+001) (80, -2.06470465660095210000e+000) (81, 4.87929373979568480000e-001) (82, 5.36204636096954350000e-001) (83, 1.43948107957839970000e-001) (84, 8.22637140750885010000e-001) (85, 6.58307135105133060000e-001) (86, -5.47283142805099490000e-003) (87, 3.34515342712402340000e+001) (88, 5.92836916446685790000e-001) (89, 3.27618789672851560000e+001) (90, 3.33135070800781250000e+001) (91, 3.27923240661621090000e+001) (92, 3.25932159423828120000e+001) (93, 3.30387039184570310000e+001) (94, 3.32502784729003910000e+001) (95, 3.25693435668945310000e+001) (96, 3.30337371826171880000e+001) (97, 3.26012916564941410000e+001) (98, 6.98912799358367920000e-001) (99, 3.31168022155761720000e+001) (100, 7.93859586119651790000e-002) (0, 1.56714212894439700000e+000) (1, 9.34589207172393800000e-001) (2, 1.20310688018798830000e+000) (3, 1.57716587185859680000e-001) (4, 1.74331277608871460000e-001) (5, -2.08114713430404660000e-001) (6, 2.17598900198936460000e-001) (7, -2.29577854275703430000e-001) (8, -6.52724504470825200000e-002) (9, 3.29287185668945310000e+001) (10, 5.31282089650630950000e-002) (11, -1.73903480172157290000e-001) (12, -3.18643510341644290000e-001) (13, 6.58963143825531010000e-001) (14, 5.06578028202056880000e-001) (15, 6.74053490161895750000e-001) (16, 7.12019324302673340000e-001) (17, 3.34748306274414060000e+001) (18, -4.82234060764312740000e-002) (19, 3.34530410766601560000e+001) (20, 3.56518000364303590000e-001) (21, 3.32551193237304690000e+001) (22, 3.46574544906616210000e-001) (23, 2.65132248401641850000e-001) (24, 7.98304438591003420000e-001) (25, 7.20199048519134520000e-001) (26, 3.48475247621536250000e-001) (27, 3.32347984313964840000e+001) (28, -4.31795001029968260000e-001) (29, 3.29156112670898440000e+001) (30, -2.11569387465715410000e-002) (31, 3.31682052612304690000e+001) (32, 6.33620500564575200000e-001) (33, 3.41414064168930050000e-001) (34, 2.00985693931579590000e+000) (35, -4.91502821445465090000e-001) (36, -2.32029762119054790000e-002) (37, -1.23662278056144710000e-001) (38, -2.94280946254730220000e-001) (39, 3.33815422058105470000e+001) (40, 3.52255731821060180000e-001) (41, 3.73842000961303710000e-001) (42, 5.47704435884952550000e-002) (43, -6.91319167613983150000e-001) (44, 5.05889654159545900000e-001) (45, 1.51723039150238040000e+000) (46, -3.42708557844161990000e-001) (47, 3.32316284179687500000e+001) (48, -3.38951498270034790000e-003) (49, 3.28697509765625000000e+001) (50, 3.31966323852539060000e+001) (51, 3.31991310119628910000e+001) (52, 3.28505249023437500000e+001) (53, 1.32256478071212770000e-001) (54, -8.27525258064270020000e-001) (55, 2.31826066970825200000e-001) (56, -2.46535152196884160000e-001) (57, 3.28788833618164060000e+001) (58, -5.61291992664337160000e-001) (59, 3.35673217773437500000e+001) (60, 3.35054702758789060000e+001) (61, 3.28012313842773440000e+001) (62, 3.34111213684082030000e+001) (63, 6.44589483737945560000e-001) (64, 3.12470555305480960000e-001) (65, 4.09885823726654050000e-001) (66, -1.37080383300781250000e+000) (67, -5.85711896419525150000e-001) (68, -7.04446256160736080000e-001) (69, 3.27317237854003910000e+001) (70, -1.38042792677879330000e-001) (71, 2.25916072726249690000e-001) (72, 4.82164621353149410000e-001) (73, 9.34451967477798460000e-002) (74, 1.22190093994140630000e+000) (75, 4.52095389366149900000e-001) (76, -3.94496738910675050000e-001) (77, 3.27221412658691410000e+001) (78, -1.92611396312713620000e-001) (79, 3.31159362792968750000e+001) (80, 1.00000476837158200000e+000) (81, 4.89999949932098390000e-001) (82, 8.78744065761566160000e-001) (83, 7.40044295787811280000e-001) (84, 2.44386166334152220000e-001) (85, -1.19316205382347110000e-001) (86, -2.11487129330635070000e-001) (87, 3.29572372436523440000e+001) (88, -5.02795398235321040000e-001) (89, 3.34896392822265630000e+001) (90, 3.33301391601562500000e+001) (91, 3.35178375244140630000e+001) (92, 3.27436141967773440000e+001) (93, 3.31742324829101560000e+001) (94, 3.30581550598144530000e+001) (95, 3.34042968750000000000e+001) (96, 3.28226394653320310000e+001) (97, 3.34203834533691410000e+001) (98, -4.78215277194976810000e-001) (99, 3.30268478393554690000e+001) (100, -1.44675970077514650000e+000) (0, -3.49139243364334110000e-001) (1, 1.05915427207946780000e+000) (2, 4.12827521562576290000e-001) (3, 2.27144226431846620000e-001) (4, 1.16948112845420840000e-001) (5, 8.01206529140472410000e-001) (6, 9.00744736194610600000e-001) (7, 1.58995139598846440000e+000) (8, 1.82655501365661620000e+000) (9, 3.34630699157714840000e+001) (10, 5.50296604633331300000e-002) (11, -9.01296213269233700000e-002) (12, -9.03144896030426030000e-001) (13, -1.92327529191970830000e-001) (14, 9.77323055267333980000e-001) (15, 1.17205262184143070000e-001) (16, 2.12996061891317370000e-002) (17, 3.27635116577148440000e+001) (18, 2.06835031509399410000e+000) (19, 3.25916137695312500000e+001) (20, -3.32547783851623540000e-001) (21, 3.34160919189453130000e+001) (22, 8.10037612915039060000e-001) (23, -5.12079358100891110000e-001) (24, 9.59382355213165280000e-001) (25, -3.03814339637756350000e+000) (26, -1.86899095773696900000e-001) (27, 3.34342575073242190000e+001) (28, 1.83136212825775150000e+000) (29, 3.29496765136718750000e+001) (30, 4.85550403594970700000e-001) (31, 3.32846984863281250000e+001) (32, 6.88963711261749270000e-001) (33, 1.80650308728218080000e-001) (34, 7.11780309677124020000e-001) (35, 2.55847305059432980000e-001) (36, 1.04886662960052490000e+000) (37, 1.89042484760284420000e+000) (38, 1.39699578285217290000e+000) (39, 3.25680618286132810000e+001) (40, 4.45182546973228450000e-002) (41, 1.02361094951629640000e+000) (42, -2.13921368122100830000e-002) (43, 1.86284649372100830000e+000) (44, 2.61230498552322390000e-001) (45, -1.14539253711700440000e+000) (46, -6.92919433116912840000e-001) (47, 3.29622039794921880000e+001) (48, 1.97416388988494870000e+000) (49, 3.33487586975097660000e+001) (50, 3.25556564331054690000e+001) (51, 3.29323387145996090000e+001) (52, 3.27990570068359370000e+001) (53, -8.04988503456115720000e-001) (54, 4.32136535644531250000e-001) (55, -2.74395108222961430000e+000) (56, -8.75812113285064700000e-001) (57, 3.27151565551757810000e+001) (58, 3.09372186660766600000e-001) (59, 3.26789741516113280000e+001) (60, 3.25700454711914060000e+001) (61, 3.29517288208007810000e+001) (62, 3.35181579589843750000e+001) (63, 5.92599213123321530000e-002) (64, 3.70965719223022460000e-001) (65, -7.04242289066314700000e-002) (66, 1.84279948472976680000e-001) (67, 9.65632498264312740000e-001) (68, 6.21288418769836430000e-002) (69, 3.25334472656250000000e+001) (70, -2.39533156156539920000e-001) (71, -2.86578238010406490000e-001) (72, 5.40300786495208740000e-001) (73, 6.67171701788902280000e-002) (74, 9.04512047767639160000e-001) (75, 2.60359644889831540000e-001) (76, -1.00249445438385010000e+000) (77, 3.26082763671875000000e+001) (78, -6.11558556556701660000e-001) (79, 3.28947448730468750000e+001) (80, -1.68970510363578800000e-001) (81, 1.27476716041564940000e+000) (82, 8.51197242736816410000e-001) (83, -4.63776998221874240000e-002) (84, 6.94212317466735840000e-001) (85, -1.53189450502395630000e-002) (86, -1.29122424125671390000e+000) (87, 3.34238739013671880000e+001) (88, -6.18868172168731690000e-002) (89, 3.31850280761718750000e+001) (90, 3.35256576538085940000e+001) (91, 3.32336425781250000000e+001) (92, 3.35213623046875000000e+001) (93, 3.32945671081542970000e+001) (94, 3.28264236450195310000e+001) (95, 3.27698593139648440000e+001) (96, 3.26149749755859380000e+001) (97, 3.29493865966796880000e+001) (98, -5.35863399505615230000e-001) (99, 3.32858810424804690000e+001) (100, 1.13226354122161870000e+000) (0, 5.03923118114471440000e-001) (1, -1.12687021493911740000e-001) (2, -4.95308458805084230000e-001) (3, 5.17466217279434200000e-002) (4, -3.21120053529739380000e-001) (5, 9.64331626892089840000e-001) (6, 1.01230609416961670000e+000) (7, 2.19532585144042970000e+000) (8, 2.54351758956909180000e+000) (9, 3.27806587219238280000e+001) (10, -3.68617475032806400000e-001) (11, 4.83996003866195680000e-001) (12, -2.72171378135681150000e-001) (13, 5.07042169570922850000e-001) (14, -5.39841130375862120000e-002) (15, 5.59713363647460940000e-001) (16, 6.33869394659996030000e-002) (17, 3.32416572570800780000e+001) (18, 1.98685967922210690000e+000) (19, 3.33138885498046880000e+001) (20, 4.25445497035980220000e-001) (21, 3.33499755859375000000e+001) (22, -5.23565649986267090000e-001) (23, -7.27143585681915280000e-002) (24, -2.13565558195114140000e-001) (25, 1.18848249316215520000e-001) (26, 1.02090418338775630000e+000) (27, 3.33684997558593750000e+001) (28, 2.29704332351684570000e+000) (29, 3.31303558349609380000e+001) (30, -2.71001935005187990000e-001) (31, 3.30491828918457030000e+001) (32, -3.09298783540725710000e-001) (33, -3.82734894752502440000e-001) (34, -1.04925399646162990000e-002) (35, 1.70936599373817440000e-001) (36, 5.85919559001922610000e-001) (37, 1.98086678981781010000e+000) (38, 1.76393997669219970000e+000) (39, 3.29470481872558590000e+001) (40, -2.29917570948600770000e-001) (41, 2.07227468490600590000e-002) (42, 9.70612019300460820000e-002) (43, 3.30578684806823730000e-001) (44, 9.77119803428649900000e-001) (45, 3.75121891498565670000e-001) (46, -8.40696170926094060000e-002) (47, 3.32044830322265630000e+001) (48, 2.36043238639831540000e+000) (49, 3.33912200927734380000e+001) (50, 3.31969833374023440000e+001) (51, 3.25290260314941410000e+001) (52, 3.31937484741210940000e+001) (53, 3.48336622118949890000e-002) (54, -1.78449898958206180000e-001) (55, -6.47552669048309330000e-001) (56, -5.62527552247047420000e-002) (57, 3.32766532897949220000e+001) (58, 3.18010151386260990000e-001) (59, 3.25753631591796880000e+001) (60, 3.26917610168457030000e+001) (61, 3.32519111633300780000e+001) (62, 3.29530410766601560000e+001) (63, -4.96966123580932620000e-001) (64, 4.46348160505294800000e-001) (65, 5.82100927829742430000e-001) (66, 4.39506173133850100000e-001) (67, 5.87109565734863280000e-001) (68, 5.73072910308837890000e-001) (69, 3.27517204284667970000e+001) (70, -3.52817624807357790000e-001) (71, -2.44979232549667360000e-001) (72, 4.57145273685455320000e-003) (73, 6.94314777851104740000e-001) (74, -2.64373123645782470000e-001) (75, 9.36845093965530400000e-002) (76, 7.10089325904846190000e-001) (77, 3.25675125122070310000e+001) (78, 1.79778611660003660000e+000) (79, 3.25674209594726560000e+001) (80, 7.97314167022705080000e-001) (81, -2.51386791467666630000e-001) (82, 2.28197947144508360000e-001) (83, 6.87785327434539790000e-001) (84, -4.65716391801834110000e-001) (85, 6.83384120464324950000e-001) (86, 8.08372199535369870000e-002) (87, 3.26422500610351560000e+001) (88, 9.68054711818695070000e-001) (89, 3.31126327514648440000e+001) (90, 3.31422805786132810000e+001) (91, 3.33010406494140630000e+001) (92, 3.31435623168945310000e+001) (93, 3.31493606567382810000e+001) (94, 3.25378379821777340000e+001) (95, 3.32110824584960940000e+001) (96, 3.35302429199218750000e+001) (97, 3.26662826538085940000e+001) (98, 1.33871161937713620000e+000) (99, 3.30894660949707030000e+001) (100, -6.40391349792480470000e-001) (0, -4.28555071353912350000e-001) (1, 1.49072587490081790000e-001) (2, -1.18297111988067630000e+000) (3, 1.85097396373748780000e+000) (4, 1.21734893321990970000e+000) (5, -4.70062285661697390000e-001) (6, 2.07541376352310180000e-001) (7, 8.10993790626525880000e-001) (8, 2.15687155723571780000e-001) (9, 3.28394660949707030000e+001) (10, -2.56865620613098140000e-001) (11, -2.46066063642501830000e-001) (12, -6.64468765258789060000e-001) (13, -3.90958756208419800000e-001) (14, 1.14310562610626220000e+000) (15, -3.87707322835922240000e-001) (16, 2.24857687950134280000e-001) (17, 3.32728385925292970000e+001) (18, 2.76352286338806150000e-001) (19, 3.28776321411132810000e+001) (20, -4.60557043552398680000e-001) (21, 3.28556823730468750000e+001) (22, 8.64287972450256350000e-001) (23, -3.68907183408737180000e-001) (24, 3.69488149881362920000e-002) (25, -1.65646880865097050000e-001) (26, -1.22742271423339840000e+000) (27, 3.35167465209960940000e+001) (28, -4.50841803103685380000e-003) (29, 3.29182052612304690000e+001) (30, 1.71796217560768130000e-001) (31, 3.26027336120605470000e+001) (32, 7.24178075790405270000e-001) (33, 1.65640488266944890000e-001) (34, 4.61298108100891110000e-001) (35, 2.37927213311195370000e-001) (36, -3.98661404848098750000e-001) (37, 6.75146222114562990000e-001) (38, 4.88503992557525630000e-001) (39, 3.25677070617675780000e+001) (40, -4.59018766880035400000e-001) (41, 4.58377599716186520000e-001) (42, -8.06493043899536130000e-001) (43, 5.51569044589996340000e-001) (44, 1.62487328052520750000e-001) (45, -4.05503928661346440000e-001) (46, -1.43391340970993040000e-001) (47, 3.28356513977050780000e+001) (48, 1.60950690507888790000e-001) (49, 3.27164688110351560000e+001) (50, 3.34539680480957030000e+001) (51, 3.26599044799804690000e+001) (52, 3.33192749023437500000e+001) (53, -1.90483227372169490000e-001) (54, 3.48725914955139160000e-002) (55, 3.07153642177581790000e-001) (56, -2.36872702836990360000e-001) (57, 3.27227172851562500000e+001) (58, -3.93697082996368410000e-001) (59, 3.30721588134765620000e+001) (60, 3.34003868103027340000e+001) (61, 3.30873489379882810000e+001) (62, 3.28664169311523440000e+001) (63, -4.26651179790496830000e-001) (64, 2.37499549984931950000e-001) (65, 1.34479254484176640000e-001) (66, -3.74125301837921140000e-001) (67, -6.56931698322296140000e-001) (68, 3.04897487163543700000e-001) (69, 3.26101074218750000000e+001) (70, 2.36306905746459960000e-001) (71, 5.11463224887847900000e-001) (72, 3.45843851566314700000e-001) (73, -1.54234528541564940000e+000) (74, 2.25821807980537410000e-001) (75, -7.35386133193969730000e-001) (76, -3.14650952816009520000e-001) (77, 3.34805679321289060000e+001) (78, 2.41093531250953670000e-001) (79, 3.29399337768554690000e+001) (80, -2.07301750779151920000e-001) (81, 3.09500277042388920000e-001) (82, 1.68327176570892330000e+000) (83, 1.45141112804412840000e+000) (84, 7.95929670333862300000e-001) (85, -1.21556520462036130000e+000) (86, -2.41467401385307310000e-001) (87, 3.31489791870117190000e+001) (88, 7.49296307563781740000e-001) (89, 3.29500274658203120000e+001) (90, 3.35048904418945310000e+001) (91, 3.33576354980468750000e+001) (92, 3.30105018615722660000e+001) (93, 3.30052108764648440000e+001) (94, 3.32748870849609380000e+001) (95, 3.35374221801757810000e+001) (96, 3.29618835449218750000e+001) (97, 3.26980438232421880000e+001) (98, 7.56442785263061520000e-001) (99, 3.33403320312500000000e+001) (100, 3.14125925302505490000e-001) (0, 2.54957199096679690000e+000) (1, 6.10595643520355220000e-001) (2, 2.93532721698284150000e-002) (3, -2.97373354434967040000e-001) (4, -9.91258263587951660000e-001) (5, -1.43357205390930180000e+000) (6, -1.48603320121765140000e+000) (7, -1.04126513004302980000e+000) (8, -8.26838016510009770000e-001) (9, 3.33568649291992190000e+001) (10, 1.07540869712829590000e+000) (11, 1.85430765151977540000e-001) (12, -3.23269754648208620000e-001) (13, 1.16814982891082760000e+000) (14, 1.76448121666908260000e-001) (15, 2.06429407000541690000e-001) (16, 6.47567451000213620000e-001) (17, 3.29913711547851560000e+001) (18, -9.76177453994750980000e-001) (19, 3.29107704162597660000e+001) (20, 5.76723694801330570000e-001) (21, 3.32605323791503910000e+001) (22, 6.73686247318983080000e-003) (23, 1.18931317329406740000e+000) (24, -1.98684126138687130000e-001) (25, 1.12850069999694820000e+000) (26, -4.93686705827713010000e-001) (27, 3.27344818115234380000e+001) (28, -1.03905391693115230000e+000) (29, 3.34392929077148440000e+001) (30, 2.53112196922302250000e-001) (31, 3.30512313842773440000e+001) (32, 5.58043062686920170000e-001) (33, 7.55215823650360110000e-001) (34, 2.87379473447799680000e-001) (35, 6.66012167930603030000e-001) (36, -1.34114825725555420000e+000) (37, -6.55129551887512210000e-001) (38, -6.46092295646667480000e-001) (39, 3.31442985534667970000e+001) (40, 2.84261941909790040000e-001) (41, -6.24838173389434810000e-002) (42, -6.77074491977691650000e-002) (43, 4.82283905148506160000e-002) (44, -2.12836533784866330000e-001) (45, 6.08624577522277830000e-001) (46, -1.07097856700420380000e-001) (47, 3.30632514953613280000e+001) (48, -6.95540904998779300000e-001) (49, 3.27858810424804690000e+001) (50, 3.29490356445312500000e+001) (51, 3.31937484741210940000e+001) (52, 3.34480400085449220000e+001) (53, 6.90503180027008060000e-001) (54, -2.41857469081878660000e-001) (55, 1.05143845081329350000e+000) (56, 5.03559470176696780000e-001) (57, 3.26482391357421870000e+001) (58, -6.30011975765228270000e-001) (59, 3.25280647277832030000e+001) (60, 3.31966629028320310000e+001) (61, 3.30487670898437500000e+001) (62, 3.29268569946289060000e+001) (63, 7.26255476474761960000e-001) (64, 1.33612155914306640000e-001) (65, 7.02001035213470460000e-001) (66, 5.88292598724365230000e-001) (67, -4.20118868350982670000e-002) (68, -3.34473669528961180000e-001) (69, 3.35412673950195310000e+001) (70, 8.61488580703735350000e-002) (71, 4.92570102214813230000e-001) (72, 9.21744763851165770000e-001) (73, 1.02432322502136230000e+000) (74, 2.16282710433006290000e-001) (75, 1.35124608874320980000e-001) (76, 3.29063057899475100000e-001) (77, 3.34640312194824220000e+001) (78, -4.57141138613224030000e-002) (79, 3.33719291687011720000e+001) (80, 1.83556270599365230000e+000) (81, 3.49924564361572270000e-001) (82, -3.07275950908660890000e-001) (83, -1.87708362936973570000e-001) (84, -1.10291028022766110000e+000) (85, -3.23067992925643920000e-001) (86, 1.25421476364135740000e+000) (87, 3.29222755432128910000e+001) (88, -1.46886855363845830000e-001) (89, 3.26083755493164060000e+001) (90, 3.29258651733398440000e+001) (91, 3.27685470581054690000e+001) (92, 3.32419128417968750000e+001) (93, 3.25329055786132810000e+001) (94, 3.30061721801757810000e+001) (95, 3.35340881347656250000e+001) (96, 3.35721893310546880000e+001) (97, 3.29749603271484370000e+001) (98, 2.20308780670166020000e-001) (99, 3.33410644531250000000e+001) (100, -3.69462966918945310000e-001) (0, -2.42820811271667480000e+000) (1, -3.53877544403076170000e-001) (2, 1.44202500581741330000e-001) (3, -4.07554686069488530000e-001) (4, -8.46802666783332820000e-002) (5, 2.69762814044952390000e-001) (6, 1.02477014064788820000e-001) (7, -1.48138433694839480000e-001) (8, 7.22388744354248050000e-001) (9, 3.30277099609375000000e+001) (10, -1.35405044555664060000e+001) (11, -5.67931652069091800000e+000) (12, 4.42615270614624020000e-001) (13, -1.35423479080200200000e+001) (14, 3.61623108386993410000e-001) (15, -1.58307209610939030000e-001) (16, 3.64682614803314210000e-001) (17, 3.26985244750976560000e+001) (18, 6.41414970159530640000e-002) (19, 3.33110733032226560000e+001) (20, -1.33311729431152340000e+001) (21, 3.28358459472656250000e+001) (22, 1.14863371849060060000e+000) (23, 7.59194135665893550000e-001) (24, -4.88711357116699220000e-001) (25, 3.18070918321609500000e-001) (26, 4.12219583988189700000e-001) (27, 3.30104370117187500000e+001) (28, 6.35861635208129880000e-001) (29, 3.32441253662109380000e+001) (30, -1.34838771820068360000e+001) (31, 3.31822090148925780000e+001) (32, 8.10761332511901860000e-001) (33, 7.96201527118682860000e-001) (34, 6.10800921916961670000e-001) (35, 1.01332175731658940000e+000) (36, 2.20167823135852810000e-003) (37, 3.91086071729660030000e-001) (38, -1.01734213531017300000e-001) (39, 3.27942466735839840000e+001) (40, -1.42486171722412110000e+001) (41, -1.29788625240325930000e+000) (42, -1.82848906517028810000e+000) (43, 4.34383541345596310000e-001) (44, 7.61457681655883790000e-001) (45, 9.12998765707015990000e-002) (46, 6.62774860858917240000e-001) (47, 3.32961692810058590000e+001) (48, 8.01650509238243100000e-002) (49, 3.32784805297851560000e+001) (50, 3.29448394775390620000e+001) (51, 3.27495727539062500000e+001) (52, 3.31845474243164060000e+001) (53, -2.77159571647644040000e+000) (54, 8.09044837951660160000e-001) (55, 1.41438364982604980000e-001) (56, 9.30784642696380620000e-001) (57, 3.27249603271484370000e+001) (58, 2.67817676067352290000e-001) (59, 3.35549812316894530000e+001) (60, 3.26522789001464840000e+001) (61, 3.25425796508789060000e+001) (62, 3.33809013366699220000e+001) (63, -1.41069049835205080000e+001) (64, 2.90513873100280760000e-001) (65, 8.69430124759674070000e-001) (66, 8.70675802230834960000e-001) (67, 2.62465775012969970000e-001) (68, 5.34064829349517820000e-001) (69, 3.34870414733886720000e+001) (70, -5.62147140502929690000e+000) (71, -5.67335557937622070000e+000) (72, -5.92111158370971680000e+000) (73, -1.38271179199218750000e+001) (74, -4.41284716129302980000e-001) (75, -1.04979336261749270000e+000) (76, 1.50373861193656920000e-001) (77, 3.28180923461914060000e+001) (78, 7.84564256668090820000e-001) (79, 3.29757003784179690000e+001) (80, -3.06001663208007810000e+000) (81, -5.64330756664276120000e-001) (82, -6.52597323060035710000e-002) (83, 5.42257070541381840000e-001) (84, -6.64454773068428040000e-002) (85, 5.15827894210815430000e-001) (86, 5.95928728580474850000e-001) (87, 3.33437271118164060000e+001) (88, 2.14318290352821350000e-001) (89, 3.30294418334960940000e+001) (90, 3.32695999145507810000e+001) (91, 3.27674255371093750000e+001) (92, 3.30793380737304690000e+001) (93, 3.26216735839843750000e+001) (94, 3.29514694213867190000e+001) (95, 3.33930130004882810000e+001) (96, 3.33970527648925780000e+001) (97, 3.30123596191406250000e+001) (98, 7.62323617935180660000e-001) (99, 3.25524520874023440000e+001) (100, -8.48677814006805420000e-001) (0, 8.34917128086090090000e-002) (1, -3.15992146730422970000e-001) (2, 9.98859167098999020000e-001) (3, 3.55648517608642580000e-001) (4, 2.35467052459716800000e+000) (5, 1.07297682762146000000e+000) (6, 2.00025916099548340000e+000) (7, 2.37882232666015620000e+000) (8, 2.44740319252014160000e+000) (9, 3.35411376953125000000e+001) (10, 1.85273393988609310000e-001) (11, 5.60380876064300540000e-001) (12, 4.42873150110244750000e-001) (13, 1.26191318035125730000e-001) (14, 1.80791902542114260000e+000) (15, -6.36101484298706050000e-001) (16, 9.17240142822265630000e-001) (17, 3.29003219604492190000e+001) (18, 2.42615580558776860000e+000) (19, 3.29825897216796870000e+001) (20, 4.96386528015136720000e-001) (21, 3.33183135986328130000e+001) (22, 1.07530698180198670000e-001) (23, -1.93846710026264190000e-002) (24, 7.63659000396728520000e-001) (25, -6.05013787746429440000e-001) (26, 8.74533295631408690000e-001) (27, 3.28565139770507810000e+001) (28, 2.34542918205261230000e+000) (29, 3.33495254516601560000e+001) (30, 5.56442856788635250000e-001) (31, 3.34506034851074220000e+001) (32, -1.15242172032594680000e-002) (33, 8.27890709042549130000e-002) (34, 4.97064828872680660000e-001) (35, 7.85968303680419920000e-001) (36, 1.60909259319305420000e+000) (37, 1.95342898368835450000e+000) (38, 1.74659729003906250000e+000) (39, 3.35417137145996090000e+001) (40, 1.33901879191398620000e-001) (41, 9.68612968921661380000e-001) (42, 5.08771836757659910000e-001) (43, 6.71650767326354980000e-002) (44, 1.24993515014648440000e+000) (45, -1.67815715074539180000e-001) (46, 6.68730497360229490000e-001) (47, 3.27994689941406250000e+001) (48, 1.97259330749511720000e+000) (49, 3.31977195739746090000e+001) (50, 3.27664947509765620000e+001) (51, 3.27206039428710940000e+001) (52, 3.25651092529296880000e+001) (53, 3.71302902698516850000e-001) (54, 1.10517692565917970000e+000) (55, 6.66525542736053470000e-001) (56, 1.03708207607269290000e-001) (57, 3.29047470092773440000e+001) (58, 5.58791160583496090000e-001) (59, 3.34064407348632810000e+001) (60, 3.34389076232910160000e+001) (61, 3.27280387878417970000e+001) (62, 3.28609046936035160000e+001) (63, -2.34030738472938540000e-001) (64, 5.89835524559021000000e-001) (65, 8.47851216793060300000e-001) (66, 3.57860863208770750000e-001) (67, 5.85390210151672360000e-001) (68, 5.79814076423645020000e-001) (69, 3.32120132446289060000e+001) (70, 6.65992349386215210000e-002) (71, 1.11657500267028810000e-001) (72, 6.30788326263427730000e-001) (73, -6.36333405971527100000e-001) (74, 1.51721978187561040000e+000) (75, -2.75058954954147340000e-001) (76, -2.65442252159118650000e-001) (77, 3.26618957519531250000e+001) (78, 1.04457773268222810000e-001) (79, 3.33374137878417970000e+001) (80, -3.80710393190383910000e-001) (81, 2.00414642691612240000e-001) (82, 3.67505967617034910000e-001) (83, 1.26709961891174320000e+000) (84, 1.87309908866882320000e+000) (85, 5.52844703197479250000e-001) (86, 8.60951066017150880000e-001) (87, 3.25782508850097660000e+001) (88, 1.86017632484436040000e-001) (89, 3.25475807189941410000e+001) (90, 3.26543960571289060000e+001) (91, 3.30462951660156250000e+001) (92, 3.34124679565429690000e+001) (93, 3.29282035827636720000e+001) (94, 3.30954895019531250000e+001) (95, 3.32028503417968750000e+001) (96, 3.29190368652343750000e+001) (97, 3.27835121154785160000e+001) (98, 2.43189692497253420000e-001) (99, 3.35126495361328120000e+001) (100, -9.62262213230133060000e-001) (0, 1.80980634689331050000e+000) (1, 4.32212710380554200000e-001) (2, -7.92612671852111820000e-001) (3, -1.35918426513671870000e+000) (4, -2.34873104095458980000e+000) (5, -4.56160366535186770000e-001) (6, -7.21478283405303960000e-001) (7, -1.17499899864196780000e+000) (8, -1.41365361213684080000e+000) (9, 3.25714263916015630000e+001) (10, 1.40393543243408200000e+000) (11, -1.58559922128915790000e-002) (12, 2.50410676002502440000e-001) (13, 1.37423646450042720000e+000) (14, 1.87773376703262330000e-001) (15, 1.10871744155883790000e+000) (16, 6.54950499534606930000e-001) (17, 3.26026687622070310000e+001) (18, -9.44932699203491210000e-001) (19, 3.31362838745117190000e+001) (20, 1.27539432048797610000e+000) (21, 3.31600341796875000000e+001) (22, 2.89379954338073730000e-001) (23, 2.41154193878173830000e-001) (24, -3.10621768236160280000e-001) (25, -1.68761700391769410000e-001) (26, -9.67295289039611820000e-001) (27, 3.34463119506835940000e+001) (28, -9.36440229415893550000e-001) (29, 3.31481781005859380000e+001) (30, 1.26420986652374270000e+000) (31, 3.27108306884765630000e+001) (32, 1.12191595137119290000e-001) (33, 2.27850060909986500000e-002) (34, -6.14403095096349720000e-003) (35, -6.74823701381683350000e-001) (36, -1.10903400927782060000e-002) (37, -1.42060780525207520000e+000) (38, -1.58424019813537600000e+000) (39, 3.31093368530273440000e+001) (40, 4.49444711208343510000e-001) (41, 2.91264057159423830000e-001) (42, 2.34160795807838440000e-001) (43, 3.28361898660659790000e-001) (44, 5.66074728965759280000e-001) (45, -3.68310719728469850000e-001) (46, 2.66599595546722410000e-001) (47, 3.29424018859863280000e+001) (48, -1.09141993522644040000e+000) (49, 3.26507720947265620000e+001) (50, 3.35693359375000000000e+001) (51, 3.26512222290039060000e+001) (52, 3.31060638427734380000e+001) (53, 6.44644439220428470000e-001) (54, -9.97119247913360600000e-002) (55, -2.02904269099235530000e-001) (56, 6.71931207180023190000e-001) (57, 3.28960952758789060000e+001) (58, 4.62842404842376710000e-001) (59, 3.33064880371093750000e+001) (60, 3.26633682250976560000e+001) (61, 3.31464157104492190000e+001) (62, 3.33060073852539060000e+001) (63, 1.47540032863616940000e+000) (64, -5.91802671551704410000e-002) (65, -7.50303044915199280000e-002) (66, 6.72465801239013670000e-001) (67, 9.79185283184051510000e-001) (68, 5.93081891536712650000e-001) (69, 3.27455368041992190000e+001) (70, 4.34822261333465580000e-001) (71, 2.08601817488670350000e-001) (72, 6.87321305274963380000e-001) (73, 1.24242603778839110000e+000) (74, -5.45987561345100400000e-002) (75, 8.37663173675537110000e-001) (76, 8.12201321125030520000e-001) (77, 3.31595230102539060000e+001) (78, 1.68203866481781010000e+000) (79, 3.31422462463378910000e+001) (80, 1.86784362792968750000e+000) (81, 6.12734019756317140000e-001) (82, -1.42600250244140630000e+000) (83, -1.76009345054626460000e+000) (84, -2.29582142829895020000e+000) (85, -5.25782406330108640000e-001) (86, -2.31500551104545590000e-001) (87, 3.30830535888671880000e+001) (88, 1.72357177734375000000e+000) (89, 3.31476287841796870000e+001) (90, 3.28280563354492190000e+001) (91, 3.34351577758789060000e+001) (92, 3.26497497558593750000e+001) (93, 3.35303344726562500000e+001) (94, 3.30446014404296880000e+001) (95, 3.32715568542480470000e+001) (96, 3.26445846557617190000e+001) (97, 3.31981697082519530000e+001) (98, 1.47636044025421140000e+000) (99, 3.32675514221191410000e+001) (100, -2.56004512310028080000e-001) (0, -1.63243003189563750000e-002) (1, 9.58962738513946530000e-001) (2, -2.70303130149841310000e-001) (3, 5.19376873970031740000e-001) (4, 8.62244248390197750000e-001) (5, 1.06790697574615480000e+000) (6, 6.62062525749206540000e-001) (7, 4.29517984390258790000e+000) (8, 4.76104879379272460000e+000) (9, 3.28382492065429690000e+001) (10, 5.95249235630035400000e-001) (11, -4.99781444668769840000e-002) (12, -1.06410562992095950000e+000) (13, 4.36910033226013180000e-001) (14, 8.61032009124755860000e-001) (15, 1.29164010286331180000e-001) (16, 1.33159911632537840000e+000) (17, 3.35242805480957030000e+001) (18, 4.70759439468383790000e+000) (19, 3.29548339843750000000e+001) (20, 5.99158942699432370000e-001) (21, 3.30322952270507810000e+001) (22, -4.00461494922637940000e-001) (23, 6.82958483695983890000e-001) (24, 5.19729256629943850000e-001) (25, 2.74619311094284060000e-001) (26, 2.11281967163085940000e+000) (27, 3.29856948852539060000e+001) (28, 4.71522140502929690000e+000) (29, 3.34461517333984380000e+001) (30, 1.21844327077269550000e-002) (31, 3.32449874877929690000e+001) (32, 2.68169045448303220000e-001) (33, 3.80512982606887820000e-001) (34, 9.65071916580200200000e-001) (35, 6.43574297428131100000e-001) (36, 1.22279059886932370000e+000) (37, 4.22579813003540040000e+000) (38, 5.03162240982055660000e+000) (39, 3.28880500793457030000e+001) (40, -3.55657041072845460000e-002) (41, 2.08336159586906430000e-001) (42, 5.62232196331024170000e-001) (43, 1.31886136531829830000e+000) (44, 1.34214997291564940000e+000) (45, 1.25528597831726070000e+000) (46, 1.10530304908752440000e+000) (47, 3.29057083129882810000e+001) (48, 4.48916101455688480000e+000) (49, 3.28335685729980470000e+001) (50, 3.30267181396484380000e+001) (51, 3.27107963562011720000e+001) (52, 3.33597488403320310000e+001) (53, 6.66613340377807620000e-001) (54, 1.11882293224334720000e+000) (55, 4.81205023825168610000e-002) (56, 1.00784790515899660000e+000) (57, 3.34015731811523440000e+001) (58, 1.48282432556152340000e+000) (59, 3.25651435852050780000e+001) (60, 3.35673828125000000000e+001) (61, 3.29541625976562500000e+001) (62, 3.32695693969726560000e+001) (63, 1.64312019944190980000e-001) (64, 6.71568512916564940000e-001) (65, 8.13616156578063960000e-001) (66, 6.43008410930633540000e-001) (67, 1.46430110931396480000e+000) (68, 1.61440968513488770000e+000) (69, 3.32890853881835940000e+001) (70, -1.20513774454593660000e-001) (71, 5.23632705211639400000e-001) (72, 2.42964327335357670000e-001) (73, 2.24670872092247010000e-001) (74, 1.03030467033386230000e+000) (75, -1.06798619031906130000e-001) (76, 4.45357322692871090000e-001) (77, 3.29007072448730470000e+001) (78, 4.41391140222549440000e-001) (79, 3.26640090942382810000e+001) (80, -5.85544764995574950000e-001) (81, 1.00190615653991700000e+000) (82, 4.73389178514480590000e-001) (83, 2.37170144915580750000e-001) (84, 7.71647095680236820000e-001) (85, 1.57615900039672850000e+000) (86, 4.26602512598037720000e-001) (87, 3.29496459960937500000e+001) (88, 1.14056241512298580000e+000) (89, 3.30216522216796880000e+001) (90, 3.35594367980957030000e+001) (91, 3.25512657165527340000e+001) (92, 3.31853485107421870000e+001) (93, 3.33531494140625000000e+001) (94, 3.30175514221191410000e+001) (95, 3.27635116577148440000e+001) (96, 3.27544441223144530000e+001) (97, 3.35298881530761720000e+001) (98, 9.26519930362701420000e-001) (99, 3.33632125854492190000e+001) (100, 1.04886329174041750000e+000) (0, 4.80845808982849120000e-001) (1, 6.83008313179016110000e-001) (2, 5.47778069972991940000e-001) (3, 5.36558747291564940000e-001) (4, 7.47633934020996090000e-001) (5, 1.24098193645477290000e+000) (6, 1.29687201976776120000e+000) (7, -7.02766120433807370000e-001) (8, -3.77936720848083500000e-001) (9, 3.26276664733886720000e+001) (10, -2.52660572528839110000e-001) (11, -1.29378759860992430000e+000) (12, -1.03331816196441650000e+000) (13, 1.29589819908142090000e+000) (14, 6.31968855857849120000e-001) (15, 2.94069916009902950000e-001) (16, 2.98460811376571660000e-001) (17, 3.29970741271972660000e+001) (18, -1.04342651367187500000e+000) (19, 3.34890899658203120000e+001) (20, -6.07742071151733400000e-001) (21, 3.25736694335937500000e+001) (22, -2.20924362540245060000e-001) (23, 5.06116867065429690000e-001) (24, 3.85021477937698360000e-001) (25, -1.75061142444610600000e+000) (26, -1.35115027427673340000e-001) (27, 3.34325637817382810000e+001) (28, -8.76205027103424070000e-001) (29, 3.30466499328613280000e+001) (30, -2.98231542110443120000e-001) (31, 3.30174865722656250000e+001) (32, 4.22869503498077390000e-001) (33, -6.70426562428474430000e-002) (34, 4.85546737909317020000e-001) (35, -1.74579370021820070000e+000) (36, 1.60080671310424800000e+000) (37, -9.84652340412139890000e-001) (38, -3.23713064193725590000e-001) (39, 3.25945625305175780000e+001) (40, -1.07871711254119870000e-001) (41, 3.16458225250244140000e-001) (42, 1.36231076717376710000e+000) (43, 9.53652143478393550000e-001) (44, 7.49768018722534180000e-001) (45, -2.98398792743682860000e-001) (46, 3.02939414978027340000e-001) (47, 3.27922897338867190000e+001) (48, -6.98568046092987060000e-001) (49, 3.35038337707519530000e+001) (50, 3.28187637329101560000e+001) (51, 3.28991394042968750000e+001) (52, 3.33582458496093750000e+001) (53, 1.01731884479522710000e+000) (54, 1.13874912261962890000e+000) (55, -1.99862122535705570000e-001) (56, 1.39339148998260500000e-001) (57, 3.31492004394531250000e+001) (58, -2.93702334165573120000e-001) (59, 3.32173995971679690000e+001) (60, 3.32071075439453130000e+001) (61, 3.30333480834960940000e+001) (62, 3.25496635437011720000e+001) (63, -1.95744931697845460000e-001) (64, 2.26067960262298580000e-001) (65, -2.14122295379638670000e+000) (66, 3.27922761440277100000e-001) (67, 4.68345493078231810000e-001) (68, 1.73223823308944700000e-001) (69, 3.27823562622070310000e+001) (70, -5.58499157428741460000e-001) (71, -4.41591382026672360000e-001) (72, -8.46377968788146970000e-001) (73, 5.41934609413146970000e-001) (74, 6.89172983169555660000e-001) (75, 8.75917017459869380000e-001) (76, -1.24216124415397640000e-001) (77, 3.31346206665039060000e+001) (78, 1.52067780494689940000e-001) (79, 3.26682701110839840000e+001) (80, 3.52433174848556520000e-001) (81, -1.56561329960823060000e-001) (82, 9.70636606216430660000e-001) (83, 1.05065822601318360000e+000) (84, 7.31225728988647460000e-001) (85, -2.29205250740051270000e-001) (86, 8.12332183122634890000e-002) (87, 3.27047424316406250000e+001) (88, 2.12572664022445680000e-001) (89, 3.34840927124023440000e+001) (90, 3.27493171691894530000e+001) (91, 3.35469360351562500000e+001) (92, 3.30867729187011720000e+001) (93, 3.29058685302734370000e+001) (94, 3.32981567382812500000e+001) (95, 3.29002609252929690000e+001) (96, 3.33993301391601560000e+001) (97, 3.27344818115234380000e+001) (98, 4.00817245244979860000e-001) (99, 3.27197723388671880000e+001) (100, -1.24209928512573240000e+000) (0, -1.67934224009513850000e-002) (1, 9.43490922451019290000e-001) (2, -2.15794110298156740000e+000) (3, 5.60477197170257570000e-001) (4, 1.22645127773284910000e+000) (5, 2.99755394458770750000e-001) (6, 6.36954843997955320000e-001) (7, 4.62177723646163940000e-001) (8, 7.05831885337829590000e-001) (9, 3.35332527160644530000e+001) (10, 2.39383888244628910000e+000) (11, 1.18839490413665770000e+000) (12, -8.39989423751831050000e-001) (13, 9.05182421207427980000e-001) (14, -4.78684976696968080000e-002) (15, 1.64094066619873050000e+000) (16, 1.63062250614166260000e+000) (17, 3.29862098693847660000e+001) (18, 4.90283101797103880000e-001) (19, 3.26775970458984380000e+001) (20, 2.18341779708862300000e+000) (21, 3.28909339904785160000e+001) (22, -5.21729767322540280000e-001) (23, 1.60089164972305300000e-001) (24, -4.97903823852539060000e-001) (25, -3.14010167121887210000e+000) (26, 1.72807765007019040000e+000) (27, 3.32547645568847660000e+001) (28, 5.95173358917236330000e-001) (29, 3.34019546508789060000e+001) (30, 2.38287878036499020000e+000) (31, 3.28589172363281250000e+001) (32, 2.54423394799232480000e-002) (33, 1.64639860391616820000e-001) (34, -3.86015236377716060000e-001) (35, -1.63990533351898190000e+000) (36, -7.19588100910186770000e-002) (37, 9.75956916809082030000e-001) (38, 1.34847223758697510000e+000) (39, 3.30184478759765620000e+001) (40, 2.05647945404052730000e+000) (41, 1.45439732074737550000e+000) (42, 1.13875794410705570000e+000) (43, -6.52362257242202760000e-002) (44, 6.08339071273803710000e-001) (45, -2.79077935218811040000e+000) (46, 6.51882946491241460000e-001) (47, 3.26773071289062500000e+001) (48, 6.22765898704528810000e-001) (49, 3.29388732910156250000e+001) (50, 3.34132041931152340000e+001) (51, 3.31081161499023440000e+001) (52, 3.33069076538085940000e+001) (53, -9.34843122959136960000e-002) (54, -2.12677806615829470000e-001) (55, -7.10698843002319340000e-001) (56, -6.61001652479171750000e-002) (57, 3.26839408874511720000e+001) (58, -6.83656871318817140000e-001) (59, 3.31013565063476560000e+001) (60, 3.34458312988281250000e+001) (61, 3.32520065307617190000e+001) (62, 3.30451126098632810000e+001) (63, 2.54615902900695800000e+000) (64, -7.71137356758117680000e-001) (65, -1.75851166248321530000e+000) (66, 8.62722456455230710000e-001) (67, -3.30273449420928960000e-001) (68, -1.86125725507736210000e-001) (69, 3.33273849487304690000e+001) (70, 2.05658268928527830000e+000) (71, 1.72082531452178960000e+000) (72, 1.80392348766326900000e+000) (73, 1.64705348014831540000e+000) (74, 3.02342116832733150000e-001) (75, 2.02249312400817870000e+000) (76, -1.30739122629165650000e-001) (77, 3.30281906127929690000e+001) (78, -9.38746809959411620000e-001) (79, 3.26118011474609370000e+001) (80, 1.09760537743568420000e-001) (81, 7.87549793720245360000e-001) (82, 3.98575365543365480000e-001) (83, 9.12835061550140380000e-001) (84, 9.44533109664916990000e-001) (85, 1.33530855178833010000e+000) (86, -2.69408196210861210000e-001) (87, 3.25445709228515620000e+001) (88, -8.09308528900146480000e-001) (89, 3.28538208007812500000e+001) (90, 3.29698638916015620000e+001) (91, 3.35515518188476560000e+001) (92, 3.30817413330078120000e+001) (93, 3.26482734680175780000e+001) (94, 3.30038375854492190000e+001) (95, 3.26646499633789060000e+001) (96, 3.30947875976562500000e+001) (97, 3.35066223144531250000e+001) (98, -9.32850122451782230000e-001) (99, 3.32933807373046880000e+001) (100, -1.19339859485626220000e+000) (0, 1.24874591827392580000e+000) (1, -1.02637261152267460000e-001) (2, -6.81399822235107420000e-001) (3, -1.22684240341186520000e-001) (4, 4.48627531528472900000e-001) (5, -1.54269531369209290000e-001) (6, 5.32595813274383540000e-001) (7, 1.05491384863853450000e-001) (8, 6.70225203037261960000e-001) (9, 3.30026817321777340000e+001) (10, -4.95317637920379640000e-001) (11, 8.16369950771331790000e-002) (12, 5.03756523132324220000e-001) (13, -4.08007428050041200000e-002) (14, 3.65513920783996580000e-001) (15, 2.10451650619506840000e+000) (16, -1.07947438955307010000e-001) (17, 3.28109130859375000000e+001) (18, 5.89883148670196530000e-001) (19, 3.30474166870117190000e+001) (20, -9.28381979465484620000e-002) (21, 3.33729209899902340000e+001) (22, 1.27989277243614200000e-001) (23, 3.40012431144714360000e-001) (24, -4.80504631996154790000e-001) (25, 3.31070721149444580000e-001) (26, -5.30452281236648560000e-002) (27, 3.26269302368164060000e+001) (28, 1.02588403224945070000e+000) (29, 3.34581375122070310000e+001) (30, -9.35752987861633300000e-002) (31, 3.25697898864746090000e+001) (32, 4.87621694803237920000e-001) (33, -9.33887898921966550000e-001) (34, -1.29234385490417480000e+000) (35, -1.33497273921966550000e+000) (36, -2.24901333451271060000e-001) (37, 4.59130942821502690000e-001) (38, 6.47632002830505370000e-001) (39, 3.25592803955078130000e+001) (40, -1.92152127623558040000e-001) (41, -3.20876955986022950000e-001) (42, 2.39063262939453130000e-001) (43, 2.31398388743400570000e-001) (44, -2.15110376477241520000e-001) (45, -3.16041231155395510000e-001) (46, -2.20453023910522460000e-001) (47, 3.32655944824218750000e+001) (48, 4.05291914939880370000e-001) (49, 3.27237777709960940000e+001) (50, 3.27503738403320310000e+001) (51, 3.29639358520507810000e+001) (52, 3.25809097290039060000e+001) (53, 1.45888462662696840000e-001) (54, -7.07686007022857670000e-001) (55, -1.40867993235588070000e-001) (56, -3.91231924295425420000e-001) (57, 3.33452987670898440000e+001) (58, -7.81498670578002930000e-001) (59, 3.26287231445312500000e+001) (60, 3.32402496337890630000e+001) (61, 3.29076919555664060000e+001) (62, 3.29285240173339840000e+001) (63, 6.12762868404388430000e-002) (64, 1.17366015911102290000e-001) (65, -1.91361498832702640000e+000) (66, -2.11127176880836490000e-001) (67, -8.11943411827087400000e-001) (68, 1.39421895146369930000e-002) (69, 3.34832611083984380000e+001) (70, 4.80174511671066280000e-001) (71, 3.38654607534408570000e-001) (72, 9.50006321072578430000e-002) (73, 3.38384777307510380000e-001) (74, -2.36660093069076540000e-002) (75, 2.52673697471618650000e+000) (76, 1.82635277509689330000e-001) (77, 3.27716865539550780000e+001) (78, 1.33018091320991520000e-001) (79, 3.32471046447753910000e+001) (80, 1.38122880458831790000e+000) (81, -7.27747857570648190000e-001) (82, 5.32863438129425050000e-002) (83, 5.14059484004974370000e-001) (84, 9.04753863811492920000e-001) (85, -1.70563608407974240000e-002) (86, -4.54909503459930420000e-001) (87, 3.28872489929199220000e+001) (88, 1.53752580285072330000e-001) (89, 3.35029373168945310000e+001) (90, 3.27566566467285160000e+001) (91, 3.28255233764648440000e+001) (92, 3.25711975097656250000e+001) (93, 3.26728515625000000000e+001) (94, 3.30900421142578130000e+001) (95, 3.29327850341796880000e+001) (96, 3.34663696289062500000e+001) (97, 3.26722450256347660000e+001) (98, 4.25351679325103760000e-001) (99, 3.28413543701171870000e+001) (100, -1.01765775680541990000e+000) (0, 2.85861313343048100000e-001) (1, -8.88261348009109500000e-002) (2, 1.50820165872573850000e-002) (3, -1.00282466411590580000e+000) (4, -1.98573541641235350000e+000) (5, 7.54996668547391890000e-003) (6, -9.56416651606559750000e-002) (7, -5.37876784801483150000e-001) (8, -8.97413194179534910000e-001) (9, 3.29896697998046880000e+001) (10, 3.84131550788879390000e-001) (11, 1.81104171276092530000e+000) (12, -3.08353990316390990000e-001) (13, 1.91367936134338380000e+000) (14, -3.04895900189876560000e-002) (15, 5.32719254493713380000e-001) (16, 6.81364476680755620000e-001) (17, 3.27343215942382810000e+001) (18, -7.97362148761749270000e-001) (19, 3.28668365478515630000e+001) (20, 1.24725592136383060000e+000) (21, 3.26978149414062500000e+001) (22, -7.18237817287445070000e-001) (23, 6.59101963043212890000e-001) (24, -6.95929050445556640000e-001) (25, 1.22297659516334530000e-001) (26, -1.46314191818237300000e+000) (27, 3.31198120117187500000e+001) (28, -6.02355539798736570000e-001) (29, 3.25314636230468750000e+001) (30, 1.19348096847534180000e+000) (31, 3.27704696655273440000e+001) (32, -1.36642217636108400000e+000) (33, 1.17450201511383060000e+000) (34, -1.05109286308288570000e+000) (35, -1.07954204082489010000e+000) (36, -2.22900629043579100000e-001) (37, -8.12712728977203370000e-001) (38, -7.66340553760528560000e-001) (39, 3.32153778076171880000e+001) (40, 1.18402707576751710000e+000) (41, 1.21524202823638920000e+000) (42, 8.69279503822326660000e-002) (43, 5.35653471946716310000e-001) (44, -2.46171504259109500000e-001) (45, -6.27658009529113770000e-001) (46, 2.18422383069992070000e-001) (47, 3.26997413635253910000e+001) (48, -1.67892992496490480000e-001) (49, 3.28869247436523440000e+001) (50, 3.29340667724609380000e+001) (51, 3.32314338684082030000e+001) (52, 3.28847503662109370000e+001) (53, 1.41178667545318600000e+000) (54, 2.14597210288047790000e-001) (55, 2.69041270017623900000e-001) (56, 2.07045674324035640000e-001) (57, 3.32664299011230470000e+001) (58, -1.13186252117156980000e+000) (59, 3.25994644165039060000e+001) (60, 3.28344650268554690000e+001) (61, 3.35005950927734370000e+001) (62, 3.35618400573730470000e+001) (63, 1.18002116680145260000e+000) (64, -3.61838340759277340000e-001) (65, -1.46141517162323000000e+000) (66, -2.52633213996887210000e-001) (67, -2.87581562995910640000e-001) (68, -3.40170860290527340000e-001) (69, 3.34132385253906250000e+001) (70, 8.86322975158691410000e-001) (71, 1.25335824489593510000e+000) (72, 1.63119339942932130000e+000) (73, 1.74428915977478030000e+000) (74, 4.08170968294143680000e-001) (75, 5.56978881359100340000e-001) (76, 1.74934476613998410000e-001) (77, 3.27123031616210940000e+001) (78, 6.41720712184906010000e-001) (79, 3.32217254638671870000e+001) (80, 6.97025477886199950000e-001) (81, -3.02676528692245480000e-001) (82, -4.92987573146820070000e-001) (83, -3.83354723453521730000e-002) (84, -1.76755881309509280000e+000) (85, -1.78880465030670170000e+000) (86, 4.53666746616363530000e-002) (87, 3.27596664428710940000e+001) (88, 7.23857343196868900000e-001) (89, 3.30459442138671880000e+001) (90, 3.35176162719726560000e+001) (91, 3.25691490173339840000e+001) (92, 3.34977798461914060000e+001) (93, 3.32886695861816410000e+001) (94, 3.30805244445800780000e+001) (95, 3.28533096313476560000e+001) (96, 3.30374221801757810000e+001) (97, 3.31590080261230470000e+001) (98, 2.89362907409667970000e-001) (99, 3.32701148986816410000e+001) (100, 1.12466466426849370000e+000) (0, 2.96265363693237300000e-001) (1, 2.76972979307174680000e-001) (2, -5.86998283863067630000e-001) (3, 7.12774991989135740000e-001) (4, 1.36333870887756350000e+000) (5, 2.75485068559646610000e-001) (6, 5.80060601234436040000e-001) (7, 6.99182212352752690000e-001) (8, 8.90407264232635500000e-001) (9, 3.25434799194335940000e+001) (10, -9.38046723604202270000e-004) (11, 4.17768448591232300000e-001) (12, 4.39639627933502200000e-001) (13, -1.62513172626495360000e+000) (14, 8.69977712631225590000e-001) (15, 7.09513574838638310000e-002) (16, -5.87962687015533450000e-001) (17, 3.34517898559570310000e+001) (18, 2.95581251382827760000e-001) (19, 3.26880111694335940000e+001) (20, 1.09560400247573850000e-001) (21, 3.31467666625976560000e+001) (22, 4.65370178222656250000e-001) (23, -5.84772825241088870000e-001) (24, 1.14418494701385500000e+000) (25, 3.26353073120117190000e-001) (26, 1.29051268100738530000e+000) (27, 3.35173873901367190000e+001) (28, 3.65924656391143800000e-001) (29, 3.26283721923828130000e+001) (30, -9.23637807369232180000e-001) (31, 3.27049636840820310000e+001) (32, 3.43591272830963130000e-001) (33, 3.32104086875915530000e-001) (34, 1.14306652545928960000e+000) (35, 6.13617420196533200000e-001) (36, 4.99910831451416020000e-001) (37, 3.28237235546112060000e-001) (38, 6.23745992779731750000e-002) (39, 3.32726135253906250000e+001) (40, -4.44117069244384770000e-001) (41, -1.78922675549983980000e-002) (42, 2.29729294776916500000e-001) (43, -2.02337801456451420000e-002) (44, 3.39464008808135990000e-001) (45, -1.64684757590293880000e-001) (46, 2.13329210877418520000e-001) (47, 3.28743324279785160000e+001) (48, 4.41747993230819700000e-001) (49, 3.28351058959960940000e+001) (50, 3.33863830566406250000e+001) (51, 3.31593627929687500000e+001) (52, 3.26955413818359370000e+001) (53, -2.49387919902801510000e-001) (54, -1.11403383314609530000e-001) (55, 9.29640412330627440000e-001) (56, -1.28292843699455260000e-001) (57, 3.30080986022949220000e+001) (58, 1.59843468666076660000e+000) (59, 3.32359848022460940000e+001) (60, 3.25837936401367190000e+001) (61, 3.28257522583007810000e+001) (62, 3.28931427001953120000e+001) (63, -7.08646625280380250000e-002) (64, 1.15706789493560790000e+000) (65, 5.07349133491516110000e-001) (66, 2.06904485821723940000e-002) (67, 6.47212982177734380000e-001) (68, 1.38057851791381840000e+000) (69, 3.33338890075683590000e+001) (70, -1.52519121766090390000e-002) (71, 3.93092125654220580000e-001) (72, 1.12487837672233580000e-001) (73, -1.75896739959716800000e+000) (74, 6.45103216171264650000e-001) (75, -3.36206942796707150000e-001) (76, -7.86519050598144530000e-002) (77, 3.30338287353515630000e+001) (78, 4.55475449562072750000e-001) (79, 3.25404663085937500000e+001) (80, -1.43100246787071230000e-001) (81, 5.64179003238677980000e-001) (82, 7.27997362613677980000e-001) (83, 2.57495604455471040000e-002) (84, 1.15750026702880860000e+000) (85, 8.25701713562011720000e-001) (86, -1.71188831329345700000e-001) (87, 3.31842269897460940000e+001) (88, 3.34081172943115230000e-001) (89, 3.27857894897460940000e+001) (90, 3.28758392333984370000e+001) (91, 3.28477973937988280000e+001) (92, 3.27649536132812500000e+001) (93, 3.34113159179687500000e+001) (94, 3.32132339477539060000e+001) (95, 3.29074401855468750000e+001) (96, 3.35320358276367190000e+001) (97, 3.25895309448242190000e+001) (98, 5.57737827301025390000e-001) (99, 3.32450561523437500000e+001) (100, 4.41331446170806880000e-001) (0, -3.74385476112365720000e-001) (1, -2.46446907520294190000e-001) (2, 1.17895054817199710000e+000) (3, 1.07904732227325440000e+000) (4, 1.87360703945159910000e+000) (5, 1.50596606731414790000e+000) (6, 1.08329701423645020000e+000) (7, 1.26870799064636230000e+000) (8, 1.18352675437927250000e+000) (9, 3.30855255126953130000e+001) (10, -8.47883880138397220000e-001) (11, -1.12779468297958370000e-001) (12, -6.98224961757659910000e-001) (13, 3.14934790134429930000e-001) (14, 8.20270359516143800000e-001) (15, 1.96767657995224000000e-001) (16, 2.25914669036865230000e+000) (17, 3.26068992614746090000e+001) (18, 9.18785929679870610000e-001) (19, 3.25684432983398440000e+001) (20, -1.18633341789245610000e+000) (21, 3.28432769775390630000e+001) (22, 2.84781426191329960000e-001) (23, 6.21475875377655030000e-001) (24, 2.60799932479858400000e+000) (25, -1.32192060351371770000e-001) (26, 3.25744605064392090000e+000) (27, 3.26054267883300780000e+001) (28, 8.67927074432373050000e-001) (29, 3.28019409179687500000e+001) (30, -8.24136912822723390000e-001) (31, 3.30532226562500000000e+001) (32, 1.63931906223297120000e-001) (33, 8.31752419471740720000e-001) (34, 1.24838817119598390000e+000) (35, 7.84694910049438480000e-001) (36, 1.80502963066101070000e+000) (37, 8.94045591354370120000e-001) (38, 1.28713500499725340000e+000) (39, 3.32837371826171880000e+001) (40, -5.62472283840179440000e-001) (41, -3.31453323364257810000e-001) (42, 9.29778277873992920000e-001) (43, 1.30273556709289550000e+000) (44, 1.62620949745178220000e+000) (45, 2.81093865633010860000e-001) (46, 1.10644888877868650000e+000) (47, 3.34040374755859370000e+001) (48, 1.65737509727478030000e+000) (49, 3.32675857543945310000e+001) (50, 3.32774200439453120000e+001) (51, 3.31978149414062500000e+001) (52, 3.25403366088867190000e+001) (53, 4.64192628860473630000e-001) (54, 3.84014040231704710000e-001) (55, 5.78789114952087400000e-001) (56, 7.87259817123413090000e-001) (57, 3.27829360961914060000e+001) (58, 7.80744373798370360000e-001) (59, 3.28805847167968750000e+001) (60, 3.29116058349609380000e+001) (61, 3.26212234497070310000e+001) (62, 3.28532791137695310000e+001) (63, -8.73777806758880620000e-001) (64, 2.69853258132934570000e+000) (65, 4.49322104454040530000e-001) (66, 1.15238487720489500000e+000) (67, 6.14355862140655520000e-001) (68, 1.42686784267425540000e-001) (69, 3.27583541870117190000e+001) (70, 1.59909397363662720000e-001) (71, 5.35981774330139160000e-001) (72, 4.68907237052917480000e-001) (73, -1.03017461299896240000e+000) (74, 7.08938717842102050000e-001) (75, 4.70946729183197020000e-003) (76, 1.04325211048126220000e+000) (77, 3.34880981445312500000e+001) (78, 8.78094043582677840000e-003) (79, 3.35576705932617190000e+001) (80, -1.64188578724861150000e-001) (81, 1.78048834204673770000e-001) (82, 1.06094074249267580000e+000) (83, 1.01024222373962400000e+000) (84, 2.33130359649658200000e+000) (85, 2.93912243843078610000e+000) (86, 9.93989288806915280000e-001) (87, 3.31150360107421880000e+001) (88, -2.87943094968795780000e-001) (89, 3.33436622619628910000e+001) (90, 3.31168327331542970000e+001) (91, 3.26606101989746090000e+001) (92, 3.33574752807617190000e+001) (93, 3.34519805908203130000e+001) (94, 3.29297752380371090000e+001) (95, 3.25393753051757810000e+001) (96, 3.34239425659179690000e+001) (97, 3.27762374877929690000e+001) (98, -1.19727924466133120000e-001) (99, 3.34525909423828130000e+001) (100, -3.63438993692398070000e-001) (0, 9.42889690399169920000e-001) (1, 1.66975945234298710000e-001) (2, 6.47414922714233400000e-001) (3, 1.36874282360076900000e+000) (4, 5.15496015548706050000e-001) (5, 3.03249096870422360000e+000) (6, 2.11799502372741700000e+000) (7, 7.55366325378417970000e-001) (8, 1.21828639507293700000e+000) (9, 3.35063018798828120000e+001) (10, 3.47112417221069340000e-001) (11, 2.31683760881423950000e-001) (12, -2.25769966840744020000e-001) (13, 7.91829824447631840000e-001) (14, 1.62282681465148930000e+000) (15, -3.88395220041275020000e-001) (16, -1.01584516465663910000e-001) (17, 3.27833862304687500000e+001) (18, 1.31968343257904050000e+000) (19, 3.32414970397949220000e+001) (20, 1.05314183235168460000e+000) (21, 3.32297668457031250000e+001) (22, -8.49726974964141850000e-001) (23, 1.66556859016418460000e+000) (24, 2.09553912281990050000e-002) (25, 2.06992641091346740000e-001) (26, 7.63500511646270750000e-001) (27, 3.33489189147949220000e+001) (28, 1.10397422313690190000e+000) (29, 3.31964378356933590000e+001) (30, 4.15020167827606200000e-001) (31, 3.34122428894042970000e+001) (32, -8.48060548305511470000e-001) (33, 1.25477409362792970000e+000) (34, 6.93508908152580260000e-002) (35, 9.02583181858062740000e-001) (36, 2.74175953865051270000e+000) (37, 9.35887694358825680000e-001) (38, 1.07522821426391600000e+000) (39, 3.30303382873535160000e+001) (40, 4.69339966773986820000e-001) (41, 6.63220405578613280000e-001) (42, 1.88377237319946290000e+000) (43, 2.98330903053283690000e+000) (44, 9.69802081584930420000e-001) (45, -2.17707827687263490000e-001) (46, 3.34810328483581540000e+000) (47, 3.35314559936523440000e+001) (48, 1.10807645320892330000e+000) (49, 3.32452774047851560000e+001) (50, 3.35200195312500000000e+001) (51, 3.29989318847656250000e+001) (52, 3.31087570190429690000e+001) (53, 7.71142899990081790000e-001) (54, 5.16828775405883790000e-001) (55, 1.28970456123352050000e+000) (56, 2.82573580741882320000e+000) (57, 3.27735137939453130000e+001) (58, 1.12476551532745360000e+000) (59, 3.29466018676757810000e+001) (60, 3.29297409057617190000e+001) (61, 3.31342697143554690000e+001) (62, 3.27904357910156250000e+001) (63, 1.15832054615020750000e+000) (64, 1.02516487240791320000e-002) (65, 1.21920847892761230000e+000) (66, 1.62359547615051270000e+000) (67, 1.71440005302429200000e+000) (68, 1.68209648132324220000e+000) (69, 3.25622901916503910000e+001) (70, -5.57465925812721250000e-002) (71, 8.13829004764556880000e-002) (72, 4.16307091712951660000e-001) (73, 6.33656620979309080000e-001) (74, 2.31619763374328610000e+000) (75, 3.34491044282913210000e-001) (76, 3.04192566871643070000e+000) (77, 3.28020324707031250000e+001) (78, -3.58295083045959470000e-001) (79, 3.30997543334960940000e+001) (80, 6.51645720005035400000e-001) (81, 1.50599867105484010000e-001) (82, 8.06732892990112300000e-001) (83, 6.81140303611755370000e-001) (84, 1.16938495635986330000e+000) (85, 8.85087072849273680000e-001) (86, 3.77672386169433590000e+000) (87, 3.29659576416015630000e+001) (88, -4.54180061817169190000e-001) (89, 3.25864219665527340000e+001) (90, 3.28439521789550780000e+001) (91, 3.28981781005859380000e+001) (92, 3.33043098449707030000e+001) (93, 3.33078994750976560000e+001) (94, 3.29225311279296880000e+001) (95, 3.32041320800781250000e+001) (96, 3.31016082763671870000e+001) (97, 3.31507415771484380000e+001) (98, -7.12832033634185790000e-001) (99, 3.32312736511230470000e+001) (100, 9.41704988479614260000e-001) (0, -2.37408727407455440000e-001) (1, 1.27483022212982180000e+000) (2, -8.27378273010253910000e-001) (3, -6.26843750476837160000e-001) (4, 1.74038350582122800000e-001) (5, 1.22256577014923100000e+000) (6, 6.89911186695098880000e-001) (7, 9.53873753547668460000e-001) (8, 1.33965659141540530000e+000) (9, 3.27498626708984370000e+001) (10, 5.05798533558845520000e-002) (11, -1.05041086673736570000e-001) (12, -3.14325511455535890000e-001) (13, -8.72455787658691410000e+000) (14, -5.70041894912719730000e-001) (15, -2.01158261299133300000e+000) (16, 3.57848435640335080000e-001) (17, 3.34177856445312500000e+001) (18, 1.19945049285888670000e+000) (19, 3.26809310913085940000e+001) (20, -3.81543159484863280000e-001) (21, 3.32012786865234380000e+001) (22, 3.62116128206253050000e-001) (23, -5.69194853305816650000e-002) (24, -9.29752945899963380000e-001) (25, 4.76844668388366700000e-001) (26, -2.55726754665374760000e-001) (27, 3.28619308471679690000e+001) (28, 1.31744790077209470000e+000) (29, 3.33544311523437500000e+001) (30, 1.28294020891189580000e-001) (31, 3.34961433410644530000e+001) (32, 4.12718445062637330000e-001) (33, -4.63007509708404540000e-001) (34, 1.05609595775604250000e+000) (35, 1.24619893729686740000e-001) (36, 8.37199628353118900000e-001) (37, 1.23133730888366700000e+000) (38, 4.60476636886596680000e-001) (39, 3.33935623168945310000e+001) (40, 2.12467275559902190000e-003) (41, -4.11168754100799560000e-001) (42, 