FANN_FLO_2.1
num_layers=4
learning_rate=0.700000
connection_rate=1.000000
network_type=0
learning_momentum=0.000000
training_algorithm=2
train_error_function=1
train_stop_function=0
cascade_output_change_fraction=0.010000
quickprop_decay=-0.000100
quickprop_mu=1.750000
rprop_increase_factor=1.200000
rprop_decrease_factor=0.500000
rprop_delta_min=0.000000
rprop_delta_max=50.000000
rprop_delta_zero=0.100000
cascade_output_stagnation_epochs=12
cascade_candidate_change_fraction=0.010000
cascade_candidate_stagnation_epochs=12
cascade_max_out_epochs=150
cascade_min_out_epochs=50
cascade_max_cand_epochs=150
cascade_min_cand_epochs=50
cascade_num_candidate_groups=2
bit_fail_limit=3.49999994039535520000e-001
cascade_candidate_limit=1.00000000000000000000e+003
cascade_weight_multiplier=4.00000005960464480000e-001
cascade_activation_functions_count=10
cascade_activation_functions=3 5 7 8 10 11 14 15 16 17 
cascade_activation_steepnesses_count=4
cascade_activation_steepnesses=2.50000000000000000000e-001 5.00000000000000000000e-001 7.50000000000000000000e-001 1.00000000000000000000e+000 
layer_sizes=4 6 6 2 
scale_included=1
scale_mean_in=1000.451233 1.045002 4.500000 
scale_deviation_in=0.287235 0.028723 2.872281 
scale_new_min_in=-1.000000 -1.000000 -1.000000 
scale_factor_in=1.000000 1.000000 1.000000 
scale_mean_out=1000.494019 
scale_deviation_out=0.812039 
scale_new_min_out=-1.000000 
scale_factor_out=1.000000 
neurons (num_inputs, activation_function, activation_steepness)=(0, 0, 0.00000000000000000000e+000) (0, 0, 0.00000000000000000000e+000) (0, 0, 0.00000000000000000000e+000) (0, 0, 0.00000000000000000000e+000) (4, 5, 5.00000000000000000000e-001) (4, 5, 5.00000000000000000000e-001) (4, 5, 5.00000000000000000000e-001) (4, 5, 5.00000000000000000000e-001) (4, 5, 5.00000000000000000000e-001) (0, 5, 0.00000000000000000000e+000) (6, 5, 5.00000000000000000000e-001) (6, 5, 5.00000000000000000000e-001) (6, 5, 5.00000000000000000000e-001) (6, 5, 5.00000000000000000000e-001) (6, 5, 5.00000000000000000000e-001) (0, 5, 0.00000000000000000000e+000) (6, 0, 5.00000000000000000000e-001) (0, 0, 0.00000000000000000000e+000) 
connections (connected_to_neuron, weight)=(0, -4.52326178550720210000e-001) (1, 7.72659629583358760000e-002) (2, 9.90928709506988530000e-002) (3, -2.52640455961227420000e-001) (0, -1.15935932844877240000e-002) (1, 1.56034796964377160000e-003) (2, -4.79649925231933590000e+000) (3, 5.35427904129028320000e+000) (0, -1.61624088883399960000e-001) (1, -5.94466030597686770000e-002) (2, 5.81163108348846440000e-001) (3, 3.64840149879455570000e-001) (0, -1.62315163761377330000e-002) (1, -1.11156515777111050000e-002) (2, -2.01455950736999510000e+000) (3, -1.84682846069335940000e+000) (0, -1.94488521665334700000e-002) (1, -1.29854818806052210000e-002) (2, 3.80477643013000490000e+000) (3, -2.45643660426139830000e-001) (4, 6.70331791043281560000e-002) (5, 6.46957814693450930000e-001) (6, -5.79016268253326420000e-001) (7, 7.06353664398193360000e-001) (8, 9.22541797161102290000e-001) (9, 2.03314632177352910000e-001) (4, -6.49056792259216310000e-001) (5, 5.45495748519897460000e-001) (6, -1.80234953761100770000e-001) (7, 5.37982702255249020000e-001) (8, 9.84873354434967040000e-001) (9, 2.03516259789466860000e-001) (4, 1.37817931175231930000e+000) (5, 1.17356449365615840000e-001) (6, 8.42633426189422610000e-001) (7, 2.46037721633911130000e-001) (8, -4.72269386053085330000e-001) (9, 5.15511870384216310000e-001) (4, -6.00383477285504340000e-003) (5, 7.80731439590454100000e-002) (6, -4.30223131179809570000e+000) (7, 4.39076919555664060000e+001) (8, -9.28309917449951170000e-001) (9, 3.41420292854309080000e-001) (4, 1.00781798362731930000e+000) (5, 7.99975842237472530000e-002) (6, 9.45334851741790770000e-001) (7, 2.02229157090187070000e-001) (8, -4.54069584608078000000e-001) (9, 3.89634341001510620000e-001) (10, 8.28002357482910160000e+000) (11, 2.02367115020751950000e+000) (12, -1.36146593093872070000e+000) (13, 9.81895864009857180000e-001) (14, -1.91455626487731930000e+000) (15, 3.24356973171234130000e-001) 
